{"neurons":16,"activationFunction":1,"weightsFlat":[-1.8010892868041993,1.3289166688919068,-2.559814691543579,2.4435176849365236,-1.1271171569824219,0.4272330701351166,-0.5077803730964661,-1.4458637237548829,1.4081814289093018,0.5700892210006714,0.10186943411827088,-0.987865686416626,-2.576442003250122,-0.6530939340591431,-0.8343862891197205,1.4486559629440308,-0.04053120315074921,-1.671247959136963,0.6144596338272095,-0.9013034105300903,1.2778890132904053,1.5057706832885743,-1.2527461051940919,-1.2523062229156495,-0.2917124927043915,-1.1657788753509522,-0.5503197908401489,0.11021681129932404,-1.6484462022781373,-2.7446236610412599,-1.349782943725586,-1.5149341821670533,0.550491213798523,-1.9048125743865967,-1.9444242715835572,-2.4673562049865724,-1.4347777366638184,2.5625553131103517,1.0777407884597779,-1.5793033838272095,1.1857669353485108,-0.9523212313652039,1.1766619682312012,1.7675567865371705,1.9542350769042969,0.31845757365226748,1.1711523532867432,1.4929883480072022,1.478690505027771,2.1061995029449465,1.6388353109359742,0.7298755645751953,0.5520943999290466,0.27604982256889346,1.338307499885559,-0.44242382049560549,1.1131675243377686,0.04675355181097984,0.3741997182369232,-0.4997233748435974,-1.2990890741348267,0.38052186369895937,0.19088539481163026,-1.4876391887664796,-1.1808832883834839,-0.3564551770687103,0.0729575902223587,1.2012348175048829,-1.458183765411377,-3.7730255126953127,0.7658467292785645,0.9943119287490845,2.197385549545288,0.5638513565063477,-0.9211017489433289,1.9602776765823365,-1.0590825080871583,-1.9089250564575196,-1.9974520206451417,0.17890256643295289,-0.8325667381286621,-0.4310168921947479,1.23050856590271,-1.3203535079956055,0.7825992107391357,0.8810939788818359,1.3179540634155274,-0.09910982847213745,-0.36453089118003847,1.7975069284439088,0.7491556406021118,-1.4367189407348633,-0.823959469795227,0.6594332456588745,-0.7032735347747803,1.9213463068008423,1.2317591905593873,1.1777901649475098,-0.05435943603515625,-0.01443365216255188,0.2737589180469513,-0.2293616682291031,-0.6301605701446533,0.3152034282684326,1.1918697357177735,-0.5696397423744202,0.21819789707660676,-1.045875906944275,0.6350088715553284,1.3159511089324952,0.8704600930213928,-0.5758745670318604,-1.5370665788650513,-0.8638876080513,2.0945370197296144,1.0928326845169068,-1.2586175203323365,0.4493057131767273,0.7133269309997559,0.9613150358200073,1.49945867061615,1.1191730499267579,0.005460768938064575,-1.9668433666229249,-0.24604028463363648,-2.1440908908843996,-0.3161974549293518,0.22957676649093629,0.513818621635437,0.9469258189201355,0.7842236161231995,-0.8108252286911011,-1.5856878757476807,-1.3635058403015137,0.6834561228752136,-1.3428512811660767,0.432512491941452,-1.3996927738189698,-0.17244580388069154,0.7969471216201782,1.3545576333999634,-0.5086168050765991,-0.0776991993188858,1.8917192220687867,-0.6358466744422913,1.100239634513855,1.447740077972412,-0.750541090965271,-1.948233962059021,1.1679267883300782,-1.7067698240280152,1.9284958839416505,-0.7705888152122498,-2.8064424991607668,1.2187100648880005,0.9666305184364319,-0.7120482921600342,-2.6155152320861818,-2.384347438812256,-1.8100413084030152,0.7722780108451843,-1.0824594497680665,1.225523591041565,-1.450864553451538,-0.07223747670650482,-0.9645934104919434,-0.7666034698486328,-1.343705177307129,-0.1215229332447052,-1.4077136516571046,1.4542529582977296,-0.8783389329910278,-3.0930068492889406,1.4227337837219239,-0.05724981054663658,-0.793635368347168,-1.2650445699691773,-0.8279054760932922,-1.5384854078292847,1.7048598527908326,1.341010570526123,1.0607223510742188,-1.0615988969802857,0.6282490491867065,1.5867764949798585,1.6219134330749512,-2.611598491668701,-0.8800235390663147,0.24952560663223267,1.495579481124878,1.7960493564605713,-0.9291008710861206,1.442908763885498,-0.4285883903503418,-2.4733688831329347,1.8059287071228028,-1.8880871534347535,1.026780366897583,-1.18369722366333,-1.0576692819595338,-1.2766139507293702,0.9840293526649475,-1.8102755546569825,-0.922408938407898,2.2723898887634279,-0.7651487588882446,-1.732639193534851,-1.393863558769226,-1.1847999095916749,1.6078211069107056,-0.8729112148284912,-2.9765422344207765,0.8373787999153137,-1.3860409259796143,-1.4524773359298707,-0.523674726486206,-1.6192615032196046,0.9912220239639282,1.431776523590088,3.40412974357605,-1.72331702709198,1.8059022426605225,0.39843907952308657,-0.42492419481277468,0.15728367865085603,0.37426692247390749,-1.6003928184509278,-1.0559513568878174,-1.9484238624572755,-0.21592487394809724,0.914650022983551,1.170170545578003,1.1797659397125245,-1.0484975576400757,-1.9709333181381226,-1.2976510524749756,0.8703093528747559,1.363102674484253,-1.8658473491668702,1.736656904220581,-0.590824544429779,1.6073545217514039,-2.6970624923706056,-0.32890284061431887,-1.2611963748931885,-1.185880422592163,0.2624056339263916,1.9801926612854005,-1.1010427474975587,2.193662643432617,-2.23299241065979,-1.0375102758407593,-1.6399096250534058,0.9233112335205078,0.10249379277229309,0.3604431450366974],"biases":[-0.13159647583961488,-0.11227448284626007,-0.1797892451286316,0.7236352562904358,-0.4859604239463806,0.4815221130847931,-2.359508991241455,-0.0069415271282196049,-0.7055835723876953,-0.7832885980606079,-0.7637318968772888,1.1991785764694214,1.1461288928985596,0.26841118931770327,-1.2920342683792115,1.508090853691101]}