{"neurons":16,"activationFunction":1,"weightsFlat":[0.7581040263175964,-0.05413758382201195,-0.7218177318572998,-1.177711009979248,0.11133362352848053,-1.8170675039291382,0.49487823247909548,-0.8090220093727112,1.3736201524734498,1.0985136032104493,-1.3814111948013306,-0.4595937132835388,0.6533315777778626,0.7954773902893066,1.711000919342041,-1.243610143661499,-1.3878870010375977,0.6134947538375855,-0.27101925015449526,2.2895419597625734,-2.519820213317871,-1.5893747806549073,2.2773969173431398,-1.7276657819747925,-0.17298910021781922,1.948251485824585,0.9065644145011902,-1.430610179901123,-0.9245301485061646,2.2303292751312258,-2.324493408203125,-0.9479135274887085,0.7476465702056885,-1.563109040260315,1.1762382984161378,-0.946783721446991,1.950391411781311,-0.3065367639064789,0.6490511894226074,1.4254748821258546,1.861956000328064,0.3323655426502228,-0.8511632084846497,-0.7204760313034058,2.114569664001465,1.0926376581192017,1.4761264324188233,1.1916965246200562,1.4103611707687379,-0.964154064655304,1.8224904537200928,0.312803715467453,0.2932695746421814,1.6159923076629639,-0.3780015707015991,0.039774395525455478,-1.1248252391815186,0.492205411195755,1.4221739768981934,-1.939869999885559,2.412492036819458,-0.09573927521705628,-1.5332034826278687,1.7038663625717164,-2.19038987159729,-1.7061522006988526,0.49956434965133669,0.8268710374832153,0.6756415963172913,0.5347828269004822,-2.38661527633667,-1.7515087127685547,1.6991838216781617,-1.6374083757400513,0.6478433609008789,2.0310487747192385,-1.3254669904708863,1.6080513000488282,-0.5191942453384399,0.08520452678203583,1.2901691198349,1.2512940168380738,1.0624959468841553,1.0938884019851685,0.7075372338294983,-0.35451099276542666,0.36105456948280337,-1.3436189889907838,0.35463541746139529,-0.3813267946243286,1.7888933420181275,0.5107690691947937,2.0336039066314699,-1.5121073722839356,-1.8132609128952027,0.08452250063419342,1.031802773475647,0.7560158967971802,-0.0939771831035614,0.5456604361534119,-0.026191875338554384,-1.836204171180725,-1.1110442876815797,-0.935255229473114,-0.2918953597545624,0.26452958583831789,1.835275411605835,-0.14474967122077943,0.08475448191165924,-1.8554399013519288,0.2005780041217804,0.5295099020004273,-1.4443821907043458,1.0332586765289307,-1.112086534500122,-1.5749406814575196,0.23943139612674714,1.3287194967269898,-0.06099043786525726,0.5356466174125671,-2.160916328430176,1.798338770866394,0.6352455615997315,1.5324981212615967,-1.9165958166122437,-0.22434072196483613,-1.6708810329437256,0.2910625636577606,-1.2621910572052003,0.0765041708946228,0.49545061588287356,-0.39198049902915957,-2.77885365486145,2.06941819190979,0.10016895830631256,-1.6089062690734864,0.6845566034317017,-0.5444942712783814,-0.38746923208236697,1.1122140884399415,1.014906883239746,-0.16815413534641267,0.31243059039115908,-0.9985915422439575,-2.038116455078125,-0.06162983924150467,1.0160646438598633,-3.120683193206787,-1.5030443668365479,-0.5703722834587097,0.8955394625663757,0.12319858372211456,1.9400560855865479,1.9793329238891602,-0.8206986784934998,1.2499467134475709,1.7455592155456544,1.9329383373260499,-0.15952655673027039,-1.5570876598358155,0.1682644784450531,-1.334659218788147,0.6715469360351563,1.177505612373352,-1.3264864683151246,1.484533429145813,0.7289408445358276,1.6500327587127686,-0.9571388363838196,-2.3044352531433107,-1.907748818397522,-1.1218281984329224,0.3236449956893921,0.20493067800998689,1.2956390380859376,0.8507081270217896,-1.1184613704681397,-2.7917897701263429,-2.894564390182495,1.8886018991470338,-1.3176132440567017,-1.5906453132629395,2.0014376640319826,-1.23692786693573,-0.23050594329833985,-1.1263127326965333,1.2645213603973389,-0.26846107840538027,2.338334798812866,0.10523174703121185,-1.0011610984802247,-1.7789725065231324,-0.6948776245117188,-0.3818790316581726,1.0367616415023804,0.282518208026886,-1.220384955406189,2.3205642700195314,0.7163925170898438,-0.18984684348106385,0.48422110080718996,-2.072416067123413,0.8667867183685303,-1.3477940559387208,2.0307743549346926,-1.1112830638885499,1.9174742698669434,1.8892600536346436,-1.4128751754760743,-0.7970035076141357,-1.314202070236206,1.1110336780548096,1.331606388092041,-1.0429744720458985,-1.2951964139938355,-1.3162559270858765,0.8514524698257446,-0.99248206615448,1.3442095518112183,-0.11399579048156738,1.2430839538574219,-0.21493451297283173,-1.0643310546875,0.22140899300575257,-0.3351837396621704,-0.12617149949073792,0.5280419588088989,-0.12615187466144563,-0.6979273557662964,0.6257010102272034,0.7492812871932983,-1.308390736579895,-1.5454622507095338,-0.8014671206474304,0.7345923185348511,0.8105541467666626,-0.09554526954889298,0.3496536314487457,1.7295511960983277,-1.0192859172821046,0.6276447772979736,-0.24741438031196595,-1.4320881366729737,-0.44880327582359316,1.3567758798599244,-1.7656269073486329,0.02652876079082489,-0.6703627109527588,0.8485389351844788,-0.1497049331665039,-1.0936135053634644,0.23845797777175904,-0.45999017357826235,1.1531918048858643,1.8491301536560059,0.25795239210128786],"biases":[-1.485235571861267,-0.6742167472839356,-0.2560254633426666,0.146591916680336,-0.9860416650772095,-0.04875555634498596,-2.0451626777648927,0.6400294899940491,-0.28143036365509035,-0.41061270236968996,-1.47310209274292,-0.7011609077453613,1.1527527570724488,0.6948789358139038,-0.3215984106063843,-0.1350601315498352]}