{"neurons":6,"activationFunction":0,"weightsFlat":[1.2966862916946412,1.3304067850112916,1.1175074577331544,2.0716278553009035,1.250428557395935,-0.9955976009368897,1.7563105821609498,1.674513816833496,0.5064568519592285,1.1881095170974732,0.659278154373169,0.591306746006012,0.45815712213516238,0.9908309578895569,2.0393545627593996,-1.4501572847366334,0.8809593915939331,-2.017671585083008,2.785712242126465,1.3983248472213746,0.2599400579929352,1.0669262409210206,1.437425136566162,1.694854736328125,-1.014674425125122,1.1246256828308106,0.3303188979625702,1.079715371131897,1.5373815298080445,-0.14952999353408814,-1.4658185243606568,-1.1600984334945679,1.6643683910369874,0.06363672763109207,-0.20076365768909455,-0.6714370250701904,-0.539691686630249,0.9921307563781738,-1.3800015449523926,-0.1219009980559349,1.1151574850082398,0.6268008351325989,0.15218275785446168,-0.47027871012687685,1.909687876701355,-1.4246206283569337,-1.3123574256896973,-1.5038459300994874,0.14091895520687104,-0.8070127964019775,-0.8301475644111633,1.152677059173584,-1.5720562934875489,-1.8803367614746094,0.735479474067688,1.5285626649856568,0.355435311794281,0.48790502548217776,1.262731671333313,-1.0722150802612305,-1.1473255157470704,-0.7748034596443176,-1.0683156251907349,-2.242551565170288,-0.37715446949005129,1.5329991579055787,-1.3048657178878785,-1.6241002082824708,-0.23391906917095185,1.766621708869934,2.3486814498901369,-0.6544657945632935,-0.9598782062530518,0.8553640246391296,0.15583594143390656,-1.2384529113769532,-2.074643135070801,-0.0826231986284256,1.0085718631744385,-1.0195773839950562,-0.4306771755218506,1.7122126817703248,-0.6551441550254822,1.2689719200134278,0.7460830807685852,0.23305585980415345,-1.9731369018554688,0.7393839955329895,1.6039507389068604,0.15483134984970094,1.2919548749923707,0.7035505175590515,0.5723686218261719,-0.48560625314712527,1.1940096616744996,-2.040087938308716],"biases":[0.39048442244529726,0.177244171500206,-0.1687035858631134,-1.2094284296035767,-1.2544080018997193,-3.3803796768188478]}