{"neurons":16,"activationFunction":1,"weightsFlat":[-0.04952223598957062,-2.339501142501831,1.4346938133239747,-1.0573835372924805,2.5464212894439699,0.44103503227233889,0.5981895923614502,-1.579416275024414,0.2207665890455246,-1.3098794221878052,-0.6097066402435303,1.8282930850982667,-2.261847496032715,0.19755339622497559,1.0552561283111573,-0.4326063394546509,0.5806267261505127,1.505162000656128,-2.5658607482910158,0.43633225560188296,1.8668137788772584,0.4400191307067871,2.02164888381958,0.6764136552810669,3.0497429370880129,1.4971891641616822,-0.731614351272583,0.28079456090927126,-0.36598655581474306,0.5687230825424194,0.6768336296081543,-1.4555104970932007,0.5762523412704468,1.0995795726776124,1.360257863998413,1.834168791770935,-1.1130268573760987,-0.028902173042297365,1.1152211427688599,-1.750256896018982,0.37771302461624148,-0.5346708297729492,0.6569101214408875,0.8696150183677673,-0.9695501923561096,-1.4148695468902588,0.9044119119644165,0.9926345944404602,-0.7178025841712952,-0.6125481128692627,-1.7293756008148194,-0.28309696912765505,0.16189801692962647,-0.6491714715957642,0.7417513132095337,1.6560230255126954,-1.5452967882156373,-0.16108255088329316,-0.09739961475133896,-0.33170029520988467,-0.22659140825271607,1.182464838027954,-0.3131486475467682,0.21219180524349214,0.9163194298744202,0.4522080421447754,0.9267014861106873,-1.7503573894500733,-0.6840959191322327,0.9549499154090881,-1.1768912076950074,-1.1289279460906983,1.7563263177871705,-1.6194766759872437,0.4737383723258972,1.1269205808639527,2.6256353855133058,0.26239562034606936,1.6231046915054322,-1.579012393951416,0.7037107944488525,-0.5666530132293701,0.35554492473602297,-0.8188427090644836,2.824033737182617,1.0167171955108643,-1.0303432941436768,-1.3901797533035279,0.14102637767791749,-0.7051723599433899,-1.8922491073608399,1.1853883266448975,1.2822928428649903,-1.068989872932434,-0.04084885120391846,-0.7101110219955444,-0.6797982454299927,0.23159874975681306,0.1078888326883316,-1.6445708274841309,-1.0370550155639649,1.4669828414916993,1.8506337404251099,1.2886650562286378,0.1004258543252945,2.496920347213745,0.9681099057197571,1.5130749940872193,0.7508578896522522,0.4456084668636322,1.735097885131836,0.5958465933799744,0.5035514235496521,1.7269481420516968,-1.5344058275222779,1.3541295528411866,-0.6465076208114624,-1.2719173431396485,-1.1041239500045777,-2.2424545288085939,-0.13461285829544068,-0.9746270179748535,-0.7870483994483948,0.1145314872264862,-0.1266573965549469,-0.28336191177368166,-0.3175767660140991,-1.424004316329956,0.43019863963127139,1.635329246520996,1.458009958267212,2.294412612915039,0.004154477268457413,0.7271009087562561,-1.1381193399429322,-0.6357252597808838,1.6137629747390748,-2.0535495281219484,-1.0026582479476929,-1.3739055395126343,-1.4913194179534913,1.2253189086914063,-2.354290723800659,-0.0726986974477768,-1.2414120435714722,0.941134512424469,-0.738336443901062,-1.4961968660354615,-1.1513054370880128,0.09808410704135895,2.3021113872528078,0.9575842618942261,-0.08377844095230103,-1.1134709119796754,-1.3287901878356934,1.9377156496047974,0.9209078550338745,-0.8607336282730103,0.5255066752433777,-1.0292303562164307,0.24119168519973756,0.81777024269104,-0.23023433983325959,-1.9096910953521729,1.176171064376831,1.5329896211624146,-1.1828433275222779,0.6808254718780518,0.001976046711206436,-1.1112186908721924,1.8359659910202027,-0.45754116773605349,-0.8116682767868042,2.588785171508789,-1.2288739681243897,-1.2197681665420533,-0.8508847951889038,1.6084775924682618,-1.9558091163635255,1.0032905340194703,-1.0628966093063355,-0.0746772289276123,0.23916105926036836,0.13626419007778169,1.184407353401184,1.703424334526062,1.496695637702942,-0.7890607118606567,0.3752502202987671,1.6518996953964234,0.26549822092056277,1.1106112003326417,1.6794183254241944,-1.244509220123291,0.24871888756752015,-1.2083797454833985,-1.6729798316955567,-2.298525810241699,0.4981626868247986,-1.2239640951156617,3.244917869567871,0.45426398515701296,1.4303486347198487,2.581333875656128,1.300782322883606,1.2966160774230958,-1.4284300804138184,-0.28683972358703616,1.801368236541748,0.21540647745132447,-0.8823936581611633,1.678316593170166,0.9228843450546265,1.748835563659668,-1.425341010093689,1.6642330884933472,-2.989088535308838,-2.7286038398742677,-1.5645958185195923,1.935413122177124,1.5699975490570069,2.5266966819763185,1.3231526613235474,1.6407917737960816,1.2591495513916016,0.8945072293281555,-0.4707713723182678,0.672419011592865,-0.7491333484649658,1.235656976699829,1.9976234436035157,0.48137855529785159,-2.6195156574249269,-1.2131346464157105,1.700390100479126,0.06371098756790161,1.11507248878479,1.2500900030136109,1.7473286390304566,-2.0482304096221926,-1.2520956993103028,-1.2738932371139527,0.921505868434906,-0.37192827463150027,0.32958656549453738,0.2738628387451172,-0.9837789535522461,1.35335111618042,-1.98223876953125,-1.5826852321624756,1.5117746591567994,0.30539461970329287,-1.033365249633789,-1.110860824584961,1.1880040168762208,1.4670205116271973],"biases":[0.8918319344520569,0.5837290287017822,-2.0702359676361086,1.0170509815216065,-1.5696375370025635,2.0539283752441408,1.470184087753296,1.5258744955062867,0.5398668050765991,-1.0405305624008179,-0.39438948035240176,2.3421173095703127,-0.9872242212295532,-0.7632066011428833,-1.1313741207122803,0.43615564703941347]}