{"neurons":16,"activationFunction":1,"weightsFlat":[0.8739278316497803,3.626837968826294,0.26152437925338747,-2.0247368812561037,-1.3725606203079224,-1.6555935144424439,0.3649623394012451,0.48013103008270266,-1.346022129058838,0.9820536971092224,-0.12202870845794678,-0.8587877154350281,-0.4495542347431183,0.681657612323761,-1.3308744430541993,-1.697210669517517,-1.841822624206543,-1.8753249645233155,0.6184616684913635,1.2876750230789185,-1.3416999578475953,-1.2622759342193604,0.7584176063537598,-1.8667572736740113,2.4380085468292238,-0.30225828289985659,0.22375750541687013,-0.5795223116874695,0.709431529045105,1.2432982921600342,0.417339950799942,-2.0700905323028566,1.4463810920715333,0.8401383757591248,2.269876003265381,1.9855645895004273,1.527716875076294,0.1950778365135193,1.4682040214538575,-0.7144383788108826,-1.36739182472229,0.7673701047897339,1.7933731079101563,0.7943347096443176,1.2875831127166749,1.8663413524627686,1.2382769584655762,1.0610746145248414,-1.7674427032470704,1.151750922203064,-0.5014615654945374,-0.44477975368499758,-1.4671375751495362,-0.6920658349990845,0.46591874957084658,-0.8407544493675232,0.7791356444358826,0.5439943671226502,-1.3454405069351197,0.41427022218704226,0.4072985053062439,-0.9705694317817688,1.0126155614852906,0.3216991722583771,1.952633261680603,0.2789960503578186,1.9023653268814088,-1.2887942790985108,0.010306689888238907,1.0195358991622925,-1.4022995233535767,-0.2752217650413513,1.0692452192306519,-1.3680542707443238,2.247551441192627,-1.123354196548462,-0.02405621111392975,-1.1207845211029053,-0.04449711740016937,-1.5101230144500733,0.15214155614376069,-1.1027989387512208,-0.4041101634502411,1.2879729270935059,-0.8531262874603272,1.4373388290405274,-1.8740828037261963,0.25538766384124758,-1.9102259874343873,-0.05130069702863693,1.3361536264419556,1.2894595861434937,2.374138355255127,0.8241884708404541,1.7973647117614747,-1.0135902166366578,-1.0555815696716309,-1.6096282005310059,-1.6146647930145264,-0.6225380897521973,2.06903338432312,0.26518741250038149,2.278347969055176,-0.042224377393722537,-1.2544662952423096,0.8595573902130127,0.8944709300994873,-0.8802270293235779,-1.7769389152526856,1.0438319444656373,-0.10910388827323914,-0.1300213783979416,-1.4787306785583497,-1.9322786331176758,-3.5069022178649904,-0.9239078760147095,1.828721284866333,1.8117640018463135,-0.3857971131801605,-0.9356660842895508,-1.376239538192749,0.2967347800731659,1.608971357345581,-0.18967227637767793,-0.8611040115356445,0.8671742677688599,1.686252474784851,1.3639140129089356,-1.0915887355804444,1.2232553958892823,1.4920305013656617,-1.029129981994629,-0.7859081625938416,-1.3460919857025147,-0.4502381682395935,-0.46788185834884646,0.11132785677909851,-0.8290538787841797,-0.39544087648391726,-1.862503170967102,0.1472811996936798,-1.4060771465301514,0.42381808161735537,1.1500434875488282,0.19859519600868226,1.5416896343231202,0.8087626099586487,0.8250423669815064,-0.34773433208465578,1.3037399053573609,1.4428009986877442,-1.4038379192352296,1.2761152982711793,-1.837295413017273,1.2154877185821534,1.5164598226547242,0.9924441576004028,1.7811205387115479,0.10893873125314713,0.2581788897514343,-1.0535802841186524,-0.9861297607421875,1.6616153717041016,-1.7576614618301392,1.8857989311218262,-1.3811514377593995,0.9443125128746033,-0.6485036015510559,-1.6381654739379883,-0.4330042004585266,-1.1309348344802857,0.1603991985321045,0.844035267829895,0.7021406888961792,-2.5020999908447267,1.1405906677246094,-1.7057199478149415,-0.095026396214962,0.08388398587703705,-0.6356984376907349,1.057906150817871,0.43201181292533877,-0.3461008071899414,1.9794347286224366,-2.4519472122192385,-1.502847671508789,-1.4417917728424073,-0.19221138954162599,-0.5070362687110901,0.11996611952781677,1.754804253578186,0.6146314740180969,-2.9942359924316408,-0.4342939257621765,1.5556668043136597,-1.8574485778808594,-0.44066163897514346,-0.07454604655504227,-0.8137601017951965,0.4368837773799896,-0.9412840008735657,0.3744152784347534,1.3401154279708863,-1.289185881614685,-1.0062514543533326,-0.9598467350006104,1.0308036804199219,-0.11092381179332733,1.3304436206817628,-1.4595489501953126,0.7249112725257874,-0.601465106010437,-0.07462611794471741,-0.35578301548957827,1.1796207427978516,1.267525315284729,-1.138472080230713,1.9163457155227662,0.6752334833145142,-1.7915289402008057,-0.34504610300064089,0.19440239667892457,-1.8435438871383668,0.456669420003891,0.7573992609977722,-1.3087711334228516,-0.4444027841091156,-1.313217282295227,-1.5386708974838257,0.20466488599777223,-1.4481513500213624,-2.2363429069519045,-1.2312642335891724,-0.4538801908493042,-0.13441355526447297,2.492342710494995,0.6852527856826782,1.3130297660827637,-0.7682022452354431,-1.4621132612228394,0.2795632481575012,0.4554344117641449,1.1588654518127442,0.58701092004776,0.18297265470027924,1.7161892652511597,1.4657230377197266,-0.3548465669155121,0.7701214551925659,1.438044548034668,-1.3019343614578248,-0.06133992597460747,1.4248013496398926,-1.3076409101486207,-0.11685127019882202,1.4628911018371583],"biases":[0.5032327175140381,-0.9952287673950195,-0.9873464107513428,0.4752903878688812,1.1526601314544678,-1.5151528120040894,1.0722081661224366,-1.905644416809082,-2.439054489135742,-1.67899489402771,-0.7648193836212158,0.9279763102531433,0.160613015294075,-0.9938274621963501,0.7720507979393005,-0.836417019367218]}