{"neurons":7,"activationFunction":3,"weightsFlat":[0.49222609400749209,0.0747600793838501,-0.3313039541244507,0.3682996928691864,-0.9175996780395508,0.007567763328552246,-0.577491044998169,-0.7341163158416748,0.8518455028533936,0.3360113799571991,0.3176979720592499,-0.23250067234039308,0.39577552676200869,-0.591071605682373,-0.003745436668395996,0.44743773341178896,0.6158397197723389,0.5004582405090332,-0.07197535037994385,0.9695074558258057,-0.537970781326294,-0.5581490993499756,-0.6537857055664063,0.4055905044078827,0.23293864727020265,-0.019062161445617677,0.8929843902587891,-0.12951958179473878,-0.10247290134429932,0.7307524681091309,0.4221894443035126,0.7615292072296143,0.5622406005859375,0.6433086395263672,0.6362776756286621,0.8516409397125244,-0.28545820713043215,0.2512960135936737,-0.255290150642395,-0.6164035797119141,-0.5901217460632324,-0.21093738079071046,-0.33094704151153567,0.42830416560173037,0.8608629703521729,-0.05098116397857666,0.4810037314891815,-0.8265430927276611,0.03131139278411865,0.5207972526550293,0.8249390125274658,-0.768610954284668,0.8995158672332764,-0.47731316089630129,0.6706104278564453,0.11667406558990479,0.7468345165252686,0.3133661448955536,0.48388907313346865,-0.3706883192062378,-0.210504412651062,0.4099979102611542,0.5719993114471436,0.5300359725952148,0.2899467647075653,0.6895887851715088,0.39999720454216006,0.8374006748199463,0.8103876113891602,0.4347994029521942,-0.9650650024414063,-0.8640422821044922,0.08523380756378174,0.013825535774230957,0.5346202850341797,-0.4716283082962036,-0.3197993040084839,0.9849770069122315,0.7789642810821533,0.18020117282867433,-0.14913785457611085,-0.12684595584869386,0.31540367007255556,0.8141894340515137,0.09941637516021729,0.8687291145324707,-0.46028006076812746,0.6071188449859619,-0.6092774868011475,0.9560580253601074,-0.9150347709655762,0.8800332546234131,-0.7577099800109863,0.6361804008483887,-0.10434973239898682,-0.3084827661514282,0.4409277141094208,-0.28270065784454348,-0.9515531063079834,-0.6101272106170654,-0.3510643243789673,-0.034213900566101077,0.7973597049713135,-0.8819620609283447,-0.09868967533111572,0.7992513179779053,0.10918056964874268,-0.9541194438934326,0.13393890857696534,0.49379417300224306,0.9339644908905029,-0.8057498931884766],"biases":[0.8834524154663086,-0.8780324459075928,0.8308539390563965,-0.22373974323272706,-0.9898595809936523,-0.8101015090942383,-0.8892383575439453]}