{"neurons":32,"activationFunction":1,"weightsFlat":[-0.1627253293991089,0.4602756202220917,-0.5224466323852539,0.9655251502990723,0.13388359546661378,0.8071653842926025,-0.8702208995819092,-0.2746044397354126,0.7156293392181397,0.17325317859649659,-0.5733983516693115,0.059828877449035647,-0.6154477596282959,0.5739827156066895,-0.3349055051803589,-0.5819735527038574,0.1594628095626831,-0.7726497650146484,-0.8847527503967285,0.7212457656860352,0.4756180942058563,-0.7994542121887207,-0.5390317440032959,0.8209810256958008,0.13431966304779054,0.19641244411468507,0.9468696117401123,-0.7944462299346924,-0.25491034984588625,-0.940845251083374,0.6717638969421387,0.4955873191356659,-0.2315605878829956,0.7615423202514648,-0.9940876960754395,-0.5861179828643799,-0.38628828525543215,0.878490686416626,-0.28584134578704836,-0.8836531639099121,0.8804244995117188,-0.6587796211242676,-0.042691826820373538,-0.899829626083374,-0.344305157661438,0.3111536204814911,-0.8153197765350342,-0.2780681848526001,0.6874339580535889,-0.5071465969085693,-0.4349304437637329,0.21107661724090577,0.033667922019958499,0.29152533411979678,-0.5448992252349854,0.2963204085826874,0.5001559257507324,-0.5885579586029053,-0.39022839069366457,-0.1288844347000122,-0.9483993053436279,0.10506594181060791,0.027757763862609865,-0.6798810958862305,0.8785881996154785,-0.35607945919036868,0.5295507907867432,-0.7391719818115234,-0.5322098731994629,0.8238575458526611,-0.1747204065322876,0.908449649810791,0.28020283579826357,0.7472584247589111,0.1438690423965454,-0.36615049839019778,0.4827687442302704,0.6105737686157227,0.662055492401123,0.39393922686576846,-0.42011964321136477,0.9761261940002441,-0.9171802997589111,0.4451462924480438,0.4096958339214325,0.4640049636363983,-0.24505174160003663,0.78407883644104,-0.37730872631073,0.9956886768341065,0.8789870738983154,0.677321195602417,-0.1546691656112671,-0.8205065727233887,0.14498698711395265,-0.6970877647399902,0.2990114390850067,0.5656862258911133,0.7131884098052979,-0.5956876277923584,0.36014434695243838,-0.47027885913848879,0.09071791172027588,0.9251530170440674,-0.7213072776794434,0.33162376284599306,0.22447288036346436,0.5941727161407471,-0.12950623035430909,-0.2953449487686157,0.5042285919189453,0.3312630355358124,0.30172082781791689,-0.9088056087493897,0.9212143421173096,-0.6043305397033691,0.19546735286712647,-0.1337336301803589,0.6195757389068604,0.379451721906662,0.5047457218170166,-0.8177168369293213,-0.287197470664978,-0.0887523889541626,0.008002400398254395,0.4509865939617157,0.2334657907485962,-0.6309633255004883,-0.5598549842834473,0.34331342577934267,-0.07777440547943115,0.26668474078178408,-0.11869585514068604,0.189278244972229,-0.341617226600647,-0.3268018960952759,0.5494904518127441,0.20371949672698975,0.8684561252593994,0.9046521186828613,0.237862229347229,-0.14430224895477296,0.214988112449646,-0.34583795070648196,0.2999105155467987,-0.300174355506897,0.7316889762878418,-0.5610008239746094,0.7925012111663818,0.969451904296875,-0.23646128177642823,0.81386399269104,-0.5435717105865479,0.6857738494873047,0.1559995412826538,0.321665495634079,0.8625364303588867,-0.114493727684021,0.27190133929252627,-0.7448108196258545,-0.66778564453125,-0.12892258167266847,-0.5853939056396484,0.08218872547149658,0.6737806797027588,0.48816797137260439,0.9315602779388428,0.20788991451263429,0.2231379747390747,0.10100185871124268,-0.023235440254211427,0.6164305210113525,-0.30551135540008547,-0.9694585800170898,0.14262187480926515,0.8426787853240967,0.47305771708488467,-0.3030661344528198,-0.15640676021575929,0.46481820940971377,0.06428658962249756,0.615673303604126,-0.14603984355926515,-0.7717509269714356,-0.8817434310913086,-0.019659876823425294,0.31732460856437685,0.5494906902313232,0.21086323261260987,-0.2615751028060913,-0.5384299755096436,-0.21429598331451417,-0.5192990303039551,0.6865317821502686,0.5747165679931641,-0.1698976755142212,0.5397133827209473,-0.0310591459274292,-0.8920023441314697,0.9851655960083008,0.06457340717315674,-0.8310673236846924,-0.13173210620880128,0.4698042571544647,-0.4730299711227417,0.36417385935783389,0.83553147315979,-0.9363181591033936,-0.9018661975860596,-0.6895055770874023,0.8001689910888672,0.18373548984527589,0.42870470881462099,-0.6721415519714356,-0.6767623424530029,0.34731122851371767,0.5910739898681641,0.5386519432067871,-0.6042776107788086,-0.9574122428894043,-0.5393698215484619,-0.1627568006515503,-0.6720700263977051,-0.6497642993927002,-0.055701375007629397,-0.369773268699646,-0.144797682762146,0.6416213512420654,-0.9102182388305664,-0.9928102493286133,0.7537848949432373,-0.3755606412887573,-0.6828322410583496,-0.7353203296661377,0.312174528837204,-0.14706003665924073,-0.15768659114837647,0.814429521560669,0.7765326499938965,-0.26272881031036379,0.6579360961914063,-0.8212685585021973,-0.6969125270843506,0.2522089183330536,0.2338627576828003,0.29466578364372256,-0.7366933822631836,0.7735152244567871,0.7929785251617432,-0.4698678255081177,0.2713782489299774,-0.9997742176055908,-0.21226203441619874,0.629796028137207,0.615013599395752,0.11918175220489502,-0.31602537631988528,-0.6952300071716309,0.39604827761650088,-0.7132048606872559,0.991187334060669,0.8706207275390625,0.5265476703643799,0.9589881896972656,-0.507645845413208,0.02313840389251709,-0.3433643579483032,-0.20005881786346436,0.7407143115997315,0.9972336292266846,-0.44759857654571535,0.7526872158050537,0.5694591999053955,0.11980855464935303,0.3949374854564667,0.41287848353385928,0.9027268886566162,-0.12042820453643799,-0.2080305814743042,0.48779603838920596,0.6417429447174072,0.40671154856681826,-0.3053978681564331,-0.16162621974945069,-0.9251687526702881,0.6922986507415772,-0.4896329641342163,0.898125410079956,-0.3930143117904663,-0.6817939281463623,-0.7067692279815674,-0.6316323280334473,0.6004300117492676,-0.7546725273132324,0.8365259170532227,-0.1928330659866333,0.677138090133667,0.4420115649700165,0.12413251399993897,0.5497500896453857,0.012341856956481934,-0.7679040431976318,-0.3176842927932739,-0.9323902130126953,-0.9974269866943359,0.5612461566925049,0.7473649978637695,0.04385054111480713,-0.7955119609832764,0.9766266345977783,-0.34401118755340578,0.45225879549980166,0.46721503138542178,-0.189447283744812,-0.9659590721130371,0.013943314552307129,-0.7865538597106934,0.7601559162139893,-0.5916953086853027,0.7594385147094727,0.4113714396953583,0.8303642272949219,-0.30228865146636965,-0.367123007774353,0.8097324371337891,0.9810099601745606,0.09451091289520264,0.13021647930145265,0.06665146350860596,-0.44747769832611086,-0.09635984897613526,-0.057289719581604007,0.9669551849365234,0.42381665110588076,0.08850181102752686,-0.7406625747680664,-0.23179519176483155,0.1709359884262085,0.9192245006561279,0.5466382503509522,-0.826432466506958,-0.0034979581832885744,-0.5427546501159668,-0.2767413854598999,-0.11601102352142334,0.34116002917289736,-0.8827180862426758,0.1526099443435669,-0.017770886421203615,-0.5095362663269043,-0.7958118915557861,-0.4488588571548462],"biases":[0.1788407564163208,0.4143178164958954,0.3393091857433319,-0.798105001449585,0.2868783175945282,-0.33954179286956789,-0.6963374614715576,0.6351008415222168,-0.06933152675628662,0.998410701751709,-0.4947272539138794,-0.6522073745727539,0.18708789348602296,-0.2587028741836548,0.7298276424407959,0.627596378326416,-0.10139858722686768,-0.6824057102203369,0.9431605339050293,0.27380725741386416,0.6062912940979004,-0.3652688264846802,0.8936176300048828,-0.10963714122772217,0.16883885860443116,0.5991814136505127,0.7967495918273926,-0.7195284366607666,0.9162313938140869,-0.22907865047454835,0.239416241645813,0.3033461272716522]}