{"neurons":16,"activationFunction":0,"weightsFlat":[0.7855651378631592,0.25356122851371767,0.4552924335002899,0.9334568977355957,0.8311381340026856,-0.46403729915618899,-0.1385563611984253,0.25814101099967959,0.5113089084625244,-0.8419895172119141,0.6983823776245117,-0.9008758068084717,0.8050031661987305,-0.18454968929290772,-0.8414978981018066,0.161795973777771,-0.23602092266082765,0.19964492321014405,-0.9311118125915527,-0.8784778118133545,-0.8675844669342041,0.3211509883403778,-0.4461737871170044,0.9405543804168701,-0.16406333446502686,0.09603798389434815,-0.3452202081680298,-0.556220293045044,0.24559509754180909,0.681157112121582,-0.8555262088775635,-0.4388226270675659,-0.7231841087341309,0.7361431121826172,0.1042412519454956,-0.6851110458374023,-0.5331621170043945,0.21600615978240968,-0.6017062664031982,-0.8616442680358887,0.012220501899719239,-0.5621054172515869,-0.8570282459259033,-0.8789527416229248,0.10362875461578369,0.10447990894317627,-0.5673108100891113,-0.39657580852508547,0.9034006595611572,0.008417010307312012,-0.6906838417053223,-0.29558122158050539,-0.8400990962982178,-0.2419506311416626,0.30698344111442568,-0.615164041519165,0.7320942878723145,-0.9380872249603272,-0.8464150428771973,0.9103200435638428,-0.21620047092437745,0.4137677848339081,-0.7868983745574951,0.5062332153320313,-0.9190917015075684,0.9010629653930664,-0.25859200954437258,0.3957051932811737,-0.8939628601074219,-0.502737283706665,-0.47891366481781008,-0.5773904323577881,0.6108715534210205,-0.47737038135528567,0.8602724075317383,-0.6146299839019775,0.9878425598144531,0.9994809627532959,0.09324347972869873,0.057749390602111819,-0.7637982368469238,-0.8824567794799805,0.09600722789764404,-0.00848090648651123,-0.6105844974517822,0.04569113254547119,0.23362410068511964,0.11609780788421631,0.43065306544303896,-0.06899368762969971,-0.44937264919281008,-0.8068633079528809,-0.21112191677093507,0.8773951530456543,0.5483405590057373,-0.048214077949523929,-0.38142144680023196,0.41667649149894717,-0.4018205404281616,-0.9206454753875732,0.2633320987224579,-0.25846803188323977,0.14457190036773683,0.24753129482269288,-0.922537088394165,0.10982692241668701,0.8877837657928467,0.7271444797515869,-0.12689006328582765,0.6037983894348145,-0.1715179681777954,0.5142731666564941,-0.0770636796951294,0.7945690155029297,0.3478257358074188,0.2111755609512329,-0.7624812126159668,0.04526174068450928,0.036966919898986819,0.8231470584869385,0.5635244846343994,-0.8575823307037354,0.5098836421966553,0.7831106185913086,-0.9418578147888184,-0.6215689182281494,-0.9287652969360352,0.8486230373382568,0.1975189447402954,0.7379636764526367,0.46652814745903017,0.23233234882354737,0.6664326190948486,0.4046458899974823,0.9906446933746338,0.9433495998382568,0.7978127002716065,0.06485354900360108,0.47380802035331728,-0.3009234666824341,0.9506442546844482,-0.25006401538848879,0.1186288595199585,0.026663899421691896,0.5903778076171875,0.4104554355144501,-0.7515063285827637,-0.20100390911102296,-0.1136096715927124,0.3466026484966278,0.740433931350708,0.3424675166606903,0.2774367034435272,0.9646174907684326,0.01727426052093506,0.017310261726379396,0.36180874705314639,0.7385990619659424,0.9674475193023682,0.6499042510986328,-0.4597383737564087,-0.9516134262084961,-0.8588132858276367,-0.485676646232605,-0.9852216243743897,0.492228239774704,0.8577299118041992,-0.49150359630584719,-0.7897005081176758,-0.83612060546875,-0.3266638517379761,-0.04179060459136963,-0.4923962354660034,-0.5635237693786621,-0.4533897638320923,0.835303544998169,0.3459734618663788,0.6936366558074951,-0.059766411781311038,-0.9262588024139404,0.6103811264038086,-0.2734721899032593,0.9806103706359863,0.33333703875541689,0.31975433230400088,-0.27837979793548586,0.5331649780273438,-0.7730700969696045,-0.7137186527252197,0.1096581220626831,-0.5407323837280273,-0.6345264911651611,0.4631054103374481,0.7790052890777588,-0.8516767024993897,0.12522828578948975,-0.9013814926147461,0.35860463976860049,0.553572416305542,0.08366572856903076,-0.1976233720779419,-0.7908856868743897,-0.7220573425292969,0.28435155749320986,0.46985170245170596,-0.26701462268829348,0.6718294620513916,0.9069006443023682,-0.11842381954193115,-0.452121376991272,0.3193666636943817,0.7363617420196533,-0.33948051929473879,0.9210379123687744,-0.09741580486297608,-0.2268608808517456,0.44118592143058779,-0.35322439670562746,-0.6239919662475586,0.013734698295593262,0.20211780071258546,0.11326038837432862,0.05473792552947998,0.5860488414764404,-0.2048424482345581,-0.2944129705429077,0.03610408306121826,-0.4230886697769165,0.7160534858703613,0.057172179222106937,0.05309164524078369,0.5101654529571533,0.3751063048839569,-0.3817242383956909,-0.8242015838623047,0.613511323928833,-0.9300930500030518,-0.5243089199066162,-0.9454028606414795,-0.15033972263336183,-0.8646636009216309,-0.9437487125396729,-0.32134878635406496,-0.21717941761016847,0.9636902809143066,-0.5929033756256104,-0.023275017738342286,0.713444709777832,-0.43303167819976809,-0.6042566299438477,-0.3642359972000122,-0.46546661853790285,0.8074562549591065,0.6491076946258545,0.18510138988494874,-0.18503296375274659],"biases":[0.613645076751709,0.32106897234916689,0.5806601047515869,-0.2732275724411011,0.3087451159954071,-0.21742403507232667,-0.6260502338409424,0.4448961913585663,-0.5794415473937988,0.7995562553405762,-0.673729658126831,-0.08826553821563721,0.7382733821868897,0.7380795478820801,-0.5770077705383301,0.7248220443725586]}