{"name":"SimpleAgent_brain","layers":[{"neurons":11,"activationFunction":0,"weightsFlat":[],"biases":[0.28227755427360537,0.642164945602417,0.26433417201042178,0.6931009292602539,0.6519901752471924,-0.15207350254058839,0.26518818736076357,-0.3038877248764038,-0.4344085454940796,-0.9833745956420898,0.7936642169952393]},{"neurons":32,"activationFunction":1,"weightsFlat":[0.3016056716442108,0.8821725845336914,-0.3153499364852905,0.9360530376434326,-0.8183732032775879,-0.840660572052002,-0.9650633335113525,0.228920578956604,-0.9623210430145264,0.9633634090423584,-0.6750285625457764,0.8835396766662598,0.5249273777008057,-0.7887530326843262,-0.5522770881652832,-0.5577774047851563,-0.8712759017944336,0.5166678428649902,-0.7047903537750244,-0.7293970584869385,-0.7472488880157471,-0.5400328636169434,0.47135278582572939,-0.8284268379211426,-0.15825212001800538,-0.31036269664764407,0.8460829257965088,0.9903004169464111,-0.18800699710845948,-0.9635336399078369,0.030383706092834474,-0.4402531385421753,0.439726322889328,-0.44228971004486086,0.8045511245727539,0.6011123657226563,-0.12975823879241944,-0.6402750015258789,0.6243515014648438,0.6681318283081055,0.9535698890686035,0.9657003879547119,0.5018928050994873,-0.8456134796142578,0.9918184280395508,0.9668519496917725,-0.05768024921417236,0.1666334867477417,-0.22688210010528565,-0.7680463790893555,0.22493445873260499,0.2380601167678833,-0.3947869539260864,0.4382440745830536,-0.9999690055847168,-0.6524081230163574,-0.4518367052078247,0.8600375652313232,-0.22936618328094483,0.8050951957702637,0.911125898361206,-0.3567403554916382,-0.5423903465270996,0.9278597831726074,-0.7148685455322266,0.6200249195098877,0.1801081895828247,-0.48341429233551028,-0.6193132400512695,0.7864933013916016,0.2971298396587372,-0.9570744037628174,-0.6033408641815186,0.16885459423065186,0.5198836326599121,0.004658341407775879,-0.46362054347991946,0.3448028266429901,0.4833786189556122,-0.8214726448059082,-0.4895685911178589,-0.7642638683319092,-0.230584979057312,-0.07362473011016846,0.4120888411998749,0.9378221035003662,0.15918171405792237,0.9738457202911377,-0.4045909643173218,0.48781725764274599,0.6309754848480225,0.07226788997650147,-0.9572975635528565,0.45697447657585146,-0.7260069847106934,0.23731577396392823,-0.9485702514648438,-0.8312451839447022,-0.22865188121795655,0.4042303264141083,-0.3532177209854126,0.34123870730400088,0.5274760723114014,0.3897037208080292,0.3985726535320282,0.8119103908538818,0.3845462501049042,-0.9672460556030273,0.18566691875457765,-0.7271974086761475,-0.062095046043395999,0.9453880786895752,-0.8342475891113281,-0.09413635730743408,0.022449374198913575,0.08474290370941162,-0.6146829128265381,-0.29073917865753176,0.6072382926940918,0.5918388366699219,0.8181030750274658,0.33191558718681338,-0.7684516906738281,0.30863234400749209,-0.8981633186340332,0.8485064506530762,0.07079064846038819,-0.053267598152160647,0.9822678565979004,0.303129643201828,-0.08381307125091553,0.018074631690979005,0.7094447612762451,0.21277916431427003,0.5019552707672119,0.3108784854412079,-0.6859440803527832,-0.15894854068756104,-0.8627662658691406,0.9085650444030762,-0.9061121940612793,-0.5366613864898682,0.3070821464061737,0.2526099383831024,0.009347796440124512,0.6328880786895752,-0.4459313154220581,-0.10382664203643799,-0.5174481868743897,0.3110296428203583,-0.5625162124633789,0.960669994354248,0.6411130428314209,0.4115247428417206,-0.4751850366592407,-0.3485614061355591,0.4274398982524872,0.6998507976531982,-0.9866259098052979,0.10297644138336182,-0.27789247035980227,0.501415491104126,0.2718791663646698,-0.6908056735992432,-0.6264593601226807,0.2270737886428833,0.16663944721221925,0.8628354072570801,-0.4169231653213501,0.6773478984832764,0.17565596103668214,0.0730966329574585,0.646315336227417,0.9672479629516602,0.31235238909721377,-0.24983561038970948,0.5186917781829834,-0.6517572402954102,-0.2593492269515991,-0.8139278888702393,0.9040036201477051,0.29156801104545596,0.7388358116149902,-0.16131103038787843,-0.6977865695953369,-0.421056866645813,0.5903208255767822,-0.47918736934661868,0.5806388854980469,0.33022400736808779,0.9849348068237305,-0.8886544704437256,0.9498140811920166,-0.8957784175872803,0.2708389461040497,-0.8331336975097656,0.7231826782226563,-0.7936041355133057,-0.7002639770507813,-0.2788442373275757,-0.08531510829925537,0.39051148295402529,0.8859906196594238,0.35634729266166689,-0.6533010005950928,-0.0015941858291625977,-0.48268210887908938,-0.8387134075164795,-0.047055602073669437,0.517261266708374,0.858351469039917,-0.06111419200897217,0.31807467341423037,-0.44487082958221438,0.4179026782512665,0.6879246234893799,-0.7746753692626953,-0.8977305889129639,-0.9018769264221191,0.9170160293579102,-0.4026585817337036,-0.06428396701812744,-0.434383749961853,-0.9848473072052002,-0.382175087928772,-0.6655318737030029,-0.2723489999771118,-0.3645695447921753,0.8182082176208496,0.9831845760345459,-0.3922361135482788,-0.7668051719665527,-0.42216527462005618,-0.4723771810531616,-0.564838171005249,0.7586297988891602,0.6636085510253906,-0.27792656421661379,0.8861432075500488,-0.09768688678741455,0.962749719619751,0.6513304710388184,-0.1660546064376831,-0.972137451171875,-0.5115039348602295,0.29533693194389346,-0.4356645345687866,0.38356634974479678,-0.5783321857452393,0.6346907615661621,-0.4253798723220825,0.43318888545036318,-0.20345723628997804,0.09463155269622803,-0.9710268974304199,0.6987729072570801,0.5309789180755615,-0.9633746147155762,0.6384463310241699,-0.5111908912658691,0.7260799407958984,-0.320440411567688,0.19218742847442628,-0.593968391418457,0.44594332575798037,0.11100995540618897,-0.27462995052337649,-0.4939531087875366,-0.09753262996673584,0.28308817744255068,-0.037145018577575687,-0.29198944568634035,0.8531756401062012,-0.964763879776001,0.19323670864105225,0.6276628971099854,-0.5852479934692383,-0.07008349895477295,0.5987122058868408,0.4823600947856903,0.9437160491943359,-0.22953498363494874,-0.4060133695602417,-0.03841745853424072,-0.3351184129714966,-0.41544854640960696,-0.5746734142303467,0.19880473613739015,-0.7670531272888184,-0.973442792892456,0.7367610931396484,0.7684850692749023,-0.5037269592285156,-0.6634097099304199,-0.6751482486724854,-0.2786961793899536,0.13125407695770265,-0.7140276432037354,0.6747658252716065,0.32877346873283389,0.033779025077819827,0.7957980632781982,0.8927614688873291,0.3565039336681366,0.3768021762371063,-0.7320370674133301,0.9683210849761963,0.7546610832214356,0.6116557121276856,-0.5673127174377441,0.9693403244018555,-0.5731642246246338,-0.5896255970001221,0.6061937808990479,0.5194706916809082,0.8881618976593018,-0.2102421522140503,0.21687662601470948,-0.6035370826721191,-0.3174811601638794,0.0929027795791626,0.5072195529937744,-0.4853748083114624,-0.2499598264694214,0.8485884666442871,0.4083068072795868,0.22506701946258546,0.9462151527404785,0.35799118876457217,-0.09331190586090088,0.3308083713054657,0.9655632972717285,-0.6535637378692627,-0.9272000789642334,-0.7541210651397705,0.47032734751701357,0.7158386707305908,0.5733165740966797,-0.5915939807891846,0.6109662055969238,-0.01950681209564209,-0.16250717639923097,0.353727787733078,0.1237722635269165,0.42685386538505556,-0.15685927867889405,-0.40852558612823489,0.09720933437347412,0.22073781490325929,0.7718997001647949,0.6234593391418457,0.5973606109619141],"biases":[0.852463960647583,-0.9134013652801514,-0.8050768375396729,0.3496648967266083,-0.913888692855835,-0.953394889831543,0.5427849292755127,-0.9150519371032715,0.7948331832885742,-0.2269059419631958,0.2986256778240204,0.44853636622428896,-0.528536319732666,0.6054012775421143,0.4553236663341522,-0.6637823581695557,-0.537635326385498,-0.7425937652587891,0.009229302406311036,0.7777121067047119,0.3212871253490448,-0.6124343872070313,-0.018952250480651857,0.9610137939453125,0.11602413654327393,-0.5969595909118652,-0.38745081424713137,0.6535263061523438,0.35086485743522646,-0.5252158641815186,0.5892965793609619,-0.22221243381500245]},{"neurons":32,"activationFunction":1,"weightsFlat":[-0.32693684101104739,0.8306910991668701,0.1407221555709839,0.5538873672485352,0.904954195022583,-0.8728570938110352,0.9269459247589111,0.1762326955795288,0.4794935882091522,-0.2749694585800171,-0.9854042530059815,0.9043385982513428,-0.07473099231719971,0.38147255778312685,0.5464906692504883,-0.5624680519104004,-0.6964325904846191,0.8010127544403076,-0.4450489282608032,-0.23179137706756593,-0.14756429195404054,0.18605577945709229,-0.44532644748687746,-0.14734065532684327,0.002100348472595215,-0.9934024810791016,-0.094673752784729,-0.04573714733123779,0.3226794898509979,0.09181559085845947,-0.44119155406951907,0.13026082515716554,-0.6409196853637695,-0.7773747444152832,0.2434290647506714,-0.8844523429870606,0.9793479442596436,0.4471425712108612,0.30935975909233096,0.6100823879241943,-0.6448626518249512,-0.9785478115081787,-0.8318142890930176,-0.2214418649673462,-0.5520601272583008,-0.7141556739807129,-0.7345395088195801,0.7847838401794434,0.9803495407104492,0.9538648128509522,0.21701562404632569,0.504791259765625,0.28354498744010928,-0.4101012945175171,0.3010244071483612,-0.5793993473052979,-0.7198412418365479,-0.7008790969848633,0.7021126747131348,-0.841503381729126,0.5369799137115479,0.6281404495239258,-0.7883703708648682,0.031090378761291505,0.3115396201610565,-0.5378966331481934,-0.2929340600967407,0.9177868366241455,0.2042635679244995,0.07508480548858643,0.955331563949585,0.15838420391082765,0.7000477313995361,0.5881845951080322,0.42048880457878115,0.8930609226226807,0.2312072515487671,0.21356666088104249,-0.9373729228973389,0.9248270988464356,0.5712072849273682,-0.5677330493927002,0.7673017978668213,-0.15266692638397218,0.34291550517082217,0.953155517578125,-0.5397863388061523,-0.20302236080169679,0.33163997530937197,-0.30967795848846438,0.48191043734550478,-0.7421691417694092,0.6497974395751953,-0.5683786869049072,-0.7613558769226074,0.6444363594055176,0.6836740970611572,0.8776965141296387,-0.6475367546081543,0.22689855098724366,0.799304723739624,-0.5867047309875488,-0.827455997467041,0.2419501543045044,-0.6653034687042236,-0.09533607959747315,-0.21812450885772706,0.23786509037017823,-0.7133541107177734,0.1127854585647583,0.7532813549041748,-0.6032800674438477,0.3944227397441864,0.12446677684783936,-0.6948940753936768,-0.0687481164932251,-0.2538052797317505,0.9742646217346191,0.47247812151908877,0.03652012348175049,-0.6867578029632568,0.6902637481689453,-0.8669500350952148,-0.43882453441619875,0.184517502784729,0.09154093265533447,-0.2894805669784546,-0.44459855556488039,0.7931082248687744,0.8744237422943115,0.5013883113861084,-0.6760270595550537,0.73984694480896,0.993119478225708,-0.2633312940597534,-0.9216165542602539,-0.9553861618041992,0.8653357028961182,-0.9233360290527344,0.5025291442871094,0.7196834087371826,-0.7134988307952881,-0.05514800548553467,-0.5763487815856934,-0.35395538806915285,0.15617716312408448,0.7389633655548096,0.7888493537902832,0.1108330488204956,0.5806457996368408,-0.4575155973434448,0.035680413246154788,-0.036875367164611819,-0.6048851013183594,-0.045983195304870608,-0.7985186576843262,0.5135982036590576,0.3491499125957489,-0.6097662448883057,-0.941493034362793,0.3618776500225067,-0.13039124011993409,-0.7302360534667969,0.36653468012809756,0.6686806678771973,0.7911663055419922,-0.8524940013885498,0.14848220348358155,-0.8103334903717041,0.23057281970977784,0.1772688627243042,-0.18357408046722413,0.24258220195770265,0.3224899470806122,-0.4908260107040405,-0.49295055866241457,0.3781904876232147,-0.6848282814025879,0.4976911246776581,-0.8053810596466065,0.38388749957084658,0.4037432372570038,-0.5895061492919922,-0.8199341297149658,0.7218420505523682,0.7562031745910645,0.622037410736084,0.16346442699432374,-0.08786213397979737,0.7323217391967773,0.6207590103149414,0.7999396324157715,0.9104797840118408,0.4883703887462616,0.5028131008148193,-0.9951655864715576,0.6677846908569336,-0.09273970127105713,-0.8652675151824951,-0.9049985408782959,-0.7193124294281006,-0.17622530460357667,0.6635196208953857,0.5981364250183106,0.1604694128036499,-0.9708199501037598,-0.21545112133026124,0.07427585124969483,0.5377724170684815,-0.23478329181671143,0.7444775104522705,0.6385445594787598,0.6323256492614746,-0.7256543636322022,0.8558135032653809,-0.3389853239059448,0.6350650787353516,-0.3703969717025757,0.18688976764678956,-0.6485061645507813,-0.4423030614852905,-0.8147745132446289,-0.7763833999633789,0.9105885028839111,-0.6667976379394531,0.70469069480896,-0.7238962650299072,0.7389669418334961,-0.04568803310394287,-0.843346357345581,-0.8432981967926025,-0.06800615787506104,0.353014200925827,-0.8080353736877441,-0.6676387786865234,-0.46616899967193606,0.16541039943695069,-0.04437148571014404,0.2660774886608124,0.6578445434570313,-0.519035816192627,0.6672344207763672,-0.21868622303009034,-0.35495197772979739,0.9724054336547852,-0.49502384662628176,0.09589540958404541,-0.8249630928039551,-0.011743426322937012,0.47499629855155947,-0.4492226839065552,0.4282650649547577,0.004438996315002441,-0.18815100193023683,-0.10971534252166748,0.46938273310661318,0.012468457221984864,0.4949040114879608,0.6385238170623779,0.4429793059825897,-0.2278372049331665,0.1700347661972046,-0.7789325714111328,0.4738604724407196,0.3078939616680145,0.7387862205505371,0.25014564394950869,0.19236528873443604,0.7467548847198486,-0.8576977252960205,0.5830035209655762,0.09385287761688233,-0.4179462194442749,0.25444933772087099,-0.49262940883636477,-0.85384202003479,-0.7996981143951416,-0.14461982250213624,-0.6456778049468994,-0.3824368715286255,0.08927977085113526,-0.5899317264556885,-0.018369317054748536,-0.6265068054199219,-0.35687220096588137,0.6808688640594482,-0.5355372428894043,-0.6485021114349365,-0.014680981636047364,-0.35278403759002688,0.8346352577209473,0.5272378921508789,0.6604406833648682,-0.41937124729156496,0.5271258354187012,0.8527193069458008,-0.2918304204940796,-0.6528472900390625,-0.9549036026000977,0.13331663608551026,-0.7290935516357422,0.34090301394462588,-0.5340440273284912,-0.19831669330596925,-0.5327205657958984,-0.9734861850738525,0.28466126322746279,-0.6154749393463135,0.18072235584259034,-0.8506109714508057,0.8711428642272949,0.09788882732391358,-0.33338820934295657,-0.00917661190032959,0.24499595165252686,0.30877920985221865,-0.18504488468170167,-0.8267958164215088,0.969956636428833,0.379256933927536,-0.05061495304107666,0.43045398592948916,0.8477616310119629,0.9746801853179932,-0.5106804370880127,0.3296484649181366,0.7177107334136963,-0.16963303089141847,0.20235073566436768,-0.6354115009307861,0.006647229194641113,0.8205759525299072,-0.39642083644866946,-0.8359034061431885,0.14219224452972413,0.8870601654052734,-0.43597686290740969,-0.3455618619918823,0.345412939786911,-0.7401711940765381,0.8347017765045166,-0.4265338182449341,0.08272874355316162,-0.6760706901550293,0.47479936480522158,0.5413553714752197,-0.6164119243621826,0.8184607028961182,-0.3793567419052124,-0.5021228790283203,-0.48410093784332278,0.47389790415763857,0.9690613746643066,0.7796175479888916,0.9440009593963623,0.9831373691558838,0.7256176471710205,-0.9800999164581299,-0.9993696212768555,-0.7015838623046875,-0.8165242671966553,-0.9129176139831543,0.1785954236984253,-0.3958786725997925,0.4759466350078583,-0.9937810897827148,-0.5321850776672363,-0.8693392276763916,0.009511113166809082,0.6868884563446045,-0.0404132604598999,0.24493539333343507,-0.23298156261444093,0.17121756076812745,0.9381494522094727,-0.6373684406280518,0.1494666337966919,-0.6908538341522217,0.7721161842346191,-0.7151246070861816,-0.2559472322463989,0.7099728584289551,-0.8443069458007813,0.05049407482147217,0.9151239395141602,-0.1587454080581665,-0.8712491989135742,0.0791546106338501,0.30446526408195498,-0.2056339979171753,0.846503496170044,0.9697179794311523,0.2589523494243622,-0.32063210010528567,0.1756364107131958,-0.0008691549301147461,0.5832207202911377,-0.40168607234954836,0.04397785663604736,0.5552456378936768,0.1151963472366333,0.18487632274627686,-0.631087064743042,-0.045662522315979007,0.9607512950897217,0.9180729389190674,-0.7012145519256592,0.8884236812591553,0.3393842875957489,0.19810497760772706,-0.6066122055053711,-0.6850459575653076,0.8258211612701416,-0.8940725326538086,-0.16983163356781007,0.5373799800872803,-0.025635361671447755,0.6960771083831787,0.9040887355804443,-0.9557759761810303,-0.6557216644287109,-0.7238562107086182,0.9665892124176025,0.9800639152526856,0.4321913421154022,0.6930644512176514,-0.4412029981613159,0.994227409362793,0.40978047251701357,-0.4670957326889038,0.9504659175872803,0.5752155780792236,-0.8944566249847412,-0.8919603824615479,-0.21066606044769288,-0.6946699619293213,-0.04610764980316162,-0.22970211505889893,-0.20662105083465577,-0.3721550703048706,0.8982622623443604,-0.5540039539337158,-0.42021334171295168,0.204046368598938,0.6857099533081055,-0.8885114192962647,-0.49131476879119875,-0.08710277080535889,-0.6002368927001953,0.19906198978424073,0.7319424152374268,0.8896090984344482,0.5556144714355469,0.09288966655731201,-0.8797369003295898,-0.7798523902893066,0.6857702732086182,0.6948235034942627,0.16307461261749268,-0.884239673614502,0.33078452944755556,0.31234094500541689,-0.2461913824081421,-0.10988199710845947,0.2010594606399536,0.6601295471191406,0.9749255180358887,-0.4832240343093872,-0.5835537910461426,-0.44626176357269289,-0.2709308862686157,0.5446822643280029,0.5106585025787354,-0.9698922634124756,-0.7157483100891113,0.9684157371520996,-0.14295494556427003,0.13407480716705323,-0.2841836214065552,0.6441867351531982,-0.5776519775390625,-0.7355241775512695,-0.12255251407623291,-0.2537890672683716,0.7407758235931397,0.8375983238220215,-0.07660162448883057,0.9089603424072266,0.2898506820201874,0.18079054355621339,0.01227414608001709,0.10728967189788819,-0.36482441425323489,0.33585116267204287,0.35854360461235049,0.40889689326286318,0.1831609010696411,-0.26866400241851809,-0.11812460422515869,-0.3564234972000122,-0.17449724674224854,-0.6572773456573486,-0.24862968921661378,-0.6204564571380615,0.9035725593566895,-0.5136821269989014,-0.4753960371017456,-0.6555070877075195,0.04698288440704346,-0.6904847621917725,0.28295227885246279,-0.5380139350891113,-0.8035624027252197,0.4548897445201874,0.28044387698173525,0.07025039196014404,0.9377293586730957,-0.2196568250656128,0.9701533317565918,0.6796934604644775,0.17960941791534425,-0.3500739336013794,0.20575010776519776,-0.984278678894043,0.4534125030040741,-0.6177229881286621,-0.33852970600128176,0.10752880573272705,0.45615169405937197,-0.5752432346343994,0.1923888921737671,0.27977535128593447,0.628150224685669,-0.15823590755462647,-0.30436551570892336,-0.27772390842437746,-0.7329578399658203,0.06585037708282471,0.10197269916534424,0.42018601298332217,-0.053279757499694827,-0.19582688808441163,-0.2836538553237915,-0.3781775236129761,-0.2626105546951294,0.2950279414653778,-0.5491995811462402,0.47792717814445498,-0.865593671798706,0.4978005588054657,0.056627631187438968,-0.7005341053009033,-0.17088854312896729,0.8967452049255371,-0.42137444019317629,-0.0400005578994751,-0.530426025390625,0.9546618461608887,-0.4467071294784546,-0.0902031660079956,0.5821690559387207,0.4456422030925751,0.7923483848571777,-0.1397489309310913,-0.09778201580047608,0.8192529678344727,-0.379294753074646,0.7376151084899902,-0.11277711391448975,0.6988010406494141,0.03748476505279541,-0.8647382259368897,0.025367140769958497,-0.4740971326828003,-0.41266071796417239,0.006497740745544434,0.433639258146286,-0.7907459735870361,0.40071365237236025,-0.09920728206634522,-0.09612452983856201,-0.1209946870803833,-0.91748046875,-0.7926390171051025,-0.4348639249801636,0.6823287010192871,0.8068981170654297,0.21037018299102784,-0.07454264163970947,-0.9060347080230713,0.09129989147186279,0.037229180335998538,0.6666476726531982,0.29812929034233096,-0.922163724899292,-0.3831850290298462,0.7680985927581787,-0.9029562473297119,0.17522966861724854,0.03928673267364502,0.16692674160003663,0.5955796241760254,0.5683791637420654,0.6447770595550537,0.9178142547607422,-0.040602803230285647,0.8817219734191895,-0.3470813035964966,0.057465434074401858,-0.6197559833526611,-0.044222474098205569,-0.4451707601547241,0.6254978179931641,-0.14562714099884034,0.33362123370170596,-0.08642542362213135,0.8346917629241943,0.146309494972229,-0.2971738576889038,-0.7282426357269287,0.5241589546203613,-0.9462611675262451,0.8780412673950195,0.7295224666595459,-0.31986844539642336,-0.9319283962249756,-0.8668546676635742,-0.7623071670532227,-0.38159286975860598,-0.7298121452331543,0.10583269596099854,0.377533882856369,-0.0033112764358520509,0.9030971527099609,0.39505311846733096,0.2566077411174774,0.4959110915660858,-0.8691830635070801,-0.6719942092895508,0.8069400787353516,0.08507883548736572,0.5085115432739258,-0.5881836414337158,-0.09487783908843994,-0.621732234954834,-0.3972514867782593,-0.6231887340545654,0.4626717269420624,-0.5577330589294434,-0.42787468433380129,0.4531843364238739,0.31093451380729678,0.8143770694732666,-0.16692745685577393,-0.38615262508392336,0.14925062656402589,-0.24053514003753663,0.8209700584411621,-0.1159583330154419,0.05008232593536377,0.005034089088439941,0.25552818179130556,-0.0897291898727417,-0.31429851055145266,0.9802863597869873,0.2254568338394165,0.6954035758972168,-0.006435990333557129,0.6441924571990967,-0.07948887348175049,-0.2593604326248169,-0.46017396450042727,-0.943098783493042,0.38003918528556826,-0.14729368686676026,0.25311633944511416,-0.061307311058044437,-0.4383622407913208,-0.7857334613800049,0.7208826541900635,0.14620673656463624,0.24054229259490968,-0.4581526517868042,-0.11891520023345947,0.8307576179504395,0.36546680331230166,0.6188809871673584,-0.8710634708404541,0.4338216483592987,-0.09312188625335694,0.2557220160961151,-0.0018106698989868165,0.9794478416442871,-0.1310354471206665,-0.3514770269393921,-0.024998784065246583,-0.7820451259613037,-0.792410135269165,-0.44917523860931399,-0.3754805326461792,-0.5037841796875,-0.43884599208831789,-0.9815618991851807,0.23742496967315675,-0.15717852115631104,-0.92966628074646,0.4491138160228729,0.5420589447021484,-0.9037559032440186,-0.5479404926300049,0.8650853633880615,0.4569039046764374,-0.27010905742645266,-0.008440136909484864,0.08210098743438721,-0.92134690284729,0.03738749027252197,0.9169988632202148,-0.31128156185150149,-0.8907158374786377,0.6960904598236084,0.8447246551513672,-0.8435947895050049,-0.8436145782470703,-0.2657822370529175,-0.026607871055603029,-0.647167444229126,0.15380489826202393,0.039874911308288577,0.22588789463043214,0.44001004099845889,-0.14665496349334718,-0.6519434452056885,0.035925984382629397,0.4312739074230194,0.007501721382141113,0.40461084246635439,0.3990795314311981,0.01855337619781494,-0.7070474624633789,-0.06227672100067139,0.8851754665374756,0.08475768566131592,-0.24467670917510987,-0.4884077310562134,-0.24363362789154054,-0.4847792387008667,-0.34301483631134035,0.25035902857780459,0.20183050632476808,0.9600214958190918,-0.09489190578460694,-0.2950690984725952,0.33902856707572939,-0.5661706924438477,0.3550224006175995,0.09001386165618897,0.7517626285552979,0.11185991764068604,-0.6875519752502441,0.2301255464553833,-0.8088183403015137,0.25299713015556338,-0.9203877449035645,0.049118876457214358,-0.13439500331878663,0.177526593208313,-0.02412402629852295,0.5668823719024658,0.7247591018676758,0.125785231590271,-0.4495333433151245,-0.2693251371383667,0.7623472213745117,0.7594442367553711,0.9703714847564697,-0.8596012592315674,-0.08956420421600342,-0.44180357456207278,-0.09247100353240967,-0.6356251239776611,0.17532694339752198,-0.7102670669555664,0.00285947322845459,-0.09010589122772217,0.8498923778533936,-0.807884931564331,0.49395105242729189,0.7418956756591797,0.16198241710662843,-0.9589169025421143,0.39413949847221377,0.44218751788139346,-0.6565594673156738,-0.31232988834381106,-0.17163312435150147,-0.5765554904937744,0.6923770904541016,-0.5053753852844238,-0.12115108966827393,0.7920987606048584,0.5365903377532959,-0.44093000888824465,0.7982845306396484,0.34746214747428896,0.5437254905700684,-0.5079469680786133,-0.4126776456832886,-0.6326203346252441,0.4760138690471649,0.6652488708496094,-0.6002342700958252,0.5959594249725342,0.8471100330352783,-0.7001302242279053,0.17219793796539308,0.7415244579315186,-0.1814032793045044,-0.8927969932556152,0.5146758556365967,0.529041051864624,0.009482741355895996,-0.6882390975952148,0.7651033401489258,-0.9694483280181885,0.3361756503582001,-0.08036506175994873,-0.8288154602050781,-0.7064731121063232,-0.8650310039520264,-0.4706066846847534,-0.03647911548614502,0.8681783676147461,-0.6565611362457275,0.5727777481079102,-0.7722127437591553,-0.18500792980194093,0.5959360599517822,0.08186161518096924,0.1566530466079712,-0.9862461090087891,0.009810566902160645,0.1404358148574829,0.16880524158477784,0.3037271201610565,-0.001876235008239746,0.4846021831035614,0.41023966670036318,0.8664577007293701,0.7990305423736572,0.12841475009918214,0.6458075046539307,0.41718217730522158,0.07725226879119873,0.5893158912658691,-0.8758664131164551,-0.7035279273986816,-0.8470017910003662,0.38207098841667178,0.5216701030731201,0.8660390377044678,0.7376091480255127,0.7308628559112549,-0.3655186891555786,0.8835620880126953,-0.3247419595718384,0.4125966727733612,0.43633124232292178,0.07554781436920166,0.03208434581756592,-0.11215579509735108,-0.40930235385894778,-0.6981971263885498,0.01096498966217041,0.4812574088573456,0.650634765625,0.6642191410064697,0.02743518352508545,0.13177859783172608,0.1293729543685913,0.18950879573822022,0.2543453872203827,0.1786128282546997,0.5458719730377197,-0.30684030055999758,0.8424279689788818,-0.7649905681610107,0.053092122077941897,-0.3639589548110962,0.2554731070995331,0.09645116329193115,0.2621440589427948,0.388184517621994,0.41075655817985537,-0.6206521987915039,0.33281752467155459,0.2878858745098114,0.5544660091400147,-0.944427490234375,-0.32306206226348879,0.9427428245544434,-0.9086763858795166,0.4959809482097626,-0.5965149402618408,0.6314620971679688,-0.09201562404632569,0.9404075145721436,0.2719239890575409,0.9029619693756104,-0.3239368200302124,0.8818936347961426,-0.8530566692352295,0.7982773780822754,-0.23217523097991944,0.13595259189605714,0.6616837978363037,-0.11221802234649658,0.5491080284118652,-0.24432003498077393,-0.7090070247650147,-0.4425910711288452,0.804572343826294,-0.3823014497756958,0.28873321413993838,-0.9272048473358154,-0.8789882659912109,0.14258205890655518,0.27458927035331728,0.9146029949188232,0.21870863437652589,-0.25323474407196047,-0.329245924949646,0.798302412033081,0.5750558376312256,-0.8755173683166504,-0.4164012670516968,-0.460077166557312,0.9128382205963135,-0.5373094081878662,0.4041583240032196,0.35576650500297549,-0.12473523616790772,0.6357107162475586,0.9074761867523193,-0.8647933006286621,-0.31153905391693118,-0.2982138395309448,0.35201284289360049,0.2787439525127411,-0.28944480419158938,0.6325352191925049,0.23449933528900147,0.7456326484680176,-0.9802632331848145,-0.28660809993743899,-0.5587561130523682,-0.5353426933288574,0.28298088908195498,-0.7112636566162109,-0.34288036823272707,0.14267265796661378,0.622539758682251,0.38262245059013369,0.7678384780883789,0.5037975311279297,0.7534170150756836,-0.5551118850708008,0.8047733306884766,-0.959575891494751,0.6119873523712158,-0.3682817220687866,-0.8717350959777832,-0.8597123622894287,-0.77207350730896,-0.989142656326294,-0.2521439790725708,0.22262728214263917,0.19243228435516358,0.41284844279289248,0.9536354541778565,-0.6776282787322998,-0.3625260591506958,0.19941389560699464,0.8768675327301025,0.9426891803741455,-0.02809727191925049,-0.5353951454162598,0.17146408557891847,0.9113950729370117,-0.3996506929397583,0.21887743473052979,-0.08067953586578369,-0.08188998699188233,-0.10656630992889404,-0.0351182222366333,-0.24667441844940186,-0.846142053604126,-0.6937668323516846,0.26587340235710146,-0.1522125005722046,0.05775654315948486,-0.47837698459625246,-0.9374439716339111,-0.35449016094207766,0.6234934329986572,0.595292329788208,-0.36305320262908938,-0.30650174617767336,-0.1442176103591919,0.5052452087402344,-0.6820347309112549,0.5570857524871826,-0.3750993013381958,0.9616734981536865,0.2778160274028778,-0.8375444412231445,-0.4339553117752075,-0.932105541229248,0.0473552942276001,-0.7468128204345703,-0.6027002334594727,-0.5321040153503418,-0.21287930011749268,-0.051291823387145999],"biases":[-0.5284905433654785,0.6049425601959229,0.7307212352752686,-0.20501792430877686,-0.9263098239898682,-0.2693434953689575,-0.7161819934844971,-0.46057045459747317,0.6664478778839111,0.9499006271362305,-0.24365293979644776,-0.9281280040740967,-0.1391526460647583,0.6663498878479004,0.9228866100311279,0.2096785306930542,-0.30066192150115969,-0.3251913785934448,-0.7214252948760986,-0.7084822654724121,0.6808991432189941,-0.812983512878418,-0.3681739568710327,-0.9504053592681885,-0.8784120082855225,-0.35894978046417239,0.8520867824554443,-0.49198925495147707,-0.358486533164978,-0.0035163164138793947,0.8682448863983154,0.12285315990447998]},{"neurons":16,"activationFunction":0,"weightsFlat":[-0.4106682538986206,0.3675481975078583,0.47867223620414736,-0.43216049671173098,-0.5848000049591065,-0.6620841026306152,0.6451296806335449,0.2001274824142456,-0.36259353160858157,0.4316513240337372,0.12741386890411378,0.2781619727611542,0.16841256618499757,-0.8855574131011963,0.20193755626678468,-0.43403828144073489,-0.13043630123138429,-0.24517738819122315,0.5447840690612793,0.7068638801574707,0.9525995254516602,-0.9547045230865479,0.3332788646221161,-0.5709283351898193,-0.8393781185150147,-0.36744916439056399,-0.3225668668746948,0.2938477694988251,0.8625197410583496,-0.7337262630462647,-0.5434954166412354,0.046021342277526858,0.2390354871749878,-0.6383349895477295,-0.09351885318756104,-0.6912202835083008,-0.7751221656799316,-0.10386073589324951,-0.8800673484802246,-0.38975846767425539,0.951664924621582,0.32177969813346865,-0.5841555595397949,0.20080435276031495,0.3922061622142792,0.5754668712615967,0.5033090114593506,-0.4034236669540405,0.7902669906616211,-0.2410343885421753,-0.17531836032867433,0.004269719123840332,0.6404714584350586,-0.53145432472229,-0.24966204166412354,0.9700913429260254,0.4793700873851776,0.985088586807251,0.7555801868438721,0.5588459968566895,-0.14577090740203858,-0.4283956289291382,0.34502002596855166,-0.7021031379699707,0.32042667269706728,-0.9905259609222412,-0.5405502319335938,-0.393276572227478,0.6708800792694092,-0.47708070278167727,0.8701379299163818,-0.8900973796844482,-0.6571657657623291,0.05628955364227295,-0.032823920249938968,-0.9513809680938721,0.9932756423950195,0.9362771511077881,-0.5990452766418457,-0.5732810497283936,-0.9180710315704346,0.9261345863342285,-0.7839493751525879,-0.11629998683929444,-0.8858416080474854,-0.20125281810760499,0.3121664226055145,-0.711749792098999,0.44107386469841006,0.5409479141235352,0.6504161357879639,0.5517034530639648,-0.2652360200881958,0.8065321445465088,-0.9126827716827393,0.3835260570049286,0.6587164402008057,-0.08133518695831299,0.7552025318145752,-0.5168912410736084,0.0036176443099975588,-0.23888051509857179,0.5600221157073975,-0.6174089908599854,-0.05576002597808838,-0.6530063152313232,0.8214993476867676,0.35761353373527529,0.4960798919200897,0.49320265650749209,-0.492284893989563,-0.17467963695526124,0.0375746488571167,0.768343448638916,-0.4347149133682251,0.8779213428497315,-0.5494985580444336,0.5105242729187012,0.7317702770233154,-0.1327449083328247,0.5277318954467773,-0.8352601528167725,-0.7100849151611328,0.5688362121582031,-0.27833521366119387,0.3696846663951874,-0.5452115535736084,-0.7756679058074951,-0.34590137004852297,0.6421282291412354,0.6356766223907471,0.8741750717163086,-0.13457906246185304,-0.6589224338531494,0.4535677134990692,0.3399462401866913,-0.531700849533081,0.3384406268596649,0.4891988933086395,0.011104702949523926,0.882775068283081,-0.08075296878814697,0.8823373317718506,0.15884673595428468,-0.19010722637176515,-0.5307340621948242,0.6232335567474365,0.8533623218536377,0.328294962644577,0.7023415565490723,0.8754346370697022,-0.8289282321929932,-0.9924633502960205,-0.6373906135559082,0.8993117809295654,-0.1991978883743286,-0.4417194128036499,-0.9869520664215088,0.052359700202941897,-0.09276282787322998,0.6472198963165283,-0.04979240894317627,0.4536246955394745,0.7897143363952637,-0.21790587902069093,-0.18920934200286866,0.10958492755889893,-0.3852614164352417,0.769514799118042,0.5708158016204834,0.23196947574615479,0.5795097351074219,0.5538334846496582,0.3853714168071747,0.6307675838470459,0.7403922080993652,0.7960941791534424,0.17431843280792237,0.047673821449279788,0.08196413516998291,0.26633426547050478,0.08459556102752686,-0.43763935565948489,-0.7366952896118164,0.04144585132598877,-0.18340623378753663,0.513176441192627,-0.03628551959991455,-0.8586034774780273,-0.0005713701248168945,0.06836259365081787,0.4990980327129364,-0.6835241317749023,-0.44511687755584719,-0.6266865730285645,0.07761704921722412,0.17315852642059327,-0.2802318334579468,-0.9185395240783691,0.692631721496582,0.7829980850219727,0.31044504046440127,-0.27438127994537356,0.8272411823272705,0.9209697246551514,0.10535633563995362,0.2763077914714813,0.3526913821697235,-0.19072139263153077,0.7048301696777344,-0.36466681957244875,0.11083662509918213,-0.07164037227630615,-0.9967303276062012,-0.33587634563446047,0.209497332572937,0.21174561977386475,0.376752108335495,0.4707436263561249,0.32651206851005556,-0.6055090427398682,0.3853139579296112,0.6651628017425537,-0.3586474657058716,-0.41264450550079348,0.6847488880157471,-0.7668004035949707,0.22398889064788819,0.3294486701488495,0.629401445388794,0.8850338459014893,-0.20715606212615968,-0.04432117938995361,0.1439446210861206,-0.2111135721206665,-0.16128790378570558,-0.635444164276123,0.0000787973403930664,0.20767533779144288,-0.491252064704895,0.5851571559906006,0.20985949039459229,-0.8232519626617432,0.29805514216423037,0.8699488639831543,-0.21348655223846436,0.30870768427848818,0.22097742557525636,0.8966543674468994,-0.9004073143005371,-0.01194918155670166,-0.7881805896759033,-0.2771226167678833,-0.5508899688720703,-0.42845118045806887,0.8584156036376953,0.8743851184844971,0.8582174777984619,-0.0896381139755249,-0.45653045177459719,-0.6872334480285645,0.6754872798919678,0.8706192970275879,0.1584540605545044,0.9127218723297119,0.3456434905529022,-0.4009472131729126,-0.11820733547210694,0.5375120639801025,0.030781149864196779,-0.5985333919525147,-0.6364936828613281,-0.29361069202423098,0.3103735148906708,-0.21942579746246339,0.8549575805664063,-0.9629096984863281,0.015011429786682129,0.15609657764434815,0.6871116161346436,-0.35413944721221926,-0.652045726776123,-0.1878570318222046,0.6662704944610596,-0.08202064037322998,0.8223788738250732,0.0548475980758667,0.6267378330230713,-0.4133991003036499,-0.3957728147506714,0.0855787992477417,0.3307506740093231,-0.2706495523452759,-0.739995002746582,-0.14533507823944093,-0.33276116847991946,-0.3095358610153198,0.3119463622570038,-0.988253116607666,-0.8727610111236572,0.3070625960826874,0.16165339946746827,0.4785308539867401,-0.4721335172653198,-0.11221206188201904,0.9006204605102539,0.3926994502544403,0.6654417514801025,-0.03494083881378174,0.962158203125,0.867933988571167,-0.02981245517730713,0.2790798842906952,0.3875524699687958,-0.3582223653793335,-0.6265368461608887,-0.35750138759613039,-0.19278967380523683,0.17282211780548097,0.6149213314056397,-0.11044609546661377,-0.9934787750244141,0.27321144938468935,-0.9102602005004883,-0.34996068477630618,0.30296680331230166,-0.43135154247283938,0.8411707878112793,-0.2912787199020386,-0.06950390338897705,-0.5374014377593994,0.15487372875213624,0.2697922885417938,-0.8910977840423584,0.2512633502483368,0.749885082244873,-0.7974154949188232,0.5136420726776123,-0.6147654056549072,0.12829983234405518,-0.08021819591522217,-0.37455523014068606,0.2093113660812378,-0.02077782154083252,-0.20994317531585694,0.5600123405456543,-0.31056201457977297,0.809166669845581,0.06501805782318115,0.25464555621147158,-0.5854268074035645,0.8976712226867676,-0.33027350902557375,-0.21284663677215577,0.32015320658683779,-0.41264283657073977,-0.539874792098999,0.4296068847179413,-0.4735356569290161,0.9797863960266113,-0.9089961051940918,-0.5956845283508301,-0.6664152145385742,0.31470033526420596,0.8896715641021729,-0.9780793190002441,0.9023697376251221,-0.09544456005096436,-0.47673118114471438,0.3142506778240204,-0.9950411319732666,-0.9404563903808594,0.8679063320159912,-0.5497748851776123,0.053577303886413577,0.7164878845214844,-0.8160800933837891,0.4281110465526581,-0.7068374156951904,0.6383185386657715,0.8500487804412842,0.6521985530853272,-0.022643446922302247,0.18541085720062257,-0.833188533782959,-0.1803046464920044,-0.5129580497741699,0.5718727111816406,-0.867072343826294,-0.9462177753448486,-0.9211146831512451,0.8404457569122315,0.06643664836883545,-0.13461625576019288,0.49600669741630556,-0.18533051013946534,-0.5970656871795654,-0.1313720941543579,0.46947214007377627,-0.12051188945770264,-0.38739287853240969,-0.509692907333374,-0.45524728298187258,-0.6386432647705078,0.5974688529968262,0.7552449703216553,0.6809694766998291,0.031082749366760255,-0.8796415328979492,-0.2991427183151245,-0.6708261966705322,-0.3551241159439087,0.31045934557914736,0.5646286010742188,-0.9724955558776856,-0.8573310375213623,-0.26709234714508059,-0.4264928102493286,0.8043177127838135,0.9777278900146484,0.8477187156677246,-0.41767704486846926,-0.3893476724624634,-0.7366213798522949,0.5041837692260742,-0.49693405628204348,0.24705731868743897,-0.8934788703918457,0.13410532474517823,-0.1912151575088501,0.3809811770915985,0.09083497524261475,0.22323453426361085,-0.5287902355194092,-0.18055951595306397,0.7898871898651123,0.05524146556854248,0.2814907729625702,-0.8444340229034424,0.007130265235900879,-0.49369823932647707,0.11949312686920166,0.9945943355560303,-0.6607398986816406,0.674954891204834,0.7783501148223877,-0.730229377746582,0.2465285062789917,0.5299603939056397,-0.9946188926696777,-0.6863486766815186,-0.28924739360809328,-0.2999614477157593,-0.09968221187591553,-0.27496492862701418,-0.2879601716995239,-0.6189389228820801,0.4340655505657196,0.5774350166320801,-0.3562127351760864,-0.8957481384277344,0.44278213381767275,0.975092887878418,-0.1779996156692505,0.9735705852508545,0.27603885531425478,-0.4087926149368286,0.30620595812797549,-0.01410830020904541,0.6228594779968262,-0.0670396089553833,0.1436060667037964,0.3679315745830536,-0.31729400157928469,0.6394741535186768,-0.9742162227630615,-0.9518675804138184,-0.8332691192626953,0.6950817108154297,0.3422820270061493,0.026198983192443849,0.3036315143108368,0.529951810836792,-0.20749032497406007,-0.9328174591064453,-0.16366112232208253,0.4145819842815399,0.7975151538848877,0.5619931221008301,-0.8364927768707275,0.4982442557811737,-0.4900470972061157,0.36838075518608096,0.61647629737854,0.18143165111541749,-0.06108295917510986,-0.3633936643600464,-0.11295545101165772,0.2489551305770874,0.5282802581787109,0.6478755474090576,0.938817024230957,-0.45611274242401125,-0.9104349613189697,0.794755220413208,-0.40560829639434817,0.6399812698364258,-0.40820181369781496,-0.0459519624710083,0.7171132564544678,0.7474277019500732,0.7538332939147949],"biases":[0.6655013561248779,-0.24546420574188233,-0.4149519205093384,0.4482588469982147,0.18206608295440675,-0.6605195999145508,0.8503632545471191,-0.08004128932952881,0.6178548336029053,0.20481336116790772,-0.6739518642425537,-0.9536709785461426,-0.6746089458465576,0.44130679965019228,0.38393065333366396,0.13462364673614503]},{"neurons":16,"activationFunction":0,"weightsFlat":[0.3175186812877655,-0.5466434955596924,0.35689660906791689,-0.8972988128662109,-0.8614397048950195,-0.9679579734802246,0.8377149105072022,-0.8161437511444092,-0.39707720279693606,0.13479530811309815,0.8797879219055176,0.5507986545562744,0.9301350116729736,0.09475338459014893,-0.7295513153076172,0.09711205959320069,0.3844608962535858,-0.2284024953842163,0.03201329708099365,0.2507023513317108,-0.20955312252044679,-0.4915684461593628,-0.04297196865081787,-0.9277153015136719,0.013156771659851075,0.24237024784088136,-0.40731489658355715,0.7869184017181397,-0.006719708442687988,0.29219338297843935,0.210624098777771,0.9349331855773926,0.4902741611003876,0.34285876154899599,-0.8846197128295898,0.49638840556144717,0.9193215370178223,-0.5181624889373779,-0.46771252155303957,-0.41987144947052,0.12494456768035889,0.39670464396476748,-0.9809799194335938,-0.6214380264282227,-0.4646090269088745,-0.4113398790359497,0.5731353759765625,-0.480948805809021,-0.48085153102874758,0.5919191837310791,0.8696866035461426,-0.16207826137542725,0.3462946116924286,0.42504116892814639,0.7998969554901123,0.19831311702728272,0.15645945072174073,-0.9678640365600586,-0.3709448575973511,0.17030775547027589,-0.6830899715423584,-0.491390585899353,0.48248669505119326,0.2804050147533417,-0.3163799047470093,-0.46774041652679446,-0.2090519666671753,-0.9436337947845459,0.22738468647003175,-0.5560808181762695,0.891503095626831,-0.8226032257080078,-0.7695362567901611,-0.6175289154052734,0.41307470202445986,0.8314168453216553,0.9398107528686523,-0.0802227258682251,0.18152201175689698,0.1496342420578003,0.854724645614624,0.007345080375671387,0.25740644335746767,0.8679571151733398,-0.6064493656158447,-0.3912438154220581,0.06697046756744385,0.6337239742279053,0.042525410652160647,0.08172857761383057,-0.34277284145355227,-0.7664299011230469,-0.25430238246917727,-0.3847919702529907,-0.9390068054199219,-0.8506495952606201,0.5517168045043945,-0.5452578067779541,0.5830862522125244,0.18258249759674073,0.26416513323783877,-0.34587371349334719,-0.16136181354522706,0.3722343146800995,0.2032238245010376,0.8930039405822754,0.14271032810211183,-0.27624475955963137,-0.6406869888305664,0.8250348567962647,0.5772209167480469,-0.8040544986724854,0.23117434978485108,-0.03531467914581299,0.6328647136688232,0.3621377646923065,0.5241553783416748,-0.6506893634796143,0.9366810321807861,-0.9620604515075684,0.6302578449249268,0.6893899440765381,-0.38676583766937258,0.5920751094818115,-0.6831800937652588,0.24093878269195558,-0.3001514673233032,0.6655869483947754,0.03861653804779053,-0.378853440284729,-0.427099347114563,0.4419665038585663,-0.3165358304977417,0.19003474712371827,0.13044655323028565,0.5540807247161865,0.3527624309062958,0.46196839213371279,-0.8869719505310059,0.6322035789489746,0.030343174934387208,-0.34178149700164797,0.19575583934783936,0.7121446132659912,0.532757043838501,-0.399328351020813,-0.6460378170013428,-0.15268266201019288,0.016047358512878419,-0.28933846950531008,-0.9066452980041504,-0.8091256618499756,0.9933726787567139,-0.2693740129470825,-0.994499683380127,0.7982864379882813,0.15895068645477296,-0.9943981170654297,-0.19187653064727784,0.07189810276031494,-0.7085680961608887,-0.6776247024536133,0.710646390914917,0.20367300510406495,-0.8513107299804688,-0.1818171739578247,-0.5651676654815674,0.13402116298675538,0.9630107879638672,0.8430981636047363,0.9975090026855469,0.3981785476207733,0.7441377639770508,0.5426383018493652,-0.6827359199523926,0.5958046913146973,0.9298155307769775,-0.4163244962692261,-0.7061989307403565,-0.6923935413360596,0.7825539112091065,0.10449206829071045,-0.5136857032775879,-0.22194135189056397,-0.2821696996688843,-0.19432342052459718,-0.5182924270629883,-0.8241832256317139,0.9681887626647949,0.1242297887802124,0.3357674777507782,-0.4828399419784546,0.7252018451690674,-0.46781790256500246,0.5365815162658691,0.645524263381958,0.02686774730682373,-0.9802098274230957,0.6720924377441406,-0.5850522518157959,0.1901794672012329,-0.4198716878890991,0.9322943687438965,-0.3319638967514038,0.5828680992126465,-0.5731744766235352,-0.16541683673858643,-0.4405122995376587,-0.6706669330596924,-0.39854419231414797,-0.09666430950164795,-0.17274677753448487,0.7129533290863037,-0.12394654750823975,-0.14254319667816163,0.6492037773132324,0.7963945865631104,-0.714566707611084,-0.24879133701324464,-0.24236547946929933,-0.3261193037033081,0.5323030948638916,-0.22997725009918214,-0.5816278457641602,0.6456882953643799,0.1333092451095581,-0.6014730930328369,-0.9524648189544678,-0.3664625883102417,-0.3433948755264282,0.07278001308441162,-0.48594629764556887,0.7356858253479004,0.18875110149383546,0.5829727649688721,0.1588536500930786,0.8240821361541748,0.471666544675827,0.5160961151123047,-0.6025738716125488,-0.218103289604187,0.22523534297943116,-0.37396275997161868,0.9650671482086182,0.3422057330608368,0.07178032398223877,0.2777247130870819,0.3302907645702362,0.48042747378349306,-0.12864816188812257,-0.33593547344207766,0.40918228030204775,0.8628683090209961,0.22219765186309815,0.4504534900188446,-0.9140748977661133],"biases":[0.9354805946350098,-0.14357197284698487,0.07031500339508057,-0.8295986652374268,0.7991647720336914,0.31674787402153017,-0.8769314289093018,0.6613223552703857,0.7905144691467285,0.1243206262588501,0.7600038051605225,0.8789308071136475,-0.013605475425720215,-0.1529148817062378,0.6695494651794434,0.3936733901500702]},{"neurons":7,"activationFunction":3,"weightsFlat":[0.2730660140514374,-0.9054083824157715,-0.5946431159973145,-0.32746827602386477,-0.6534824371337891,0.18877661228179933,0.8445348739624023,0.27272674441337588,-0.033088088035583499,-0.41746222972869875,-0.0143965482711792,-0.38604772090911868,-0.8350987434387207,0.07454979419708252,-0.32337772846221926,-0.9524457454681397,0.2625739276409149,0.6700739860534668,0.33937975764274599,-0.7125198841094971,-0.7109198570251465,0.5859167575836182,0.5451676845550537,0.36178991198539736,0.8658771514892578,0.723055362701416,-0.9943921566009522,0.9781460762023926,0.9123947620391846,0.24562537670135499,-0.45108044147491457,0.03921043872833252,0.2733552157878876,-0.014717698097229004,0.8381509780883789,-0.7982156276702881,0.7126598358154297,0.3227212131023407,-0.04254424571990967,-0.4967080354690552,-0.45162975788116457,0.9201960563659668,-0.1321507692337036,0.33216592669487,0.22395479679107667,-0.6635301113128662,0.41916128993034365,0.17921531200408936,-0.4458400011062622,-0.5679640769958496,-0.18281996250152589,0.49968644976615908,0.9416210651397705,0.3518945872783661,0.45168039202690127,-0.6342549324035645,-0.7040910720825195,0.4775039851665497,0.9028618335723877,-0.8200984001159668,0.8449041843414307,0.7465484142303467,0.6619675159454346,0.8646717071533203,-0.24272024631500245,0.4734930694103241,-0.6719207763671875,-0.5792860984802246,0.2536937892436981,-0.07179796695709229,0.3027589023113251,-0.716362714767456,-0.8116035461425781,-0.45878589153289797,-0.5594470500946045,0.7233552932739258,-0.6848165988922119,0.7846531867980957,-0.08313953876495362,-0.9863302707672119,0.6484146118164063,-0.8101255893707275,-0.5282628536224365,-0.7967216968536377,0.3516688048839569,-0.11348497867584229,-0.8496284484863281,-0.22488796710968018,0.40105316042900088,-0.7017452716827393,0.2799534499645233,0.7013208866119385,0.09546530246734619,-0.8919601440429688,0.11795532703399658,0.025072455406188966,0.26248952746391299,0.3405432403087616,-0.29572594165802,0.7133803367614746,0.45714280009269717,0.38652655482292178,0.016417622566223146,0.06471407413482666,-0.044043660163879397,-0.7899365425109863,0.159124493598938,0.19273483753204347,-0.9965174198150635,-0.7697508335113525,0.6467607021331787,-0.790245771408081],"biases":[0.21132028102874757,0.20801818370819093,0.40520069003105166,-0.5246992111206055,-0.6785345077514648,0.7014391422271729,-0.45344793796539309]}],"compiled":true}