{"neurons":47,"activationFunction":4,"weightsFlat":[],"biases":[0.48411986231803896,-0.7357115745544434,-0.3340824842453003,-0.11272585391998291,-0.919550895690918,-0.6672663688659668,0.7917759418487549,0.7944247722625732,0.09164679050445557,0.097145676612854,0.6742630004882813,-0.7212865352630615,-0.060300469398498538,0.23482930660247804,0.009020209312438965,0.35716721415519717,-0.2167879343032837,0.2875082194805145,-0.931565523147583,0.10670912265777588,0.21303021907806397,0.5898866653442383,-0.8600785732269287,-0.8943748474121094,-0.08167421817779541,-0.9909472465515137,-0.37142741680145266,-0.6910715103149414,0.7042393684387207,-0.7556953430175781,0.4550308883190155,-0.12895643711090089,0.17080843448638917,-0.44338667392730715,-0.3932763338088989,0.2437523603439331,-0.9132785797119141,-0.5502560138702393,0.7259728908538818,-0.8921258449554443,-0.3915754556655884,-0.4204493761062622,-0.16848719120025636,0.33577248454093935,-0.538245439529419,0.7620141506195068,-0.08293497562408447]}