{"neurons":6,"activationFunction":0,"weightsFlat":[1.0883548259735108,-0.9118185043334961,-0.7190076112747192,1.3278613090515137,-0.5005772113800049,-0.05476915463805199,-0.904171347618103,0.06807606667280197,0.8835493326187134,0.36185234785079958,-0.23589208722114564,0.3286926746368408,-0.43711164593696597,-0.7906023859977722,0.8686695098876953,0.5405937433242798,-0.8577444553375244,0.28871244192123415,0.41180577874183657,-0.11792872846126557,0.34722042083740237,0.22727501392364503,0.4014173746109009,0.7198132276535034,-0.35100120306015017,-0.0018531233072280884,-0.6482937335968018,0.31303733587265017,0.2661779820919037,-0.8227526545524597,-0.20926186442375184,0.2674705684185028,-0.14142215251922608,1.2113267183303834,0.408622145652771,0.9330102205276489,0.34789013862609866,0.8219310641288757,0.9261366724967957,0.6517843008041382,-0.7872028350830078,0.8270570039749146,-0.1270061433315277,0.6669065356254578,1.0045489072799683,0.9232542514801025,-0.02470703423023224,-0.9215697050094605,0.03869568929076195,-0.12541401386260987,0.909413754940033,-0.014452241361141205,-0.5755789279937744,0.03161728382110596,0.8631604909896851,0.024292610585689546,-0.3239046335220337,-0.0376351997256279,-0.8035094738006592,1.0427281856536866,-0.20140403509140016,-1.1658861637115479,0.8062169551849365,0.1545758843421936,0.5462026000022888,-0.00749235600233078,0.2933831512928009,-0.48796772956848147,0.9987255334854126,-0.3385663330554962,0.5164140462875366,-0.017283335328102113,0.7508928179740906,-0.07166492938995362,0.01138891652226448,-0.15055298805236817,0.6900136470794678,0.9902747273445129,0.10304884612560272,-0.08054874837398529,0.7502583861351013,0.6640428304672241,1.16245436668396,-1.0490554571151734,0.6363696455955505,0.3573262691497803,-0.7761761546134949,-0.5298070311546326,-0.6114948391914368,0.6754815578460693,0.6310785412788391,0.7361373901367188,-0.029347918927669526,-0.16451188921928407,-0.7289475202560425,1.006737470626831],"biases":[-0.6720011234283447,-0.6637787818908691,0.31652572751045229,-0.7544175982475281,-0.11727463454008103,0.022916577756404878]}