{"neurons":32,"activationFunction":0,"weightsFlat":[-1.4760130643844605,-1.2585031986236573,0.07602798938751221,1.2661782503128052,-0.6902148723602295,-0.9670454859733582,1.3203250169754029,-0.7058814167976379,1.2840420007705689,1.0100643634796143,0.9393367767333984,0.05001401901245117,-0.3810439109802246,1.475851058959961,1.270528793334961,0.4392282962799072,1.4109067916870118,-1.0919610261917115,1.2690362930297852,0.8780348300933838,-0.40539848804473879,-0.08717621117830277,0.037276118993759158,-0.6596885919570923,0.9574427604675293,-1.2035636901855469,-0.8291272521018982,-0.5619289875030518,-0.09765458106994629,-1.3222006559371949,1.4191670417785645,-1.3041129112243653,1.0539281368255616,0.3953149914741516,1.125866174697876,0.12265618145465851,1.1618956327438355,0.1630261242389679,0.3670107126235962,0.6907742023468018,0.039509452879428866,-0.460092157125473,0.4687317907810211,-1.1518977880477906,-0.6762452125549316,0.5408751368522644,1.0668286085128785,-1.1899181604385377,1.187694787979126,-1.5876351594924927,0.6366971731185913,0.45931634306907656,-1.1588337421417237,-0.29265296459198,1.0112035274505616,0.903157651424408,-0.2626797556877136,0.44924741983413699,-0.9706220030784607,-1.1433316469192505,0.44553127884864809,0.21952489018440247,0.7964431047439575,0.45221710205078127,-0.5137395858764648,0.30637168884277346,0.9113321900367737,-1.1643913984298707,0.25498685240745547,-0.8993030190467835,-1.4715250730514527,0.42674195766448977,-0.030416809022426606,-1.0165183544158936,-0.6475132703781128,0.7798338532447815,1.1208889484405518,0.990139365196228,-0.9151613712310791,0.26164382696151736,-0.2105032354593277,-0.9214614629745483,1.4950860738754273,1.3816554546356202,-0.3500097095966339,-1.108094334602356,1.1671181917190552,0.41886448860168459,-1.804732322692871,1.386630892753601,-0.13642916083335877,-0.9660488963127136,-0.011130865663290024,0.7963916063308716,0.36531752347946169,0.41635558009147646,-0.7977709770202637,1.4453500509262086,0.7539021372795105,0.8859748244285584,-0.920601487159729,0.05742858350276947,0.27971339225769045,0.22792655229568482,0.18193787336349488,-1.0140115022659302,-0.5353981256484985,-0.9489518404006958,0.4139520823955536,-0.4184526801109314,0.5726761221885681,0.9393830299377441,0.19517925381660462,-0.42595988512039187,1.0085878372192383,-0.2793039381504059,1.5254462957382203,1.6352548599243165,-1.4823118448257447,0.03732086718082428,-1.0255072116851807,-0.2920725345611572,-0.3995174467563629,0.887195885181427,1.1550813913345338,-1.546879768371582,0.1276627480983734,1.0519492626190186,0.0016952753067016602,0.6436359882354736,-0.8591122031211853,-0.762885332107544,-0.2236660271883011,1.44051194190979,-1.010606288909912,-0.5228058695793152,-1.2035059928894044,-1.5070823431015015,0.5984245538711548,1.4094287157058716,1.4040888547897339,-0.6323499083518982,0.06107804924249649,1.402592420578003,-0.8027825951576233,-0.15552833676338197,0.9036915898323059,-0.6620108485221863,1.1560063362121583,0.9749165177345276,0.9538299441337586,0.6245889067649841,-1.1671361923217774,0.0410468652844429,1.0007075071334839,-0.5399994254112244,0.8294510245323181,0.6757103204727173,-0.9166789054870606,-0.2510869801044464,1.134633183479309,-0.3216479420661926,0.5432579517364502,-0.14866043627262116,-0.6821082830429077,1.2826659679412842,1.404180645942688,0.7625066637992859,-0.8055721521377564,1.2359699010849,-0.1777319461107254,-0.5909019708633423,-0.5314415693283081,0.022607937455177308,-0.40722379088401797,1.172896385192871,1.4421489238739014,0.29899272322654726,-0.25004875659942629,0.690201997756958,1.4101535081863404,0.27221670746803286,1.4190473556518555,-0.07627430558204651,1.519126057624817,0.875712513923645,0.3578353226184845,-0.16705220937728883,0.31997397541999819,0.6639100313186646,1.173680305480957,-1.4705818891525269,-1.0478070974349976,0.6536799669265747,-0.5232945680618286,1.4845272302627564,1.2662464380264283,-1.299860954284668,-0.8153571486473084,0.006925620138645172,1.4417091608047486,1.49424147605896,-0.3996381163597107,-1.2058396339416505,-0.5973663926124573,0.11036600917577744,0.1593533307313919,0.2820177674293518,-0.7863340377807617,0.37267357110977175,-1.0025688409805298,0.024297993630170823,-1.2326158285140992,-0.18521034717559815,1.2312761545181275,0.011693187057971955,0.36247560381889346,-1.0115514993667603,0.7972216606140137,-1.0876328945159913,-1.31605064868927,-0.6959781050682068,-0.41769909858703616,0.5970895290374756,-1.101709246635437,0.14941862225532533,0.15938639640808106,0.7702039480209351,-1.504652976989746,0.7667361497879028,-0.7871920466423035,-1.1232209205627442,-0.37192341685295107,-1.3032538890838624,-1.2583420276641846,0.969064474105835,-0.9647198915481567,0.14718393981456757,1.1800978183746338,0.29373404383659365,-0.25455936789512637,-0.36654695868492129,1.139528512954712,1.0376180410385132,0.8757824301719666,-1.5057355165481568,0.16257840394973756,0.976355791091919,0.28290000557899477,-0.8426363468170166,1.4494084119796754,-0.551498293876648,-1.0904330015182496,0.3940705358982086,1.3669710159301758,1.2314605712890626,-1.1173369884490967,-0.10480031371116638,-0.11853353679180145,0.3080717623233795,0.15445785224437715,-0.9339686632156372,-0.2268962264060974,-1.178803563117981,0.3239273428916931,-0.0338459312915802,-0.9607033729553223,-1.4600868225097657,-0.9631465077400208,-0.7138016819953919,-1.2393126487731934,0.8625845909118652,0.21097636222839356,-1.2910888195037842,0.6884015798568726,0.442363440990448,-1.3838328123092652,-1.1065311431884766,0.033989209681749347,0.08528498560190201,-0.2042800784111023,0.9070478081703186,-1.0430834293365479,-1.023637294769287,-0.3537074327468872,1.3542239665985108,0.06439322233200073,-0.35210490226745608,-0.0920780748128891,1.4248815774917603,-0.4340362250804901,0.8682073354721069,-0.5818425416946411,0.6778396368026733,-0.45288434624671938,-0.10378360003232956,0.9192968010902405,0.24335256218910218,-0.3754739761352539,-1.4705157279968262,0.4616251289844513,-0.9714020490646362,-0.6356614232063294,0.3402424454689026,-0.5368812084197998,-0.7823207378387451,-1.3529517650604249,1.0319252014160157,0.6515617966651917,-0.01621706783771515,-0.48968255519866946,0.6400743126869202,-0.21295249462127686,0.5686562061309815,-1.2731165885925294,0.3115200400352478,-1.0740621089935303,-0.4868006110191345,1.378834843635559,0.49568626284599306,-0.9056805372238159,-0.43685629963874819,-0.2747311294078827,0.6670728921890259,0.9679450988769531,1.4220373630523682,-0.9616245031356812,-0.7516276836395264,-1.3638532161712647,1.5585086345672608,-1.5574934482574463,-1.229529857635498,-1.0012811422348023,-1.1237257719039918,-1.2504640817642213,-0.35377979278564455,0.23284125328063966,1.490503191947937,-0.4443320333957672,-0.00800112634897232,-0.6943476796150208,-0.2435397207736969,-0.6920038461685181,1.3967514038085938,-0.3741969168186188,0.3896016776561737,0.6551718711853027,-0.8395864963531494,1.3320374488830567,0.10593701899051666,1.4876421689987183,-0.0039506107568740849,1.271636962890625,-1.1528319120407105,0.5933236479759216,0.5122011303901672,-0.6221790313720703,-1.1736717224121094,-1.1140105724334717,-0.015447258949279786,1.2357662916183472,-1.0913795232772828,-0.4389649033546448,-1.456192970275879,-0.6430550813674927,-1.1726096868515015,1.3183449506759644,0.057838454842567447,0.5952533483505249,-0.5711843967437744,-0.09605330228805542,-0.9392469525337219,1.246659278869629,1.3026938438415528,-0.7913572192192078,-1.3549447059631348,0.9369779229164124,-0.027743607759475709,-0.5900318026542664,-1.6524691581726075,-0.8698797821998596,-1.5564006567001343,0.3009796142578125,-1.3360244035720826,0.7151883840560913,-0.03835001587867737,0.8754434585571289,-0.9942932724952698,1.5189028978347779,-1.2271169424057007,0.10634197294712067,0.7323980927467346,1.2589675188064576,0.22757862508296967,-0.14266714453697205,-1.3719514608383179,0.6938157081604004,-1.3888732194900513,1.6238994598388672,-0.1729368269443512,-0.9757629632949829,1.1064141988754273,1.3590924739837647,-0.20395126938819886,-0.6707597970962524,0.24446721374988557,0.6343222856521606,-0.4223640561103821,0.49176275730133059,-1.7570397853851319,0.4316195249557495,0.5745207071304321,0.5192628502845764,1.2729713916778565,-0.9225341081619263,1.4962254762649537,-0.49518388509750368,-0.12947800755500794,0.7910264134407044,1.428124189376831,-0.1423805207014084,0.6422983407974243,-0.9532400965690613,-0.233158141374588,-0.9807342886924744,1.3915637731552125,-0.7556856870651245,0.3681851029396057,-0.38203704357147219,0.24291588366031648,0.6185788512229919,-0.0831119492650032,-1.142242431640625,1.0103455781936646,0.46512824296951296,-0.4714900255203247,-0.7736855745315552,-1.150457501411438,-0.8751606941223145,0.746558427810669,-1.5302356481552125,0.033572882413864139,0.4962354302406311,-0.22546643018722535,-1.4829152822494507,-1.6061174869537354,0.4177755117416382,-0.9005126953125,1.3385896682739258,-0.8481969237327576,-0.2268487960100174,0.08464723825454712,0.7627358436584473,0.8203510642051697,1.3331917524337769,-0.9689050912857056,0.567607581615448,0.2632649540901184,0.916653573513031,-1.233492374420166,-0.8223413825035095,1.2528949975967408,0.9128279089927673,-0.8681058883666992,-0.1792016178369522,-1.589446783065796,0.3520958721637726,1.3978906869888306,-1.5020443201065064,-1.5504182577133179,1.255104422569275,1.2664713859558106,1.2515486478805543,-0.08000022917985916,0.7987484931945801,1.0836900472640992,0.8718582987785339,1.1941947937011719,-0.6334130764007568,-1.1703310012817383,-1.6704096794128419,0.9771219491958618,1.368546962738037,0.41236919164657595,-0.9535591006278992,0.48836448788642886,1.0226571559906006,-0.4363005757331848,0.33636486530303957,0.2559821307659149,-0.9684523344039917,1.6917741298675538,-0.8127612471580505,-1.4930766820907593,-1.168025016784668,-0.6231745481491089,-0.6560848355293274,1.3652056455612183,-0.5564185380935669,-0.280120849609375,-0.6973624229431152,-0.4613518714904785,1.18936288356781,-1.2997713088989258,1.181387186050415,0.7940891981124878,-0.8228989839553833,0.5399473905563355,-1.4426823854446412,1.2713720798492432,-0.9173969030380249,-0.6789669394493103,0.48400112986564639,-0.05430544912815094,0.9739722609519959,-1.356572151184082,-1.2549829483032227,-1.438891887664795,-1.1621919870376588,0.6858828067779541,-0.8754575252532959,-0.7902278900146484,0.9406256675720215,0.22601447999477387,-1.4604666233062745,-0.8849627375602722,1.560555100440979,1.1950899362564088,-0.017570141702890397,0.8021805286407471,0.08899703621864319,1.053278923034668,-0.897789478302002,0.4455578923225403,-0.6231397390365601,0.16543170809745789,1.0035823583602906,0.2383991777896881,-1.1718194484710694,0.7603389024734497,-1.5438827276229859,-0.5993282198905945,-0.8646625876426697,0.5288728475570679,-1.2644635438919068,-0.9266602993011475,1.4858614206314088,1.5634821653366089,0.9295249581336975,0.3047208786010742,-1.062211036682129,0.87166428565979,-0.7717599868774414,1.2132141590118409,1.519782304763794,-0.5007030963897705,-1.3427661657333375,0.9601969718933106,-0.2796410322189331,0.8494016528129578,-0.7303277254104614,-1.2491849660873414,-0.41235071420669558,-0.3569926917552948,-0.8681801557540894,1.343590259552002,-1.0256479978561402,0.13878566026687623,-0.13048836588859559,-0.8343756198883057,-0.6126892566680908,-0.6729463338851929,1.3854751586914063,-0.4230961799621582,-1.3823728561401368,-0.09119056910276413,-0.11972251534461975,0.3218742609024048,0.8983369469642639,-1.0871992111206055,-0.3087332248687744,-1.2962044477462769,-0.3623243272304535,-0.7566454410552979,-0.08230692148208618,0.4985710680484772,0.439397394657135,-0.40181028842926028,0.4223218262195587,0.7755041122436523,1.291015386581421,-0.20620587468147279,1.8054900169372559,-0.7332035899162293,0.5976150035858154,1.0190812349319459,1.1847180128097535,0.19615669548511506,-0.1933249831199646,0.28301316499710085,0.48975393176078799,0.35866114497184756,-0.5348576307296753,-1.0598949193954468,1.2098679542541505,-0.6334155797958374,0.24800929427146913,-1.3395133018493653,0.5109041929244995,-0.7468712329864502,-1.905402660369873,1.0211957693099976,-1.1892637014389039,-0.8939098119735718,0.49758338928222659,1.5808589458465577,0.658753514289856,0.7769270539283752,1.1713035106658936,-0.5436590313911438,0.9550592303276062,0.08980659395456314,0.3336660861968994,-0.7792547345161438,-0.2895503342151642,0.13568085432052613,0.4581851661205292,0.3158250153064728,-1.1547085046768189,-0.9188401699066162,-1.2517565488815308,-0.39028915762901308,0.2941703498363495,1.0628530979156495,0.4817048907279968,0.37450674176216128,-0.41024836897850039,-0.42142632603645327,-0.08767358958721161,0.32639914751052859,0.030683070421218873,0.5751224756240845,0.712412416934967,-0.3140719532966614,-0.14104177057743073,0.6342716813087463,0.1728931963443756,1.219077229499817,0.6164463758468628,-1.0459492206573487,0.9013731479644775,-0.4246262311935425,0.9417779445648193,1.271376609802246,-1.2075374126434327,-0.8150885105133057,-0.5811378955841065,-1.4242713451385499,-1.4193551540374756,0.915877103805542,-0.47251075506210329,0.3077477812767029,-1.2682322263717652,-0.6100329756736755,0.2563842833042145,1.5564810037612916,0.6987385153770447,1.1748892068862916,-0.433358371257782,-1.3199961185455323,-1.1802250146865845,-1.2119101285934449,-0.22107240557670594,0.1277082860469818,0.9080843925476074,0.6050929427146912,-1.0016453266143799,-0.4071591794490814,0.29006433486938479,0.14823612570762635,0.3479183316230774,0.0529591403901577,-0.020744353532791139,0.1574084311723709,-1.084533452987671,0.5087391138076782,-1.4684045314788819,0.9816685914993286,1.1759302616119385,1.066272497177124,0.9496046304702759,-0.1774834841489792,-0.5972424745559692,-0.9157174825668335,0.14127564430236817,-0.13821060955524445,-0.3292832672595978,0.5960526466369629,0.273248553276062,-1.2079514265060425,0.729978621006012,-1.2329379320144654,0.40474629402160647,-0.7278610467910767,-0.41634151339530947,-0.036047279834747317,0.1090366393327713,0.26963138580322268,-1.2067662477493287,0.47780293226242068,-1.2809267044067383,-0.0264931321144104,-1.1993587017059327,-0.9558794498443604,-0.14071565866470338,-0.40768933296203616,0.15396852791309358,-0.6214449405670166,-0.8680555820465088,1.1973755359649659,-1.7433509826660157,1.0325181484222413,0.18364664912223817,-0.6260342001914978,0.3106459379196167,0.02132580801844597,-1.0348032712936402,0.456101655960083,0.5559947490692139,-0.9111060500144959,0.35757434368133547,-0.28525909781455996,0.3227965831756592,-0.869269073009491,-0.3896048665046692,-1.4826626777648926,-0.32952210307121279,0.12220969796180725,-0.20942659676074983,-1.266993761062622,-0.36915916204452517,-1.3891407251358033,-1.0191538333892823,-0.19957099854946137,-1.0639853477478028,-0.18003621697425843,0.7631171941757202,0.6457828283309937,0.026662811636924745,0.33694007992744448,-0.8282395601272583,-0.7564454078674316,-1.2144107818603516,-0.4839434325695038,-0.581400990486145,-0.05163094028830528,-0.17709755897521974,-1.1661051511764527,1.5902966260910035,-0.7593513131141663,0.46017396450042727,-0.3233751058578491,1.1327800750732422,0.11693273484706879,0.8500766158103943,-1.2904268503189088,0.22631846368312837,1.2958626747131348,-0.9939613342285156,1.1497712135314942,-0.7342477440834045,0.025859318673610688,0.9791702628135681,-0.014347687363624573,0.46858683228492739,-0.09297266602516175,-0.29617464542388918,-1.6368517875671387,-1.3435732126235963,0.6490873098373413,-0.6764990091323853,0.9488791823387146,1.71224045753479,-1.4677931070327759,-0.12368160486221314,1.248214840888977,0.6232497096061707,-0.553536057472229,0.7121434211730957,-1.2568151950836182,-0.9006490111351013,-1.1850076913833619,0.7489650249481201,0.19783179461956025,-1.0610955953598023,1.1177847385406495,-1.0907987356185914,-0.7991819381713867,-0.16956491768360139,-1.3505635261535645,0.187789186835289,-1.3983418941497803,-0.3416784107685089,-0.3716791272163391,-1.2619473934173585,0.8734844326972961,-0.9042527675628662,-1.2713215351104737,-0.056963786482810977,-0.49420592188835146,-1.3634618520736695,0.3702978193759918,-0.4554070234298706,0.23519253730773927,0.15802299976348878,-0.637212336063385,-0.48769262433052065,0.21578790247440339,-0.18859311938285829,-1.4807206392288209,0.05529192462563515,-1.3700637817382813,1.231973648071289,-1.3490679264068604,-1.259556531906128,1.5830199718475342,0.4124932289123535,0.4391905963420868,-0.450141966342926,-0.8973950147628784,0.5739991068840027,-0.7293422222137451],"biases":[-1.2338448762893677,-0.05435292422771454,0.19612430036067964,-0.5738774538040161,-0.1996603012084961,-0.6270329356193543,0.19292360544204713,1.2470741271972657,-0.5351626873016357,-0.2559194564819336,-1.3993027210235596,-0.204180508852005,-1.1722900867462159,-0.24932697415351869,-1.062490463256836,-0.40974852442741396,0.09606069326400757,1.5394872426986695,-1.1214187145233155,0.6160454750061035,1.5094165802001954,-0.4276875853538513,-0.42654332518577578,1.1575047969818116,-0.4804808795452118,-0.2811035215854645,0.5151181817054749,-0.5847063660621643,-0.0015835165977478028,-1.0906116962432862,0.08097551763057709,-1.0036683082580567]}