{"neurons":16,"activationFunction":0,"weightsFlat":[0.6164853572845459,0.9830030202865601,1.2699341773986817,-0.6637716889381409,0.8051291704177856,-2.0051846504211427,-0.9488089680671692,1.3467494249343873,-0.585825502872467,0.8980010747909546,-0.11923842132091522,-1.2843542098999024,1.4602559804916382,2.453444719314575,-0.31286782026290896,0.5747387409210205,-0.9242763519287109,0.6352307796478272,1.6051359176635743,1.622032880783081,0.39110520482063296,0.7119146585464478,1.206395149230957,-0.4987614154815674,1.1967787742614747,-0.33620062470436098,1.4207754135131837,2.418443441390991,1.027605414390564,-0.12174402922391892,-1.0128556489944459,-0.9274062514305115,-0.5232402086257935,0.40639472007751467,-1.3159881830215455,0.9104259014129639,-2.8904776573181154,-0.5940495133399963,-1.6855117082595826,0.5267800688743591,1.4801665544509888,0.6622852683067322,-0.08834801614284516,-0.18387170135974885,-0.36260026693344118,-0.14195364713668824,1.5423320531845093,0.5005592107772827,-0.26394885778427126,2.113964557647705,2.1281981468200685,-0.6335400938987732,-1.5295395851135255,-2.2001850605010988,0.6110216379165649,-0.18952637910842896,-0.9423171877861023,1.4009509086608887,1.8802659511566163,-0.7733787298202515,0.7172092795372009,-1.0155770778656006,1.3739558458328248,0.513358473777771,-2.521491527557373,-2.1431784629821779,-1.039989709854126,-1.94564950466156,-1.7487462759017945,-0.5437122583389282,-0.18048280477523805,1.2174068689346314,2.308298110961914,0.09928850829601288,-1.3709369897842408,1.2142442464828492,0.31131353974342348,1.2053335905075074,-0.5904234647750855,3.9398257732391359,-0.5998661518096924,-1.2441774606704713,-1.5075377225875855,2.55159854888916,0.12317895889282227,1.101989984512329,-1.2624061107635499,-3.002711057662964,0.38787931203842165,-0.9819651246070862,-0.12986992299556733,-1.1710819005966187,0.6264663338661194,-0.9640812873840332,-0.040851399302482608,-0.1304246038198471,0.19229915738105775,1.7027299404144288,0.9798044562339783,-0.9992702007293701,0.9477249383926392,-0.07383280992507935,-0.06172798573970795,-0.48536181449890139,-0.5383471250534058,-1.3032195568084717,1.2128645181655884,-1.2302331924438477,-2.7904245853424074,0.5720672011375427,-1.412787675857544,1.0001609325408936,-1.1575603485107422,0.8645381331443787,-0.8019144535064697,-2.7035024166107179,0.49305152893066409,-0.6879823803901672,0.3562434911727905,0.12184897810220719,1.760095238685608,0.7202728390693665,0.9242821931838989,-1.1457582712173463,-0.4791221618652344,-0.055334173142910007,-0.7396939396858215,0.34789687395095827,0.30864542722702029,0.052992597222328189,-1.5855214595794678,-0.13038556277751923,1.9733139276504517,0.7532035112380981,1.1406772136688233,1.6352657079696656,-0.7954440116882324,-1.423606276512146,-0.7828543186187744,0.1678100973367691,0.6324592232704163,-0.5185636281967163,1.9521857500076295,-1.0981758832931519,-1.6398361921310425,-0.35545945167541506,-0.18061305582523347,-1.5786051750183106,2.435324192047119,-0.16327941417694093,-0.4966469705104828,2.2155251502990724,0.5948135256767273,0.2347193956375122,-0.7396405935287476,-0.9913568496704102,-0.3577245771884918,-2.1808955669403078,-1.5491195917129517,-1.9481383562088013,-1.7776373624801636,0.5808614492416382,0.8785461187362671,0.9946570992469788,1.1404081583023072,0.4005967378616333,-0.7798261046409607,-0.19126036763191224,2.2399847507476808,0.6894354820251465,-1.2821457386016846,-0.011783406138420105,1.2507848739624024,1.1743098497390748,-0.5380906462669373,0.4367484748363495,1.5392359495162964,0.10791850090026856,0.14950554072856904,-1.8660639524459839,1.0957785844802857,-0.3153437674045563,1.0732691287994385,2.2491393089294435,-0.10098493844270706,1.6812479496002198,0.07748584449291229,-0.7360765933990479,1.197532296180725,1.6661479473114014,0.7255911231040955,-0.8212683200836182,-1.4604218006134034,-1.3100732564926148,0.664595901966095,0.4262930452823639,-0.46451324224472048,-0.5857083797454834,-1.4665781259536744,0.29156213998794558,0.28792035579681399,0.4133342504501343,0.8834468126296997,-1.7000659704208375,-1.40058434009552,-0.3167033791542053,0.4449528455734253,0.5207380652427673,-2.1310691833496095,-0.9232386946678162,-0.6612536311149597,-0.1664920151233673,0.4298601746559143,0.587943434715271,-1.2677375078201295,0.5119518637657166,-0.797885000705719,0.8192644119262695,-0.725915253162384,1.8803976774215699,0.5484150648117065,0.2548825144767761,-0.41406407952308657,1.1216932535171509,0.38829925656318667,-0.20371964573860169,-0.7274119853973389,2.375761032104492,-2.1180007457733156,0.5233423113822937,-0.620796263217926,-1.8322741985321046,-1.4673482179641724,0.10036645829677582,-1.2348113059997559,-0.9577627778053284,-0.12772826850414277,-1.6951464414596558,-2.1263413429260256,-0.5852720737457275,0.2650282382965088,-0.1584433913230896,-0.09004074335098267,1.0728422403335572,-1.7806458473205567,0.8782792091369629,-0.44951367378234866,-0.6483857035636902,-0.5102306008338928,-0.6661179661750794,2.9983303546905519,0.002691805362701416,-1.921195149421692,-0.0013556554913520814,2.905364751815796,1.1233922243118287],"biases":[0.5304673314094544,1.1298532485961915,0.15320970118045808,0.062155887484550479,-0.03575332462787628,0.7545762062072754,0.07060877978801727,-0.3232678771018982,-0.11777491867542267,0.685893714427948,0.8190550804138184,-0.9917462468147278,0.08589694648981095,-0.7397820949554443,-1.304791808128357,-0.4170185923576355]}