{"neurons":6,"activationFunction":0,"weightsFlat":[-1.3627508878707886,1.2563257217407227,-0.896389901638031,0.8027362823486328,0.9636727571487427,-1.448636531829834,-1.0689151287078858,0.4764196276664734,1.1874239444732667,-0.5540497303009033,-0.36379945278167727,-0.12768855690956117,0.08983622491359711,-1.6444169282913209,0.35336029529571535,1.4272645711898804,-1.4013930559158326,1.2167837619781495,1.2918769121170045,0.06097330152988434,-1.000951886177063,0.12143827974796295,-0.03700892627239227,-0.29633575677871706,0.7819972038269043,-1.3216595649719239,0.21945881843566895,-0.7668138742446899,-0.5788159966468811,-0.41117721796035769,0.8288823366165161,0.1612061858177185,1.218416690826416,-1.2437747716903687,0.2567062973976135,-1.2736570835113526,0.6237016916275024,-0.7104078531265259,1.2389801740646363,0.453914999961853,-0.037840552628040317,-0.05017197132110596,0.1231478899717331,-0.11725962162017822,0.8531556725502014,0.39021921157836916,-0.2711696922779083,0.37788817286491396,0.7467815279960632,0.2951018810272217,0.6457645297050476,-0.530746340751648,0.18102198839187623,1.3546968698501588,0.7753441333770752,-0.5158683061599731,-1.0607631206512452,-0.5635877251625061,1.1503349542617798,-0.7660109996795654,-0.5332882404327393,0.3281046748161316,0.5220946073532105,0.12295903265476227,0.4770318567752838,0.28233295679092409,-0.26287341117858889,-0.9429623484611511,-0.1917707920074463,-1.120774507522583,-1.406272530555725,1.4212535619735718,-0.5909006595611572,-0.5402370095252991,-1.2144498825073243,1.1618119478225709,0.9146190285682678,1.6275229454040528,-1.0520997047424317,0.28744810819625857,0.7336735725402832,-1.4390994310379029,0.6599681377410889,0.6727498769760132,1.2420685291290284,0.3276197910308838,-0.24414819478988648,0.5787899494171143,0.8294534087181091,-0.2187582552433014,-0.08705775439739227,-0.20412737131118775,-0.9622116684913635,0.05811338126659393,-0.22561578452587129,-0.34422147274017336],"biases":[0.6663382649421692,1.2019939422607422,0.1462768167257309,1.3415753841400147,-1.444170355796814,0.8491697907447815]}