{"neurons":32,"activationFunction":1,"weightsFlat":[0.7291703224182129,-0.40128910541534426,0.45548373460769656,0.24069464206695558,0.11405503749847412,0.0,0.7422585487365723,-0.695000410079956,-0.41476404666900637,0.7641720771789551,-0.3683091402053833,-0.7464337348937988,0.3921503722667694,0.16755402088165284,0.0,-0.9204065799713135,0.45077502727508547,0.5445346236228943,0.7189638614654541,-0.26188409328460696,-0.6734573245048523,-0.3979243040084839,-0.3216330111026764,0.8227893710136414,0.0,0.5900194644927979,-0.6536506414413452,0.2199879288673401,0.43930312991142275,-0.44089066982269289,-0.7780875563621521,0.12070930004119873,0.0,0.5706984996795654,0.5028011798858643,0.07881510257720947,0.07816684246063233,-0.745328426361084,0.710761547088623,-0.32695090770721438,0.0,0.6697485446929932,-0.06133067607879639,0.9017715454101563,0.0,0.0,0.47393056750297549,0.7498023509979248,0.5401568412780762,0.0,0.938483476638794,-0.650092363357544,0.874117374420166,-0.5709254741668701,-0.1762012243270874,0.1250239610671997,-0.3718663454055786,-0.6616001129150391,-0.9639179706573486,0.6273906230926514,0.41661784052848818,0.0,0.4599294364452362,0.45300862193107607,0.0,0.0,0.0,0.0,0.0,0.0,0.0,0.0,0.0,0.0,0.0,0.0,0.0,0.0,0.0,0.0,0.0,0.0,0.0,0.0,0.0,0.0,0.0,0.0,0.0,0.0,0.0,0.0,0.0,0.0,0.0,0.0,0.1589876413345337,0.5128664374351502,0.4905998408794403,-0.7621166706085205,0.0,0.6489675045013428,0.9227156639099121,0.08399903774261475,0.3570966422557831,0.3661439120769501,-0.6347513794898987,-0.23146331310272218,0.0,0.10432565212249756,0.24266931414604188,-0.9199690818786621,0.5932154655456543,0.45433589816093447,0.6153120398521423,-0.6709632873535156,0.663628101348877,0.6564462184906006,-0.04574931040406227,-0.5988631248474121,0.5149357318878174,-0.8895769119262695,-0.5357866287231445,0.0,-0.3261263072490692,-0.33414191007614138,-0.10841143131256104,0.08955255150794983,0.863750696182251,-0.627263069152832,0.05289255827665329,0.2913489043712616,0.5784804821014404,0.3397462069988251,0.06253653764724732,-0.8971828818321228,-0.5967650413513184,0.9367713928222656,-0.8040838837623596,-0.03675801306962967,0.5614111423492432,-0.16076695919036866,-0.8498890399932861,0.0,0.223480686545372,0.2802395224571228,-0.11939914524555206,-0.07770407199859619,0.06573127210140228,0.6975029706954956,0.016418203711509706,0.47428739070892336,0.0874839648604393,-0.7820184230804443,0.014149675145745278,-0.37281131744384768,-0.7660074234008789,-0.8175923824310303,0.1547795534133911,-0.9740744829177856,-0.013567090034484864,0.9810547828674316,-0.16838586330413819,-0.7676057815551758,-0.9546554088592529,0.8746187686920166,-0.9366559982299805,0.5092759132385254,-0.04676377773284912,-0.2694343328475952,0.5061779022216797,0.09065020084381104,0.6730496883392334,0.30040332674980166,-0.35535967350006106,0.6193740367889404,-0.38810741901397707,0.008960843086242676,-0.3208850622177124,0.3137514293193817,-0.2419523000717163,0.3506788909435272,0.0,-0.4771956205368042,0.9297764301300049,0.8538987636566162,0.6821436882019043,-0.3917793035507202,-0.7011685371398926,-0.33476269245147707,0.2595841586589813,-0.6538026332855225,0.12112939357757569,0.29201456904411318,0.8668873310089111,-0.5164592266082764,-0.6734540462493897,-0.9532339572906494,0.4362659156322479,0.23047983646392823,0.97216796875,-0.170326828956604,-0.8592076301574707,-0.6720013618469238,-0.5554683208465576,-0.042006850242614749,0.8708751201629639,-0.017678141593933107,0.0,0.0983966588973999,-0.4720107316970825,-0.5371623039245606,0.6497440338134766,0.07730996608734131,-0.08529436588287354,-0.29046618938446047,0.05439746379852295,0.08048117160797119,-0.16441309452056886,0.38400694727897646,0.0,0.4935157001018524,0.5269789695739746,-0.8928554058074951,-0.08389890193939209,0.0,0.9409356117248535,0.7030901908874512,-0.12197887897491455,0.0,0.12930285930633546,-0.09699642658233643,-0.559391975402832,-0.3914245367050171,0.9370059967041016,0.19251620769500733,-0.601806640625,-0.9098351001739502,-0.7400569915771484,-0.8594920635223389,-0.35205399990081789,0.2841143310070038,0.4058825671672821,-0.25912535190582278,0.0,0.324583500623703,-0.8595926761627197,0.30667731165885928,-0.10170900821685791,0.8831560611724854,-0.1313086748123169,0.03443419933319092,0.0,-0.6718401908874512,-0.8723914623260498,0.7864546775817871,-0.7348833084106445,0.0823601484298706,-0.772313117980957,-0.47970378398895266,0.12582075595855714,-0.1568700075149536,-0.645554780960083,0.0,-0.5166082382202148,0.2226947546005249,-0.3344987630844116,-0.09463250637054444,0.7325658798217773,0.5188100337982178,0.756615161895752,0.4921664893627167,0.5336179733276367,0.11698305606842041,0.26828572154045107,-0.18882977962493897,0.8708798885345459,-0.3475085496902466,-0.32786262035369875,-0.7907114028930664,0.4703690707683563,-0.5591778755187988,-0.8239281177520752,-0.9249124526977539,-0.01261746883392334,0.9885272979736328,-0.4732249975204468,-0.522071361541748,0.6915431022644043,-0.8999714851379395,0.8475198745727539,0.5721836090087891,0.2684027850627899,-0.5464730262756348,-0.04893457889556885,0.5438716411590576,0.5190563201904297,-0.18618476390838624,0.8528091907501221,-0.13333165645599366,0.35581132769584658,-0.3581629991531372,-0.33374297618865969,-0.9693491458892822,-0.1863788366317749,-0.10802900791168213,-0.5533926486968994,-0.6996824741363525,-0.8684258460998535,0.23748576641082765,-0.3573561906814575,0.24036037921905518,-0.7983651161193848,0.7009842395782471,0.5915889739990234,0.08662426471710205,0.45912882685661318,0.011192679405212403,-0.9797117710113525,0.6435239315032959,0.3609001338481903,-0.06474387645721436,0.2182246446609497,0.37991949915885928,-0.4548250436782837,-0.2594982385635376,-0.6928322315216065,0.21090567111968995,-0.8292522430419922,-0.3902539014816284,0.7011916637420654,0.23210585117340089,-0.6794872283935547,-0.545701265335083,-0.4503427743911743,-0.3358200788497925,-0.6068811416625977,-0.9969148635864258,0.05514943599700928,0.0,-0.446628212928772,-0.6683683395385742,-0.8268594741821289,-0.3510235548019409,-0.9431729316711426,0.8403282165527344,-0.6930687427520752,-0.18084800243377686,0.8076846599578857,-0.6537559032440186,-0.5475404262542725,-0.08232653141021729,-0.5246038436889648,0.0,-0.7029833793640137,0.753363847732544,0.0,-0.28381288051605227,-0.9459445476531982,-0.03831589221954346,0.0,-0.29943954944610598,-0.1609417200088501,-0.04896045848727226,-0.924034833908081,0.9514598846435547,0.859269380569458,-0.28607046604156496,-0.6389341354370117,0.5195324420928955,0.5528182983398438,-0.19036877155303956,-0.7872328758239746,-0.7745687961578369,0.9848055839538574,0.9690220355987549,-0.16380727291107179,0.8032011389732361,-0.49963727593421938,-0.12350550293922425,0.0,0.3833915889263153,0.2230055183172226,0.12852180004119874,-0.09190762042999268,0.5968525409698486,-0.5457005500793457,0.211661696434021,0.0,0.19995224475860597,0.0,-0.3838857412338257,-0.13134872913360597,0.5046799182891846,0.9861078262329102,0.5285606384277344,0.0,0.6695787906646729,0.0,0.0,0.0,-0.975027322769165,0.3011169135570526,-0.648491382598877,0.22422754764556886,0.0,0.5231218338012695,0.2954868972301483,-0.2441185712814331,-0.43344271183013918,0.7398333549499512,-0.4581204652786255,-0.8623974323272705,0.47272178530693056,0.0,0.09236085414886475,-0.7843375205993652,-0.21356070041656495,0.7645919322967529,-0.4513500928878784,0.7950761318206787,0.0,-0.20356857776641847,-0.6944997310638428,-0.475594162940979,0.3954102694988251,-0.3071070909500122,-0.5221400260925293,0.09181869029998779,-0.0863567590713501,-0.9755373001098633,0.0,-0.3662475347518921,-0.830791711807251,0.5702393054962158,0.26877209544181826,0.0,0.2046581506729126,-0.056313157081604007,0.0,-0.8547060489654541,0.5877959728240967,0.2711341083049774,-0.7864696979522705,-0.7448358535766602,-0.26117002964019778,-0.5452725887298584,0.14735925197601319,-0.957822322845459,-0.31523287296295168,0.9526150226593018,-0.08142721652984619,-0.3845173120498657,0.9623136520385742,0.6347353458404541,0.056171298027038577,0.6262257099151611,0.3068191707134247,-0.68222975730896,-0.3331950902938843,-0.33279454708099368,0.0,0.6792926788330078,0.0,-0.5260133743286133,0.0,0.0,-0.1332641839981079,0.07040822505950928,0.0,0.9374735355377197,0.8403265476226807,0.0,0.5062506198883057,0.030210375785827638,0.0,0.2584328353404999,0.1398850679397583,-0.7329204082489014,-0.9385299682617188,0.19120371341705323,-0.831458330154419,-0.8198974132537842,-0.25503408908843996,0.9050083160400391,0.018923163414001466,0.6614876389503479,-0.5761914253234863,0.41683724522590639,-0.9548459053039551,-0.3491898775100708,0.0,-0.390280157327652,-0.3557084798812866,-0.33041679859161379,-0.5422830581665039,0.8606312870979309,0.5003843307495117,-0.1739131212234497,0.4790134131908417,-0.4546296298503876,0.8527860045433044,0.829613447189331,0.20780694484710694,-0.8080577850341797,-0.7678947448730469,-0.16610783338546754,0.7215080857276917,0.9782710075378418,0.5322322845458984,0.08297199755907059,0.36859461665153506,0.9661357402801514,0.9034993648529053,-0.6567032337188721,-0.14057409763336183,0.10154473781585694,0.2010577917098999,0.4206080138683319,0.1095203161239624,0.0,0.7528715133666992,0.9465782642364502,0.5036952495574951,0.4880780875682831,0.0,0.5739355087280273,-0.8314261436462402,-0.8760333061218262,0.2539648711681366,0.0,-0.7530462741851807,-0.5416719913482666,-0.011957287788391114,-0.4665282964706421,0.8849561214447022,0.6789038181304932,-0.4951976537704468,0.09881651401519776,-0.5496020317077637,0.40511247515678408,0.5519206523895264,0.795478105545044,-0.6428637504577637,0.3821389377117157,-0.6932473182678223,0.0,0.6700854301452637,0.5192766189575195,0.7911548614501953,-0.9890034198760986,-0.5513262748718262,-0.34016501903533938,0.568678617477417,-0.5602025985717773,-0.11460006237030029,0.527158260345459,0.0,0.09783399105072022,0.742903470993042,0.7263779640197754,0.28758665919303896,-0.7573192119598389,-0.6919970512390137,-0.2546318769454956,0.0,-0.38627660274505618,-0.353857159614563,0.30228278040885928,-0.9801962375640869,0.15810620784759522,0.18433797359466554,0.9984266757965088,0.8531973361968994,0.0,0.9825928211212158,-0.2911487817764282,-0.7881932258605957,0.9351497888565064,0.0,-0.016705870628356935,0.3027651011943817,0.024479690939188005,-0.43092620372772219,0.2664293944835663,0.8481018543243408,0.0,0.21682581305503846,0.9861440658569336,0.03990662097930908,0.12771618366241456,-0.8857998251914978,0.0,0.040748000144958499,0.8578364849090576,-0.9469127655029297,0.0,0.5566670298576355,-0.7982914447784424,-0.7816949486732483,0.0,-0.18611204624176026,0.26637932658195498,-0.885245680809021,0.1618138551712036,-0.007257819175720215,0.9506375789642334,-0.4040261507034302,0.5811178684234619,0.16077053546905518,-0.6094353199005127,0.7435460090637207,-0.48946940898895266,0.9056713581085205,-0.25903451442718508,0.5480225086212158,0.561558723449707,0.998849630355835,0.0,-0.7732405662536621,0.3045296370983124,0.06289827823638916,0.0,0.21984660625457765,0.0,0.027144551277160646,-0.7275862693786621,-0.771773099899292,0.6696314811706543,0.5566012859344482,-0.8621087074279785,-0.2129760980606079,0.31154486536979678,0.0,-0.6611719131469727,-0.2678264379501343,0.992316722869873,-0.92057204246521,0.2703075110912323,0.0,0.13975512981414796,0.21758615970611573,-0.24400651454925538,0.7380514144897461,0.5338702201843262,-0.44058215618133547,0.9666585922241211,-0.8157291412353516,0.21176564693450929,0.5770754814147949,-0.08910548686981201,0.6330296993255615,0.9533696174621582,0.8733429908752441,-0.8953819274902344,-0.9338340759277344,0.4735221564769745,0.0,0.06187784671783447,0.9113495349884033,0.5522782802581787,0.7311351299285889,0.006684660911560059,-0.036426663398742679,0.0,-0.11178457736968994,0.26593419909477236,0.9059133529663086,0.0,-0.5556259155273438,-0.2552603483200073,0.0,0.17585575580596925,-0.21094214916229249,-0.3455721139907837,-0.8862602710723877,0.7523717880249023,-0.7470684051513672,0.8306102752685547,-0.7603645324707031,-0.09048616886138916,-0.14712035655975343,-0.7374951839447022,0.35651895403862,-0.7275207042694092,-0.2881699800491333,0.6841378211975098,0.3861531913280487,0.3451678454875946,-0.9106588363647461,0.28246137499809267,-0.5496599674224854,-0.16262519359588624,-0.49482929706573489,0.5177650451660156,0.5548183917999268,-0.26297271251678469,-0.4406830072402954,-0.49038422107696535,0.7856690883636475,0.0,-0.9047906398773193,0.2667178809642792,0.06959927082061768,0.0,0.0,0.0,0.0,0.0,0.0,0.0,0.0,0.0,0.0,0.0,0.0,0.0,0.0,0.0,0.0,0.0,0.0,0.0,0.0,0.0,0.0,0.0,0.0,0.0,0.0,0.0,0.0,0.0,0.0,0.0,0.0,0.6831116676330566,-0.6105144023895264,0.5616836547851563,0.6253879070281982,0.8061189651489258,0.08828067779541016,-0.221807599067688,-0.9870622158050537,-0.9432384967803955,0.0,-0.7523188591003418,0.4307551085948944,-0.7767137289047241,0.15702712535858155,-0.049000728875398639,0.8037877082824707,0.7622568607330322,-0.8570961952209473,0.28018179535865786,-0.8942265510559082,0.2519643008708954,0.10029065608978272,0.55033278465271,0.5538864135742188,-0.01707899570465088,-0.5289797782897949,-0.4198569059371948,-0.3251549005508423,0.6746845245361328,0.8195314407348633,0.0,0.9406768083572388,-0.003954291343688965,-0.6467025279998779,0.047493577003479007,-0.3594146966934204,0.1645420789718628,-0.7766406536102295,-0.43617045879364016,0.7086455821990967,0.0,0.9270758628845215,-0.1729477047920227,-0.890789270401001,0.2178114652633667,-0.4803096055984497,-0.033506035804748538,0.8692786693572998,0.9959406852722168,-0.0391160249710083,-0.028378844261169435,0.5529766082763672,0.5259006023406982,0.0,-0.8514351844787598,0.6508424282073975,-0.5398201942443848,0.061597228050231937,-0.685492992401123,-0.7449948787689209,-0.6510616540908814,0.2959077060222626,-0.5897140502929688,0.7495810985565186,0.9293887615203857,0.04502570629119873,-0.4549769163131714,-0.8584561347961426,-0.5537497997283936,0.7204608917236328,-0.5549643039703369,0.10949146747589112,0.0,0.0,-0.7271604537963867,0.8653943538665772,0.39115211367607119,0.0,0.0,-0.9150369167327881,-0.9250483512878418,-0.4303547143936157,0.3170447051525116,-0.18313515186309815,0.9172787666320801,0.0,-0.9771356582641602,-0.26071369647979739,0.7975058555603027,-0.4030872583389282,-0.4442099332809448,-0.08813869953155518,-0.24483096599578858,0.8420889377593994,0.13226163387298585,-0.24644315242767335,0.13964736461639405,0.4116954505443573,0.4589824378490448,0.36037760972976687,0.46944519877433779,0.5547339916229248,-0.050734877586364749,0.0,0.04414021968841553,0.0,-0.5021631717681885,0.7487072944641113,0.41536781191825869,-0.45539844036102297,-0.17892611026763917,0.9854261875152588,-0.6961023807525635,-0.8538824319839478,1.0758326053619385,-0.3573514223098755,-0.31921708583831789,0.7175805568695068,-0.44920051097869875,0.5008645057678223,-0.4782677888870239,-0.6928515434265137,0.5378918647766113,-0.31483495235443118,0.7021851539611816,0.08671677112579346,0.5952260494232178,-0.3943527936935425,0.0,0.0,0.03617048263549805,0.0,0.060635242611169818,0.03622876852750778,0.0,-0.003319650888442993,0.0,0.043203357607126239,-0.048558540642261508,0.0,-0.0069423578679561619,0.0,-0.012951159849762917,-0.037431493401527408,0.0,0.0,0.0,0.0,0.04888496920466423,0.0,0.0,0.0,-0.018887227401137353,0.0,0.0,-0.015469817444682122,0.03647465631365776,0.0,0.0,0.0,0.0,0.0,0.0,0.0,0.0,0.0,0.0,0.0,0.0,0.0,0.0,0.0,0.0,0.0,0.0,0.0,0.0,0.0,0.0,0.0,0.0,0.0,0.0,0.0,0.0,0.0,0.0,0.0,0.0,0.0,0.0,0.0,0.1576629877090454,0.6887788772583008,0.22192132472991944,-0.8048730492591858,-0.7349610328674316,-0.011330485343933106,0.28578922152519228,0.3157462775707245,0.6498467922210693,0.6521265506744385,0.42432448267936709,-0.37904322147369387,0.15769708156585694,0.6663703918457031,-0.4592961072921753,0.8580532073974609,-0.2674828767776489,0.9411730766296387,0.3569621741771698,0.03914964199066162,-0.9420077800750732,0.7964881658554077,0.37074610590934756,-0.6526963710784912,0.3897876441478729,-0.683441162109375,-0.23497211933135987,-0.6557760238647461,0.956996738910675,-0.6584055423736572,-0.08816039562225342,-0.01992332935333252,0.0,0.0,0.0,0.0,0.0,0.0,0.0,0.0,0.0,0.0,0.0,0.0,0.0,0.0,0.0,0.0,0.0,0.0,0.0,0.0,0.0,0.0,0.0,0.0,0.0,0.0,0.0,0.0,0.0,0.0,0.0,0.0,-0.806649923324585,0.028307318687438966,-0.9712553024291992,0.23597300052642823,-0.302709698677063,0.25937554240226748,-0.21896159648895265,0.5311260223388672,-0.8575904369354248,0.8064684867858887,0.04016673564910889,0.7492208480834961,0.847034215927124,0.7454688549041748,-0.9911031723022461,0.0,-0.7841589450836182,-0.12046897411346436,0.41063663363456728,-0.3519941568374634,0.03995406627655029,-0.07602059841156006,0.6962275505065918,0.9148044586181641,-0.19770610332489015,-0.26614058017730715,0.48782798647880556,0.0,-0.8650782108306885,0.3260640799999237,-0.26219475269317629,0.5166308879852295],"biases":[1.153432846069336,-0.8555583953857422,0.0,0.32943058013916018,1.058048129081726,0.4461662471294403,-0.3664313554763794,-0.17846858501434327,0.776369571685791,-0.833275556564331,-0.7011604309082031,0.3420541286468506,-0.3716491460800171,-0.44206249713897707,0.4547886550426483,0.4716814160346985,0.9869396686553955,-0.9586760997772217,0.8784870505332947,0.7544882297515869,-0.4892381429672241,-0.2702139616012573,0.0,-1.4371452331542969,-1.4284772872924805,-0.6879327297210693,-0.7127821445465088,1.1280004978179932,0.0,1.2811388969421387,0.0,0.8699376583099365],"activeNeurons":[false,false,false,false,false,false,false,false,false,false,false,false,false,false,false,false,false,false,false,false,false,false,false,false,false,false,false,false,false,false,false,false]}