{"neurons":16,"activationFunction":0,"weightsFlat":[-0.7426260113716126,-0.6555100083351135,-1.309260606765747,-0.23948413133621217,-1.3169234991073609,-0.17844218015670777,0.6025598645210266,-0.15197822451591493,0.273424357175827,-0.4506210684776306,1.2689273357391358,-0.12878268957138062,-0.4935034215450287,-1.4881610870361329,-0.4811132848262787,0.10256087779998779,0.8698804378509522,-0.10832947492599487,-0.5781969428062439,-0.06204584240913391,1.0576242208480836,1.2258820533752442,0.6003046035766602,0.863530158996582,-1.4521909952163697,0.8928312063217163,2.0380892753601076,-1.738389492034912,0.775023877620697,0.1388331949710846,-1.3935989141464234,2.115246057510376,0.9650511145591736,-1.4854069948196412,1.485641360282898,-2.605741024017334,1.4830633401870728,-1.137902021408081,0.06975045800209046,-0.26186010241508486,0.37639984488487246,-0.3489757776260376,-1.697265386581421,-0.27439814805984499,-2.1719844341278078,-2.0209453105926515,1.4633830785751343,-0.3428674042224884,-0.6491538286209106,1.5040217638015748,1.1295149326324463,-0.5542567372322083,0.9357135891914368,1.9789278507232667,0.6819723844528198,-0.17855621874332429,-2.1519455909729006,-0.3968921899795532,0.27564072608947756,-2.083399534225464,-0.8518064022064209,-1.0858882665634156,0.8435998558998108,-0.9427334070205689,-1.3238569498062134,0.09604761749505997,-1.9539422988891602,0.7527945041656494,1.3877756595611573,0.8901740908622742,0.60884028673172,-0.7809983491897583,0.1775517761707306,-0.08187372982501984,-0.042923830449581149,2.4432294368743898,1.7826210260391236,-0.4689861834049225,-1.2595024108886719,0.22898903489112855,0.12284154444932938,0.9345749616622925,0.09680502116680145,0.8971717357635498,-1.8458458185195923,-0.4034307301044464,-0.5700845122337341,-1.2728508710861207,-0.1870909333229065,-1.165662169456482,0.9376430511474609,-0.38069775700569155,-0.3226989805698395,-0.5931743383407593,-0.23284703493118287,0.4071483612060547,-0.00924750417470932,-0.32068678736686709,0.8397353291511536,1.445612907409668,1.175946593284607,0.20800626277923585,0.3662632703781128,0.7429513931274414,-0.0034150555729866029,-0.028095953166484834,1.2018510103225709,-1.0494433641433716,-0.2838910222053528,1.0802536010742188,0.38456547260284426,-0.602243185043335,1.9556242227554322,1.9731308221817017,-1.6058180332183838,-1.6702104806900025,1.1993967294692994,0.2554437816143036,0.10110530257225037,0.7539910078048706,-1.938596248626709,-0.3576031029224396,0.6630464792251587,0.06508496403694153,1.3164262771606446,-0.8861901164054871,1.8024828433990479,1.6111302375793458,1.1880629062652588,1.1200064420700074,0.7299593091011047,0.05827051401138306,-0.4910833239555359,-0.8507766127586365,-1.3018242120742798,0.8172299265861511,-0.9589418172836304,0.12312112748622894,1.5583055019378663,1.3358875513076783,0.7625066637992859,-0.4897236227989197,-0.07107666879892349,1.8793166875839234,-0.48609375953674319,-0.11688190698623657,-1.748964786529541,1.8699592351913453,0.5961512327194214,0.8028139472007752,0.21916885673999787,0.34584781527519228,-0.47292113304138186,1.4197998046875,-0.45234960317611697,0.9004019498825073,-1.2005101442337037,-1.9609711170196534,-0.9611340165138245,0.18943704664707185,-0.42847564816474917,-1.659905195236206,1.5036815404891968,1.6951267719268799,0.04119143635034561,-1.0031191110610963,-0.19391316175460816,0.9714813232421875,0.9359534382820129,1.2190195322036744,-1.8171916007995606,2.147742986679077,0.02258189767599106,-1.0390733480453492,2.0382776260375978,-0.24849286675453187,1.8497357368469239,1.246315360069275,0.4637436866760254,-0.1363053023815155,-0.29371148347854617,-0.6220946311950684,-0.6040833592414856,-1.4850987195968629,-0.29286226630210879,1.6985609531402588,0.14629009366035462,0.035376399755477908,-1.2264161109924317,0.23140275478363038,1.3412333726882935,-0.5792115330696106,-0.8362712264060974,1.2568399906158448,-1.9324697256088257,-2.2897677421569826,-0.7176550030708313,0.6362585425376892,-0.5863844752311707,0.5783894062042236,-2.159719944000244,0.8531871438026428,1.7401716709136963,-1.6782712936401368,1.2117085456848145,-0.9026879072189331,1.6928212642669678,0.7622324228286743,-0.2547333836555481,-1.3695685863494874,-0.4178873300552368,-1.577784776687622,-1.6568454504013062,-0.44930052757263186,0.4830184578895569,-0.5330342650413513,-0.03544553369283676,1.1561832427978516,-1.0655637979507447,-0.09407814592123032,0.6774662733078003,1.2192856073379517,1.7945016622543336,0.08308239281177521,-1.406266450881958,-1.7404201030731202,1.0712592601776124,-2.032778024673462,-2.0942234992980959,-0.9055535793304443,0.9012372493743897,-0.8859000205993652,-1.1089301109313965,-0.6923521757125855,-1.4725602865219117,0.6633867621421814,0.2581670582294464,-1.0083494186401368,-1.3032277822494507,0.003693755716085434,-0.5975848436355591,-2.371086597442627,0.5279006361961365,0.06771805882453919,-0.8011483550071716,-0.1913813054561615,-2.0819902420043947,1.070438027381897,1.3980227708816529,1.4367254972457886,-0.558057963848114,0.33815354108810427,-1.0184974670410157,-0.9271047115325928,0.7678175568580627,1.7744812965393067],"biases":[-0.9693819880485535,-0.6280991435050964,-0.5052220225334168,-0.7215093374252319,1.1178845167160035,0.32985448837280276,0.5442411303520203,0.5494451522827148,0.10664115101099014,1.3083158731460572,0.9137647747993469,-0.05636078864336014,-0.45040133595466616,0.7212074995040894,1.4294400215148926,0.24691808223724366]}