{"neurons":5,"activationFunction":0,"weightsFlat":[0.18468508124351502,0.339636892080307,-0.21071076393127442,0.8075882196426392,-0.690570592880249,-0.9658986330032349,0.07915917783975601,0.5475313663482666,0.9841118454933167,0.030958369374275209,0.7051005363464356,-0.830956220626831,-0.3604585528373718,-0.2760690450668335,-0.9388577938079834,-0.9141364097595215,-1.0326350927352906,-0.19198617339134217,0.7234976887702942,0.12542513012886048,0.06533565372228623,0.1300753355026245,-0.6229289174079895,0.5947737097740173,-0.2456735372543335,0.7895305752754211,0.11462857574224472,0.8851982355117798,-0.6576916575431824,-0.33301013708114626,-0.04060012474656105,0.6059229969978333,-0.17545223236083985,-0.5827192664146423,-0.2505742907524109,0.49672001600265505,-0.24086248874664308,-0.8366372585296631,-0.7466714978218079,0.7550044059753418,0.6549177765846252,-0.5594396591186523,-0.41904234886169436,0.3481358289718628,-0.3810756206512451,-0.1686951369047165,0.611732542514801,-0.5533363223075867,0.9143602848052979,0.9451689124107361,-0.014605492353439331,0.48969766497612,-0.18703259527683259,-0.3282598853111267,-0.7231894135475159,0.4944755733013153,0.9364446401596069,0.6405786275863648,-0.8304194211959839,0.4335843622684479,0.3885197341442108,0.07899074256420136,-0.9683194160461426,-0.3035305440425873,-0.1868833750486374,-0.8280707597732544,0.39402949810028078,0.4866780638694763,-0.371963232755661,-0.9790968894958496,-0.5381410717964172,-1.2451400756835938,-0.6936327219009399,-0.20209112763404847,0.7553682923316956,-0.1962633579969406,-0.20124033093452454,-0.6357338428497315,-0.27084189653396609,-0.39144983887672427],"biases":[-0.5314539670944214,0.3920561671257019,0.41479626297950747,0.3323604464530945,-0.5026416778564453]}