{"neurons":32,"activationFunction":1,"weightsFlat":[0.6031069159507752,0.8764513731002808,-1.650086522102356,-0.6389224529266357,-1.8411014080047608,0.7367615103721619,0.02123115584254265,-2.0139007568359377,-0.3168945014476776,2.17691707611084,0.6873998045921326,0.17512989044189454,0.15840020775794984,0.7377383708953857,1.2302708625793458,0.22915451228618623,2.4322779178619386,-1.2555965185165406,0.9264910817146301,-1.7202893495559693,-1.8858704566955567,-1.1893398761749268,0.35846227407455447,1.2859182357788087,-2.1477696895599367,0.24762669205665589,-1.1140735149383546,-1.1207460165023804,-0.7456938028335571,1.2335257530212403,0.9859644174575806,1.659104585647583,1.1642826795578004,-1.3873755931854249,0.13880740106105805,0.21364709734916688,0.8129636645317078,-0.4011888802051544,0.3327982425689697,0.07999073714017868,0.6144986152648926,-0.860464870929718,0.3202277421951294,0.20424020290374757,-1.4054358005523682,0.6561638712882996,-1.2124322652816773,0.17529143393039704,-0.7095504999160767,1.0916368961334229,0.5723697543144226,1.7972673177719117,-1.1757920980453492,0.6552848815917969,-0.3579237461090088,0.9462835192680359,-0.7421820163726807,0.576644241809845,-0.9709095358848572,0.2685617506504059,0.1951926350593567,0.07679851353168488,1.3262771368026734,-0.04346373677253723,1.8475910425186158,1.151136875152588,1.8916186094284058,1.3106015920639039,0.44739222526550295,0.572545051574707,1.7771892547607422,-1.3004354238510132,0.06261076778173447,0.4979701042175293,0.45993518829345705,1.5632036924362183,0.6631340980529785,1.297569751739502,-1.4731141328811646,0.5672614574432373,-0.7827486395835877,-0.605837881565094,-0.5139954686164856,1.2905181646347047,0.29166632890701296,-1.383777379989624,-1.910676121711731,0.25442829728126528,-0.3765089511871338,-2.5445964336395265,1.201228141784668,-0.9542490243911743,-0.44608792662620547,1.1128156185150147,0.3038761615753174,0.17392978072166444,-0.05101590231060982,-1.068627953529358,-0.8296371698379517,0.2901279628276825,-0.5697065591812134,-0.24304348230361939,-0.17037537693977357,-0.11534314602613449,1.660306453704834,1.4101417064666749,1.1191056966781617,-1.431215763092041,1.4413408041000367,1.2368359565734864,1.5422114133834839,-0.4107581377029419,-1.6739046573638917,-0.6374136805534363,-0.6356068253517151,-0.4502451419830322,-0.6597692966461182,-0.2961912751197815,0.23372846841812135,-1.8992005586624146,1.4909361600875855,0.7747522592544556,-1.1283682584762574,1.569485068321228,-1.301374912261963,-1.634769320487976,-1.616059422492981,2.081867218017578,0.010912880301475525,-1.4398869276046754,-0.5996192693710327,1.4723554849624634,0.15388977527618409,-2.3814854621887209,1.0290656089782715,-1.0996780395507813,1.405118465423584,-1.8525992631912232,-0.45223504304885867,0.7947635054588318,0.2968655526638031,0.6279854774475098,-0.14190848171710969,-1.4774048328399659,0.4275476932525635,-0.882720947265625,1.6995420455932618,-0.4686508774757385,-0.2752073109149933,0.7953013181686401,0.046319253742694858,-0.013978980481624604,1.8375506401062012,0.26058411598205569,1.9786959886550904,-1.1999543905258179,-0.5205896496772766,-0.8143833875656128,-0.4207216501235962,0.7932137250900269,-1.6094297170639039,-1.7181943655014039,1.2205467224121094,1.734505534172058,-0.3439480662345886,0.3243826627731323,0.7306129336357117,-0.7204007506370544,0.21772800385951997,0.5632393956184387,1.0205161571502686,0.561536431312561,0.7304306030273438,0.6344209313392639,1.945703387260437,-0.3814372718334198,-0.5679760575294495,-1.6916054487228394,0.9048318266868591,1.4966498613357545,0.24272537231445313,-1.1721934080123902,0.49252742528915408,-0.3286009132862091,1.4290783405303956,1.6668107509613038,1.383228063583374,-0.40281519293785097,0.973834753036499,-1.2322901487350464,0.6489067673683167,-0.4536251723766327,-1.5316789150238038,0.16048623621463777,-0.8750923275947571,1.1062506437301636,1.755289912223816,-0.266649067401886,1.8057852983474732,-0.864497721195221,-0.8550659418106079,-0.5218108296394348,-1.3415664434432984,-1.2312206029891968,1.3248791694641114,0.8125545978546143,-0.9422593116760254,1.620871901512146,1.1282793283462525,1.4234296083450318,0.5618628859519959,-0.3759780824184418,1.529613971710205,-0.3920612633228302,0.17827612161636353,1.4307297468185425,-0.6659872531890869,-0.705529510974884,-0.3316231966018677,1.3993865251541138,0.5646544098854065,0.0034214891493320467,-1.8376582860946656,0.4885275065898895,0.3420972526073456,-1.1179386377334595,0.8193099498748779,0.7100446820259094,1.5924257040023804,-1.3909114599227906,0.5186944007873535,0.07065515965223313,0.7704516649246216,-1.7495594024658204,0.45576831698417666,1.4224598407745362,0.430853009223938,1.4866522550582886,1.546241283416748,-1.3732194900512696,1.9886283874511719,0.8799657821655273,-1.3158482313156129,1.0306956768035889,1.505468487739563,0.809251606464386,-0.24555794894695283,0.17015030980110169,1.3948400020599366,0.10078159719705582,-0.05968461185693741,-0.11310895532369614,-0.19848327338695527,-0.721132218837738,2.260812997817993,0.34026893973350527,-2.0171244144439699,1.5813264846801758,0.9961321353912354,0.27524545788764956,0.5538185238838196,0.4850883483886719,1.748754858970642,1.7630503177642823,-1.36664879322052,-0.10197165608406067,-1.3963795900344849,0.8764769434928894,1.302337646484375,-0.5483821630477905,0.23391741514205934,2.1302614212036135,0.3089325428009033,0.8794300556182861,0.21121904253959657,0.5738700032234192,-1.6160759925842286,-1.825317144393921,1.828065276145935,-0.6796212196350098,-1.3433613777160645,1.6659146547317505,1.0716923475265504,-0.7608595490455627,-0.19770553708076478,1.54682195186615,0.8780956268310547,-0.607477068901062,-0.46270155906677248,-0.381930410861969,-0.8139210939407349,-1.3780237436294556,-0.28303515911102297,-1.2698332071304322,2.1335697174072267,0.7108211517333984,0.13055279850959779,-0.877045214176178,0.9738736152648926,-0.486714243888855,-0.28537842631340029,-1.2387466430664063,-1.0131518840789796,-0.6330684423446655,-1.1933742761611939,-0.7496902942657471,1.2447587251663209,-1.5385068655014039,-0.21649155020713807,0.9930233955383301,0.8993006348609924,-0.4196898341178894,-0.3270528316497803,-0.14380818605422975,-0.1581133008003235,0.8374398350715637,0.04757846146821976,0.21554920077323914,-1.660805106163025,0.2857336699962616,0.2959800958633423,1.4442933797836304,-0.7899596691131592,-2.717154026031494,-2.4236888885498049,-0.8875371813774109,0.7978683710098267,-0.5281835198402405,-1.7126888036727906,0.13633403182029725,0.3070399761199951,1.5325576066970826,-1.0336188077926636,-0.6239534616470337,0.4807400703430176,1.2057358026504517,-0.9930656552314758,-1.4482448101043702,-0.32793140411376955,0.3147209584712982,0.7121797204017639,-1.7100661993026734,-1.7059184312820435,0.8527960777282715,0.5469693541526794,1.6131491661071778,1.4942333698272706,0.4915144741535187,2.0022950172424318,0.36207717657089236,-0.6922816634178162,0.6267412304878235,-2.0199472904205324,-1.8301365375518799,1.5828937292099,-0.15902170538902284,-0.7482991814613342,-0.5314953327178955,0.13497474789619447,-1.5835012197494507,-0.18436631560325623,2.0779480934143068,-0.6781963109970093,1.398963451385498,1.3810665607452393,-0.08490505814552307,1.7932254076004029,-2.1836044788360597,1.5330407619476319,2.219947576522827,0.5158055424690247,-0.8991400599479675,-0.8641669154167175,-0.7003503441810608,-0.8838375210762024,0.9351361393928528,-1.2667553424835206,-1.089025855064392,1.0997438430786133,0.3223026692867279,0.19004902243614198,0.5194824934005737,0.26056042313575747,1.2875903844833375,-0.11070863157510758,0.028303254395723344,0.5617522597312927,-1.6409410238265992,-0.8836549520492554,-1.6754003763198853,-0.8621261119842529,1.7893813848495484,1.4177098274230958,-0.22898384928703309,0.06834515929222107,0.08628208935260773,0.29025644063949587,-1.4791558980941773,0.5300794243812561,0.4934864342212677,-0.5314245820045471,0.47041749954223635,0.7877943515777588,0.7753404974937439,0.015295945107936859,1.3771865367889405,0.5220761895179749,-0.14044103026390077,-2.6964118480682375,-1.431755542755127,-2.0619916915893556,-0.5055630803108215,-1.038384199142456,0.411173552274704,-0.7375323176383972,-1.3317244052886963,-1.297419548034668,-0.6197372078895569,1.608392596244812,-1.2409777641296387,1.6726046800613404,-0.9865473508834839,1.4367533922195435,1.4537968635559083,-2.194758176803589,-1.5933359861373902,0.8076011538505554,-0.5106675028800964,1.8132953643798829,-0.4444725513458252,0.808176577091217,1.0303620100021363,0.20692217350006104,1.2230437994003297,2.2220237255096437,-2.7934679985046388,0.946694016456604,-1.6385138034820557,0.1364421248435974,1.5240604877471924,0.9842187762260437,0.819401741027832,0.19929169118404389,-1.643286108970642,0.11024919897317887,0.44955429434776308,-0.16996631026268006,0.5372521877288818,-0.07354681938886643,0.12659242749214173,-0.30859190225601199,-1.6127068996429444,-0.796535313129425,0.061753951013088229,-0.9562962055206299,-0.18293854594230653,-0.15455842018127442,-0.7976334691047669,0.2178865224123001,-0.9277527928352356,-0.27772819995880129,0.18807581067085267,-0.6040346026420593,0.8982686400413513,0.687931478023529,1.7832553386688233,0.5749313235282898,-0.36030590534210207,-1.5600674152374268,1.1969985961914063,1.2830536365509034,0.1746080070734024,0.33784571290016177,0.0009805262088775635,1.4949636459350587,-0.397836297750473,0.8994724750518799,-0.5178203582763672,0.8709756731987,0.857083797454834,0.6726172566413879,-0.9626625776290894,-0.34915000200271609,0.5639763474464417,1.202789545059204,-1.2731667757034302,1.3833738565444947,1.1847082376480103,-1.2283740043640137,1.930928349494934,-0.8179037570953369,1.4328038692474366,1.3619943857192994,0.9699801206588745,-1.2890843152999879,1.9111167192459107,0.5512629151344299,0.8826411962509155,1.5387181043624879,1.708284854888916,-1.9019092321395875,2.27483868598938,0.04094962030649185,-0.5587559342384338,-1.5659273862838746,0.9331167340278626,0.43707168102264407,1.8518511056900025,-1.7480379343032838,1.5165772438049317,-1.1929067373275757,-0.36311617493629458,2.01035475730896,0.3650466501712799,-1.8300883769989014,1.2967572212219239,-1.0517573356628419,0.000649966299533844,1.968737006187439,0.5577081441879273,1.3045998811721802,1.4438217878341675,-1.0433528423309327,-1.4574781656265259,0.4940435588359833,2.0978899002075197,0.5396782159805298,-1.4112536907196046,0.5144182443618774,-0.21878716349601746,2.0178778171539308,0.08771511167287827,0.18459999561309815,-0.8109385371208191,-0.2770196199417114,0.42709749937057497,-0.37283259630203249,-1.4616402387619019,-0.38739660382270815,0.9748594164848328,-0.5365359783172607,0.23176518082618714,-0.5909403562545776,0.58741295337677,0.10014425963163376,-0.5957183837890625,0.598416805267334,1.5166029930114747,-0.47703608870506289,0.9332399964332581,0.4310910701751709,0.7649287581443787,-1.0408660173416138,-0.8629984855651856,1.3790134191513062,0.9156689643859863,1.490825891494751,-0.8227245211601257,-1.665390133857727,0.6244810223579407,2.455653190612793,1.332001805305481,1.3529572486877442,0.2076890468597412,0.6042011380195618,0.3481217324733734,-2.088355779647827,-1.7781981229782105,2.5073304176330568,-0.25964418053627016,0.963435709476471,0.8689724802970886,-1.0356557369232178,0.18312087655067445,-0.5633378624916077,-1.3240735530853272,1.1023896932601929,-0.2998475432395935,0.01597021520137787,1.9083452224731446,-1.046365737915039,-0.3525112271308899,0.14830026030540467,-0.2227734476327896,-0.9724190831184387,0.7119198441505432,-0.1084943413734436,-0.10907097160816193,-0.9645960927009583,0.02300208806991577,0.517375648021698,-1.2295398712158204,-1.970014214515686,0.22624891996383668,-0.9843777418136597,-0.06968884915113449,0.73317950963974,1.7030797004699708,-0.5627004504203796,1.0181958675384522,0.03171567618846893,1.439048171043396,1.3757787942886353,0.8056095838546753,-1.0286954641342164,-0.694597065448761,-0.18427219986915589,0.3822385370731354,-1.3119008541107178,1.3561028242111207,0.244850754737854,1.9030424356460572,0.2999213635921478,1.0297913551330567,0.38304105401039126,-1.6524454355239869,-0.0918068140745163,-1.2947375774383546,-0.7833662629127502,0.784783124923706,1.7885490655899048,-0.581296443939209,-0.39977124333381655,1.6593060493469239,0.8591419458389282,-1.614789366722107,-0.9662203192710877,-1.7797738313674927,-0.7397797703742981,0.8232673406600952,0.526242733001709,1.1895071268081666,1.1702208518981934,0.4592798352241516,0.3153255581855774,0.4245959520339966,0.9379366040229797,0.7912967801094055,-1.4688735008239747,-1.6276909112930298,-0.7720868587493897,-0.24793091416358949,2.084977149963379,-0.8974107503890991,-2.5096378326416017,-0.41906845569610598,-0.023784957826137544,-1.8562523126602173,0.15242788195610047,-1.641312599182129,-0.5299217700958252,0.9098986387252808,-1.915871262550354,1.7021321058273316,0.9489772915840149,0.18825799226760865,-0.31950056552886965,0.5428847670555115,-0.33390673995018008,-0.05925019830465317,1.6642292737960816,0.9006339311599731,0.34892508387565615,-0.8707271218299866,-1.7626581192016602,-1.3209656476974488,0.027941524982452394,-1.550228476524353,0.36836838722229006,1.8447569608688355,-0.4473949074745178,-0.2564984858036041,-1.6133882999420167,-1.4987326860427857,0.20414525270462037,0.18391919136047364,0.6406351327896118,0.43855783343315127,0.8253008127212524,0.7503364086151123,-1.9617899656295777,-1.2975811958312989,-0.4401791989803314,-1.06309175491333,-0.8020790219306946,1.9012155532836915,-0.4263841211795807,-1.8157328367233277,0.06842224299907685,-0.16901439428329469,-1.7762446403503419,1.4403486251831055,-0.4322987496852875,1.9011982679367066,1.3469282388687134,-0.9077135920524597,0.18121057748794557,-0.2452898770570755,-0.08675815910100937,-1.1739253997802735,-1.3471063375473023,1.8182989358901978,-0.6394969820976257,0.5125023722648621,-2.118103265762329,-1.8123093843460084,0.7132341265678406,0.140336275100708,1.5148985385894776,0.47027263045310976,1.1680421829223633,0.2879374325275421,-1.9546061754226685,-1.3899006843566895,-1.5701096057891846,0.9776782393455505,-1.026480793952942,-0.13346800208091737,-1.8360323905944825,1.351459264755249,1.7933733463287354,2.3154568672180177,-0.4348599314689636,0.6349279284477234,1.1758171319961548,-1.3396937847137452,0.17938072979450227,-1.2154819965362549,-0.6187682747840881,1.251768946647644,0.5253045558929443,0.13895121216773988,-1.7815617322921754,-1.3044826984405518,0.9441455602645874,0.47238385677337649,0.7309338450431824,-0.630752444267273,-0.6252073049545288,1.5512402057647706,1.1136114597320557,0.0020999163389205934,0.08844905346632004,-1.5901408195495606,-1.3158611059188843,0.22007715702056886,-1.5433225631713868,-1.3213059902191163,2.503652811050415,-1.8795984983444214,-0.31106036901474,0.6778286695480347,1.5472142696380616,1.7962150573730469,-0.02895612269639969,-2.1127095222473146,-0.8164926767349243,0.032442040741443637,-1.809312105178833,-1.187768578529358,-1.0580401420593262,-0.7061675190925598,-0.7384705543518066,-1.283366322517395,-0.2231048345565796,1.9746367931365967,-2.2081620693206789,-1.979987621307373],"biases":[-0.6528457403182983,0.41065067052841189,-0.4216185510158539,-1.5044255256652833,0.6641154885292053,-0.9697121977806091,0.9125191569328308,-0.7865646481513977,-0.9039800763130188,0.0608336478471756,0.6966947913169861,0.6817172765731812,0.2894391119480133,-0.9526152610778809,-1.6110268831253052,-0.8317519426345825,-1.376222848892212,0.4685029685497284,-0.28753504157066347,-0.6970604658126831,-0.6310537457466126,0.1859799325466156,0.08409671485424042,-0.3031989634037018,1.0473097562789918,1.6786257028579713,-0.939819872379303,0.18441477417945863,0.3200247287750244,1.2439286708831788,0.012489993125200272,0.09617854654788971]}