{"neurons":16,"activationFunction":0,"weightsFlat":[0.5019621253013611,-0.40075087547302248,-0.4843935966491699,0.29332804679870608,-0.2704744338989258,0.9446420669555664,-1.0664691925048829,0.3162515163421631,-1.2851409912109376,0.4387478232383728,-1.3375568389892579,0.2679588794708252,-0.10654902458190918,0.6912420988082886,-0.44986987113952639,0.6613010764122009,0.7327526807785034,-1.28609037399292,-0.5593733787536621,-0.6786763668060303,-1.4412012100219727,-0.8247624039649963,-0.9689530730247498,-1.2673320770263672,0.8320726752281189,-0.46421265602111819,1.1886423826217652,-0.6461160182952881,-1.2508649826049805,0.6991585493087769,0.5122689604759216,-0.9901306629180908,1.4474966526031495,-0.7239022254943848,0.05192303657531738,-1.164414882659912,1.3386905193328858,0.605428159236908,1.4414867162704468,-0.4753870964050293,-1.1589038372039796,-0.4717729091644287,0.6418780088424683,0.500274121761322,-1.0480337142944337,-0.9056675434112549,-0.9498481750488281,-0.08960485458374024,0.544062077999115,-0.4748079776763916,-0.5083868503570557,1.1482086181640626,-1.1419408321380616,0.22553062438964845,0.5954728126525879,0.5138031840324402,-0.4499955177307129,-0.7641363143920898,0.6853017807006836,-0.4978797435760498,-1.2529785633087159,0.17763328552246095,-0.8467093110084534,0.6561422348022461,0.36564207077026369,-1.1889314651489258,-0.9486730098724365,0.8339187502861023,1.291712760925293,-1.478867530822754,0.32091498374938967,-1.1679339408874512,1.4569737911224366,-0.5910460948944092,1.1616904735565186,-0.9584269523620606,-0.07308006286621094,0.3013460636138916,1.2739555835723878,-1.2440004348754883,1.4192962646484376,-0.5827391147613525,1.2406972646713257,0.20508694648742677,-0.08517146110534668,0.2228090763092041,-0.9545438289642334,0.9616727828979492,-0.780245304107666,-0.5942649841308594,-1.4012482166290284,1.228304386138916,-0.47206711769104006,-0.6038119792938232,-0.9765104651451111,-0.138474702835083,0.24817419052124024,-0.9829749464988709,1.1675798892974854,-0.23250150680541993,-0.7764998078346252,0.529728353023529,0.38846105337142947,1.0091867446899415,-0.6636638641357422,-0.2980179786682129,0.6532666087150574,-0.3643500804901123,0.10316967964172363,0.9876365661621094,1.1443794965744019,0.19142770767211915,0.6364741325378418,-0.33663320541381838,-0.6456024646759033,1.3748706579208375,-0.8231258988380432,-1.0073442459106446,-0.4190845489501953,1.390434980392456,-0.5754215717315674,0.0971376895904541,-0.14528512954711915,-1.0744435787200928,-1.024616003036499,1.1149799823760987,0.008692264556884766,0.799913763999939,0.6693069338798523,-0.850184440612793,-0.7872200608253479,-0.08684825897216797,1.1241191625595093,0.11831521987915039,0.49536317586898806,-1.2642822265625,-0.9071252346038818,-1.08024001121521,0.025248050689697267,1.3826483488082886,-0.10727953910827637,0.35799670219421389,0.21045875549316407,-1.370316982269287,1.023733377456665,-0.6732347011566162,1.059401035308838,-0.8209944367408752,1.1701701879501343,0.7064465880393982,-0.32019901275634768,-0.7150428295135498,-0.9735292792320252,-1.0699968338012696,0.7602559924125671,-0.7696058750152588,0.03138566017150879,-0.34393739700317385,1.0748076438903809,-0.46034741401672366,-1.0909137725830079,-0.35344672203063967,-0.6450271606445313,-1.377683401107788,0.9707164764404297,0.7635075449943543,1.1131782531738282,0.5026616454124451,-0.13718199729919434,0.80810546875,-0.773594856262207,-0.733090877532959,-0.0757303237915039,-1.3520216941833497,0.26121950149536135,-0.07520723342895508,0.7320842146873474,-0.9337252974510193,-0.7481658458709717,0.9128789901733398,-1.4703397750854493,-1.0238800048828126,1.300856351852417,0.48238199949264529,-1.4309113025665284,0.1101377010345459,1.1187758445739747,0.2124333381652832,1.3372349739074708,0.8695396184921265,-0.5598890781402588,-0.7814121842384338,-1.0395278930664063,-0.6087372303009033,-0.8389520645141602,-1.0618224143981934,-0.7599213123321533,-1.4767820835113526,-0.8837664127349854,-0.784660279750824,-0.303774356842041,-0.8973960280418396,-1.3069345951080323,-0.399808406829834,0.5030196905136108,0.5411052107810974,0.9492952823638916,-0.1855325698852539,0.24180197715759278,1.4495251178741456,-1.3583135604858399,-1.0759119987487794,1.3682150840759278,-0.21879076957702638,0.26755261421203616,1.293935775756836,-1.0710959434509278,-0.3578634262084961,-1.1436958312988282,0.023120403289794923,0.27357053756713869,0.7126460075378418,0.15861988067626954,-1.269552230834961,0.46386831998825076,0.9474201202392578,1.2379378080368043,-1.4232335090637208,-0.17957735061645509,-0.8587768077850342,-1.3436312675476075,-0.025786876678466798,0.1750171184539795,0.8307437300682068,-1.367994785308838,-0.645648717880249,0.9783167839050293,0.27039289474487307,0.4776974320411682,0.8512458205223084,-1.4954862594604493,-0.8045893311500549,-1.2268919944763184,-0.30724549293518069,-0.19211673736572267,-0.9958956241607666,1.374143123626709,1.457895040512085,-0.8844899535179138,-0.22841644287109376,0.00119781494140625,-0.38696885108947756,0.8492426872253418,0.3115205764770508,1.3788059949874879,0.022920608520507814],"biases":[-0.07468163967132569,0.9213240146636963,-0.07473099231719971,-0.562880277633667,0.8063161373138428,-0.3056725263595581,-0.4549180269241333,-0.1375514268875122,-0.3640338182449341,-0.827991247177124,-0.4717026948928833,-0.7951054573059082,0.9345040321350098,-0.8979110717773438,-0.7749571800231934,0.5304470062255859]}