{"neurons":160,"activationFunction":4,"weightsFlat":[],"biases":[-1.0478427410125733,-1.888413429260254,1.3854713439941407,1.018640398979187,0.8022656440734863,-0.39201098680496218,-1.209856629371643,0.28600960969924929,-0.32800930738449099,1.2476972341537476,-0.6457332372665405,0.23125988245010377,-0.07883775234222412,-0.21991868317127229,-0.5374079346656799,0.6433196663856506,-0.5856311917304993,-1.0089950561523438,-0.8347945809364319,-1.1649280786514283,-0.0967845618724823,0.2109600305557251,-0.3016442358493805,-1.2968389987945557,-1.616544246673584,-0.9624084234237671,-1.6144119501113892,1.2529573440551758,0.19513621926307679,0.8139044046401978,1.257435917854309,-0.9095525741577148,0.20870932936668397,-0.7525368928909302,-1.3246442079544068,-0.661575198173523,-1.7782204151153565,-0.1553434133529663,-1.061086654663086,-0.6672720909118652,-0.3841066360473633,1.1288137435913087,-0.17271247506141663,0.9108737111091614,0.026263639330863954,-1.0979883670806885,0.42508798837661745,1.3651107549667359,-0.8514573574066162,0.7835065126419067,0.0812276229262352,0.03724300116300583,0.5575553178787231,-0.9316653609275818,0.6763744950294495,1.454243540763855,0.015191681683063507,0.6327803134918213,0.5714936256408691,-0.17938829958438874,0.4544311761856079,2.76640248298645,1.5478836297988892,0.4811158776283264,-1.3019617795944214,-0.9276177883148193,-0.3720579147338867,-0.39731913805007937,-1.786914587020874,-0.2277754694223404,-0.9158985614776611,1.3607401847839356,3.0247550010681154,1.440974473953247,0.1604590266942978,-0.549578070640564,-2.0316240787506105,0.1581551730632782,2.145207643508911,-0.5291799306869507,-0.8230137228965759,-0.04847358167171478,-0.7369569540023804,-0.67994225025177,-2.006633996963501,-1.2374215126037598,-0.45902711153030398,0.650794267654419,0.8853402137756348,-0.32862094044685366,0.4755263328552246,-0.2869824469089508,0.08328786492347717,-0.6359553337097168,2.006974220275879,-1.3976631164550782,0.7593556046485901,-0.11234348267316818,0.09629565477371216,0.67345130443573,-0.23837850987911225,1.2483261823654175,-0.8696873784065247,0.6693698763847351,-0.18723943829536439,1.603818416595459,-1.0752756595611573,-1.3647706508636475,-1.623063087463379,0.4868820309638977,0.3588249683380127,0.05218566581606865,1.3392581939697266,0.5746865272521973,-0.6131739616394043,-1.7767289876937867,1.3700120449066163,-0.7647415995597839,-0.5026972889900208,1.173176884651184,-0.8261694312095642,1.017504334449768,0.014267966151237488,0.3319733142852783,0.0011689290404319764,-0.15179555118083955,-1.0209987163543702,-0.7332810759544373,0.6613050699234009,1.3004276752471924,-2.2804648876190187,0.486763060092926,0.14935719966888429,-0.1058875173330307,-0.1482078582048416,1.8132423162460328,0.3850117325782776,-1.2546944618225098,-0.6467210054397583,0.717542290687561,1.1494654417037964,1.1044182777404786,0.604088544845581,0.6053069829940796,-1.0251497030258179,1.1903233528137208,-1.41361665725708,0.20390892028808595,-1.0713931322097779,0.474247545003891,-1.1900324821472169,0.8481743335723877,-0.7131952047348023,0.9700153470039368,1.0323189496994019,-0.9885050058364868,-0.10582536458969116,0.11231645941734314,-1.0894206762313843,-0.5425999760627747]}