{"neurons":32,"activationFunction":1,"weightsFlat":[-0.6746295094490051,-0.43026477098464968,0.12655355036258698,-1.4557441473007203,-0.46055594086647036,0.6647056341171265,0.2613905668258667,-0.07930783927440644,0.8167681694030762,-1.4126055240631104,-0.8886851668357849,-0.10350704193115235,-1.9079174995422364,-0.9291757345199585,0.35740628838539126,-1.289165735244751,-1.0803731679916382,0.10253014415502548,-0.3166083097457886,2.1567935943603517,-0.6534788012504578,0.2090594321489334,0.8863198161125183,-2.429978609085083,-0.5927361249923706,-1.4630274772644044,-0.7031330466270447,1.5958564281463624,-0.5805265307426453,0.6157859563827515,-0.38903582096099856,1.616623878479004,0.033035099506378177,1.4091917276382447,-0.2112843245267868,-0.17854677140712739,1.1656465530395508,2.1582870483398439,0.21881884336471559,-2.4513604640960695,-1.176845669746399,0.5637696385383606,-0.8917933702468872,-0.8199165463447571,1.0278911590576172,1.6564704179763795,0.355136513710022,-0.8098363280296326,0.7458667755126953,-0.38939619064331057,-0.5619413256645203,-0.37109333276748659,-1.3167121410369874,1.4140560626983643,0.08394212275743485,-0.9333762526512146,-0.3390960693359375,-1.4060455560684205,0.2773810029029846,-0.9772617220878601,0.7651361227035523,0.12905395030975343,2.8770768642425539,1.6188961267471314,0.24420598149299622,-0.340157151222229,0.07412248849868775,2.9807777404785158,0.6280132532119751,1.0420538187026978,-0.1193905845284462,1.1666765213012696,-0.6525192856788635,1.285894513130188,-0.39538177847862246,-0.9021451473236084,1.5205662250518799,-1.2683159112930298,1.136186122894287,-0.8444602489471436,2.082703113555908,0.6790118217468262,-0.2897855043411255,0.4483642876148224,-1.3556206226348878,-0.5654303431510925,1.2390722036361695,-0.06454683840274811,1.5729271173477173,-0.09824445843696594,-0.17438866198062898,-0.27155953645706179,0.890708327293396,0.12631887197494508,1.7231069803237916,-1.6018550395965577,0.6148039102554321,1.9001035690307618,3.4512405395507814,1.5455235242843629,1.4978408813476563,0.11276423931121826,1.438740849494934,-1.8713589906692505,-0.1397370994091034,-0.8224900960922241,1.1753413677215577,-3.0541305541992189,-0.5908184051513672,0.705665111541748,-1.0602267980575562,2.009474277496338,-0.3666668236255646,0.8245911598205566,0.41882240772247317,0.13062165677547456,-0.14263302087783814,-0.6916387677192688,-2.3780860900878908,1.3193081617355347,1.3467634916305543,-2.553709030151367,-1.0993540287017823,-0.26005762815475466,-0.3861146569252014,-1.8952867984771729,-1.275091528892517,-0.4361770451068878,0.49161964654922488,-0.6734045743942261,-0.5149828791618347,-1.6934034824371338,-0.2484898865222931,-0.4930344223976135,-1.7155849933624268,-0.6776451468467712,0.406974196434021,1.0629887580871583,0.0071111321449279789,-0.3417462706565857,-1.279231071472168,0.12943105399608613,-1.1875981092453004,-1.3310884237289429,-1.739919662475586,-0.3831874430179596,-1.200089454650879,-1.2320291996002198,0.538914680480957,-1.02644681930542,-0.6735152006149292,1.138200283050537,0.36476588249206545,-0.8468219637870789,1.1403014659881592,-1.077501654624939,1.5102083683013917,1.3209301233291627,0.8883580565452576,0.48739391565322878,0.1676097810268402,0.7159703373908997,-0.42754054069519045,-0.08611226081848145,0.042675167322158816,-2.3294179439544679,1.2066607475280762,-0.34042680263519289,0.10910074412822724,-0.775157630443573,-0.07466843724250794,1.6722819805145264,-2.6939139366149904,-0.12804153561592103,1.770402193069458,-0.8561707735061646,0.8276327252388,0.1316118985414505,-1.9207415580749512,1.0395612716674805,0.05070546269416809,-0.805467426776886,0.3040145933628082,-0.6038633584976196,3.485487699508667,-0.9094301462173462,0.29846855998039248,-1.4808326959609986,-1.9093072414398194,-0.24544191360473634,0.26507627964019778,-0.6217816472053528,0.32632648944854739,-0.45913931727409365,2.009913921356201,0.6042522192001343,-0.7438042163848877,1.0842307806015015,0.11565603315830231,-1.1045078039169312,-0.11124541610479355,-1.14726722240448,0.8627932667732239,0.8768625259399414,-0.9607064723968506,1.4157769680023194,0.2059202343225479,-0.11098317801952362,1.0594197511672974,1.043951392173767,0.8719311952590942,-2.2970833778381349,-1.8855617046356202,-1.9177180528640748,-0.4523770213127136,1.01142418384552,-0.09461210668087006,0.34479665756225588,-0.19963505864143372,-0.5723700523376465,-0.8725476264953613,0.34339308738708498,0.7058639526367188,-0.6057016849517822,0.15594573318958283,-1.1768890619277955,-2.2336652278900148,1.8461633920669556,-0.4977068305015564,0.37116721272468569,-0.01872028410434723,-1.2004637718200684,1.2469253540039063,-0.01774003356695175,1.1790623664855958,-0.8821261525154114,-2.03523325920105,1.7975596189498902,0.18850649893283845,2.1671555042266847,0.641990065574646,-0.616212010383606,0.4971737861633301,-0.8538718819618225,2.633043050765991,-0.4188317656517029,-1.3339022397994996,-0.29907888174057009,-0.8577725887298584,-1.0168975591659547,-0.30642715096473696,-1.053732991218567,-0.5090582966804504,-2.5812394618988039,0.8079466819763184,0.25102660059928896,0.14142286777496339,0.4277448058128357,2.617856025695801,0.26390236616134646,1.4235961437225342,-1.0982179641723633,1.2091467380523682,0.8771689534187317,-0.9355471730232239,-0.6829335689544678,1.2971419095993043,0.8976804614067078,0.8412255048751831,-0.8603012561798096,1.084456205368042,-1.636596918106079,-0.25103455781936648,-0.7506705522537231,-1.4148759841918946,-1.2090551853179932,1.7184257507324219,0.45598068833351138,-1.168124794960022,2.7141098976135256,0.741683840751648,-1.4997565746307374,0.5331602096557617,0.130930557847023,-1.1712805032730103,-0.25328606367111208,-1.1581730842590333,-2.411090612411499,-0.5314673185348511,0.40724390745162966,0.35012006759643557,0.3431345820426941,1.6975244283676148,-0.1879063993692398,2.7690961360931398,-1.5737444162368775,-2.4721121788024904,-0.7053372263908386,1.803137183189392,1.5482252836227418,1.3910959959030152,-1.3238857984542847,-1.1821175813674927,0.785395622253418,-1.530136227607727,-0.42913973331451418,0.1217600554227829,-1.9508720636367798,-0.15617644786834718,1.2097258567810059,2.082763910293579,-0.05624319612979889,-0.6558542251586914,-0.606027364730835,0.4032145142555237,1.4465564489364625,-0.5038260221481323,-2.0662403106689455,-0.5094709992408752,-1.452451467514038,-2.7015740871429445,-1.874688982963562,-1.2689722776412964,-0.5718076825141907,-1.0457779169082642,-0.16174721717834474,1.6403543949127198,1.6789251565933228,2.4514527320861818,-0.3556702733039856,-1.128778100013733,-1.4879368543624879,-0.0523587241768837,1.9359372854232789,-0.8216274976730347,1.161571979522705,1.5332458019256592,0.2432440221309662,-0.3683971166610718,-0.6426699757575989,0.8240355253219605,-0.14830632507801057,-1.5581731796264649,-0.5219963192939758,-1.7286598682403565,1.8210521936416627,0.2116437405347824,-1.379921317100525,-1.1275193691253663,-3.1750261783599855,-0.5485504269599915,0.8473950028419495],"biases":[1.4583278894424439,-1.0629481077194214,1.820734977722168,0.4743271768093109,-0.5305772423744202,-0.12388338148593903,1.1240583658218384,-2.1864309310913088,0.3733769655227661,-2.627455234527588,-0.435619056224823,-2.6427252292633058,-0.1315598487854004,-1.6659396886825562,0.9203107357025147,1.5186779499053956,-0.42767855525016787,-0.8681387305259705,1.2853296995162964,-1.2772935628890992,-0.5446076393127441,0.11435098946094513,0.6080361604690552,0.510356068611145,1.0346662998199463,3.17802095413208,-0.4788099527359009,0.9162647724151611,0.49926573038101199,0.2598056495189667,0.988845944404602,1.0602068901062012]}