{"neurons":16,"activationFunction":0,"weightsFlat":[0.909213125705719,0.9726882576942444,1.4394385814666749,0.09737043082714081,-0.3260003626346588,-1.4050781726837159,-0.9488114714622498,-2.2138209342956545,1.1161954402923585,-1.4429149627685547,-0.6778358221054077,-0.43880757689476015,0.26270756125450137,-2.0943796634674074,-1.422120213508606,0.4468545615673065,0.165156751871109,-1.3749972581863404,0.3814581334590912,-2.0458672046661379,1.003360390663147,0.9153288006782532,0.976874053478241,-0.20125097036361695,-1.0524286031723023,-0.3156873285770416,0.10944928228855133,0.20856276154518128,0.09662501513957977,-0.6446344256401062,1.5023267269134522,-1.9647009372711182,-1.3371000289916993,0.08819117397069931,-0.34412282705307009,0.35797759890556338,-1.4656047821044922,-1.6043157577514649,1.2911961078643799,0.2695731818675995,1.6213665008544922,-1.3164368867874146,1.7960445880889893,-1.4001398086547852,-1.3906586170196534,0.8147388100624085,1.7957358360290528,1.0828475952148438,-1.9354439973831177,-1.0247286558151246,-0.4433801472187042,-1.3732985258102418,0.11254970729351044,1.9565595388412476,-0.5867060422897339,0.6955046653747559,0.9754048585891724,-0.4957878291606903,1.5007758140563965,-0.3508261442184448,-0.49410223960876467,0.30277159810066225,0.2692904472351074,0.8259376883506775,-0.9496855139732361,1.124784231185913,-0.8521106839179993,0.308428019285202,-2.018343210220337,-2.396083116531372,1.1603511571884156,0.7739415168762207,0.7095189690589905,1.317671775817871,-1.0898852348327637,-0.559508204460144,0.9478453993797302,0.6225676536560059,-1.1768243312835694,-1.3363878726959229,0.3389986753463745,1.4803564548492432,-0.7671253681182861,0.2265797257423401,1.110095500946045,1.8951791524887086,1.1785606145858765,0.683889627456665,1.7079753875732422,-0.5166876316070557,0.33885443210601809,0.44997090101242068,-1.575721263885498,-0.7190349102020264,-0.5908324122428894,1.0133389234542847,-0.6751481890678406,-1.7404932975769044,1.2317962646484376,1.1096069812774659,1.2776830196380616,-0.4569259583950043,0.0008627399802207947,-1.7205935716629029,-0.3319539725780487,-1.3534820079803467,1.9679192304611207,1.3200011253356934,-0.3862103223800659,-0.14893370866775514,1.3653725385665894,0.9675096869468689,1.0242103338241578,0.7716519832611084,-1.3840440511703492,0.501054584980011,-1.0356656312942505,1.8850605487823487,-1.8465725183486939,-0.571863055229187,-0.9806041717529297,0.3149067461490631,-1.5357658863067628,-0.0876011997461319,1.547409176826477,0.17586493492126466,0.6100909113883972,-1.0844546556472779,-2.45468807220459,0.7521079182624817,-0.124259814620018,-0.20174112915992738,0.0972682312130928,0.07600753754377365,0.9208042025566101,2.066784620285034,0.8112725019454956,-1.924923300743103,0.8911415934562683,-0.6943281888961792,-1.084987998008728,-0.9341009855270386,-0.5077497959136963,-1.3622549772262574,0.6170067191123962,0.733907163143158,-1.665136456489563,-1.3103346824645997,-1.9189430475234986,0.9507846236228943,0.224312424659729,0.8231408596038818,0.32266998291015627,-0.3672530949115753,0.9197326302528381,-0.6776593327522278,1.2907170057296754,-0.9025164842605591,-1.2424510717391968,1.1508909463882447,1.6648099422454835,-1.1748566627502442,-1.9417835474014283,-1.4805781841278077,-0.15120252966880799,0.3827282786369324,1.7367384433746338,-1.3593757152557374,-1.083984136581421,-0.537857711315155,-0.662390947341919,-1.9088472127914429,1.120358943939209,1.6766046285629273,0.3834421932697296,0.20011407136917115,-1.137960433959961,-0.5451082587242127,-0.8493071794509888,-0.34412115812301638,-0.08977379649877548,-0.18985280394554139,-0.18491345643997193,-0.9599505066871643,0.32550981640815737,-1.7094367742538453,-0.8354862928390503,-0.7970804572105408,-0.3508017957210541,2.5104267597198488,-0.5858704447746277,0.9719564914703369,0.9410141706466675,-1.89862859249115,-1.2949085235595704,0.3732098639011383,0.3290935754776001,-0.9278267025947571,1.4456299543380738,-1.8655842542648316,-0.6709818243980408,1.0085880756378174,-1.5788748264312745,-0.8830612301826477,0.7224867343902588,0.08855040371417999,1.06827712059021,1.0084149837493897,0.3893679678440094,-1.478249192237854,0.09223877638578415,0.2452811300754547,-0.3318794369697571,-1.159690499305725,-0.9672178626060486,-2.3044776916503908,1.2532408237457276,0.4021385610103607,-1.3010189533233643,-0.19638994336128236,1.9664169549942017,1.1344674825668336,0.8049820065498352,-0.4447554647922516,1.6666098833084107,-1.1073713302612305,1.4857069253921509,-1.3565292358398438,0.10772071033716202,-0.0811353325843811,0.8784394264221191,-0.7370316386222839,0.6672412157058716,-1.3739871978759766,0.5814340710639954,-1.5850807428359986,-0.7322690486907959,1.0994696617126465,-1.1024954319000245,0.6877001523971558,-0.18322360515594483,-1.6517572402954102,0.10511019080877304,1.1696163415908814,1.1370519399642945,1.7294329404830933,0.7892781496047974,1.0637881755828858,0.8739553689956665,0.1995086967945099,-0.8002354502677918,-0.8830357789993286,0.004445798695087433,-0.35720592737197878,1.7846148014068604,0.6090736389160156],"biases":[0.5131855010986328,0.44602203369140627,-0.5872710943222046,0.9196361303329468,1.893888235092163,-0.2290128469467163,1.7578091621398926,1.4378820657730103,0.8987506031990051,-0.6372291445732117,0.48089492321014407,-0.4820646345615387,-0.2856503129005432,0.8379796147346497,-0.18517304956912995,-0.19151422381401063]}