{"neurons":6,"activationFunction":0,"weightsFlat":[0.2643948793411255,0.7167685627937317,-0.14255943894386292,1.391645073890686,-1.23557710647583,1.0765581130981446,-0.5772490501403809,0.10675837099552155,-1.3981211185455323,-0.0063043199479579929,1.3048324584960938,-1.0270001888275147,-1.0865203142166138,-0.4213404059410095,-0.7034146785736084,0.76170814037323,-0.8165115118026733,-0.18669140338897706,-0.9665388464927673,-0.9037433862686157,1.7491589784622193,1.0260146856307984,0.23920273780822755,0.6308979392051697,-1.0474705696105958,0.6134001016616821,0.5567607283592224,-0.3528459072113037,0.34346804022789,-0.6967523097991943,-1.046847939491272,-0.22580581903457642,0.2223069667816162,1.4784884452819825,-0.6137197613716126,1.4867292642593384,-1.1742098331451417,-0.9644812941551209,0.3054482340812683,-0.29178881645202639,1.3873581886291505,0.8409920334815979,-1.1199488639831544,0.38544321060180666,0.8444793224334717,0.7844464182853699,0.6197723746299744,-0.4773469865322113,0.2604271471500397,-0.5827231407165527,-0.032002925872802737,0.9039760828018189,1.1561644077301026,-0.274760901927948,0.2045428603887558,-1.1802784204483033,-0.2043447494506836,-1.0422778129577637,1.0238292217254639,1.0339250564575196,-0.8501849174499512,-0.46566087007522585,1.4290233850479127,0.36998024582862856,-0.906997561454773,-0.18236182630062104,-0.5494452714920044,0.21955199539661408,-1.2297706604003907,0.2920745015144348,1.0587376356124879,0.48021870851516726,0.9589544534683228,-0.7135523557662964,-1.367754340171814,0.8029840588569641,0.4427857995033264,0.901023268699646,-0.9532167315483093,1.2280693054199219,1.2467865943908692,-0.7650765776634216,-0.279407799243927,-0.5169362425804138,-0.6624122858047485,0.12060587108135224,1.3322948217391968,0.7259799242019653,1.4352476596832276,-0.33566951751708987,0.9180594682693481,-0.29287809133529665,-0.01320134848356247,-0.9109793305397034,1.338128685951233,-0.25232258439064028],"biases":[1.5020266771316529,1.3593372106552125,0.6259535551071167,-0.4879273772239685,0.2993842661380768,-1.0473263263702393]}