{"neurons":16,"activationFunction":0,"weightsFlat":[-1.2263065576553345,-0.9719870686531067,-1.89354407787323,0.5029733180999756,1.7199627161026,-0.42276322841644289,-0.4280972480773926,-0.8276560306549072,0.26988768577575686,2.098541736602783,-0.1592862606048584,0.889964759349823,0.053626738488674167,1.55259370803833,-1.1651679277420045,1.9880902767181397,1.3217121362686158,-0.7666317820549011,-2.3415257930755617,-0.3273138701915741,-0.34227585792541506,0.2057940810918808,1.5032588243484498,-0.14410626888275147,-1.4012207984924317,-1.2338734865188599,-0.28478261828422549,-0.4830588102340698,0.9241902232170105,0.8286889791488648,-0.8754220604896545,1.3340049982070923,-1.550610899925232,0.01918897032737732,1.804751992225647,1.8074750900268555,0.03368140012025833,0.06865593791007996,-0.3094711899757385,-0.3052380681037903,-0.4418499767780304,0.3890925645828247,-1.6862683296203614,-0.11460782587528229,-0.02400197461247444,-0.01736655831336975,-1.9209141731262208,0.23428753018379212,-1.5246343612670899,0.17424187064170838,-0.17555668950080872,0.8532682061195374,1.583661675453186,0.1540358066558838,1.5199037790298463,-0.5945283770561218,0.4262325167655945,0.16336244344711305,-0.5818192362785339,-0.1906527280807495,0.9707506895065308,0.9864702224731445,-1.076040506362915,0.28370213508605959,0.6050974726676941,0.053901031613349918,0.46540945768356326,-0.7341402769088745,0.9088535904884338,-0.15445727109909059,-1.6100754737854005,-1.5214838981628419,1.2194677591323853,0.6125670671463013,1.3246310949325562,0.7827931046485901,0.3450542688369751,0.8321807980537415,-1.7240434885025025,-2.01613712310791,0.45320767164230349,-0.18994715809822083,-0.8235981464385986,0.2573980391025543,1.1752294301986695,1.679970383644104,-1.9065461158752442,0.7050064206123352,-1.0463050603866578,-1.6948890686035157,0.35457727313041689,1.666501760482788,-1.6060014963150025,-1.3546574115753174,-1.4024889469146729,0.7880327105522156,-0.33783453702926638,-1.1917725801467896,0.8355453610420227,2.4361326694488527,2.15299391746521,0.4549705982208252,1.9493780136108399,2.077422618865967,0.13284224271774293,-0.6165584325790405,0.9470339417457581,1.4805128574371338,0.4162521958351135,0.09336743503808975,-0.5874680280685425,-2.016188859939575,0.5325173139572144,-1.1739038228988648,0.25774702429771426,1.594097375869751,1.4274245500564576,0.5676234364509583,1.9337804317474366,-1.2706823348999024,-0.20080792903900147,-0.4113095998764038,1.1363760232925416,1.6193948984146119,1.7096728086471558,-0.7662608027458191,1.4783066511154175,1.0122261047363282,-1.0840624570846558,0.6510109901428223,0.029720492660999299,-2.5316696166992189,0.4927794933319092,1.0422450304031373,-2.321042776107788,-2.157029628753662,-0.9966203570365906,0.3345441222190857,-2.2749197483062746,1.322740912437439,-1.0220420360565186,-0.24294504523277284,0.06311577558517456,-0.6904722452163696,1.9878268241882325,-1.2489070892333985,-1.3709383010864258,-0.07269240915775299,-0.8383414149284363,-2.38360333442688,1.1514744758605958,-0.8024969696998596,1.340064525604248,1.86176598072052,0.3846479654312134,-0.28976163268089297,0.9463973641395569,-1.4999569654464722,0.9522868394851685,-1.7383484840393067,-0.25574570894241335,0.11716127395629883,1.0572131872177125,1.4139432907104493,-1.2896144390106202,-1.3103537559509278,-1.7510590553283692,0.7378619313240051,1.0788393020629883,1.9644755125045777,-0.0022586435079574587,-0.1757519245147705,0.732064962387085,-0.47561728954315188,-0.4393487572669983,-0.37122559547424319,-0.7826327681541443,1.559735894203186,1.1408360004425049,-1.5674066543579102,-1.4494528770446778,1.6360832452774048,-1.6866415739059449,-0.9014686942100525,-0.8897920846939087,0.5563055872917175,-0.006515704095363617,0.15182551741600038,1.2955588102340699,1.1235512495040894,-1.2592694759368897,0.7162826061248779,0.374294638633728,-0.6701014041900635,1.0703644752502442,-0.40039297938346865,0.1671253740787506,1.8509150743484498,-0.04411660134792328,-0.14489825069904328,-0.280781626701355,1.6304869651794434,-0.8289963603019714,-0.2322780340909958,1.000422477722168,1.0876803398132325,-1.3330156803131104,0.8784577250480652,1.6995185613632203,-1.227559208869934,0.931552529335022,0.5429348349571228,-0.6082839369773865,1.1381816864013672,0.05300005525350571,1.148502230644226,1.4042514562606812,0.4713592827320099,-0.6930515170097351,-1.1516951322555543,-0.4688442349433899,-1.0223920345306397,0.9619953036308289,0.7938292026519775,0.4489414691925049,0.6425219178199768,-0.0768962875008583,-0.8892804980278015,-0.9540978670120239,-1.6646945476531983,1.1073148250579835,0.036529138684272769,1.035914659500122,-0.05041853338479996,1.2323471307754517,-1.2895989418029786,-0.5185637474060059,0.43340685963630679,1.9919734001159669,-1.2590270042419434,1.0282106399536133,-0.7108032703399658,-0.7654739022254944,-0.3404223918914795,0.338900625705719,0.02515926957130432,-0.2372519075870514,0.6316592693328857,-1.0842491388320923,-1.0811783075332642,0.3434114456176758,2.0192713737487795,-2.387098550796509,-2.0959718227386476,0.23760981857776643,0.08385113626718521],"biases":[-0.9312933683395386,2.10990047454834,0.2374756634235382,-0.022214047610759736,0.3210812211036682,0.5930446982383728,-0.07480908930301666,-0.09878922998905182,0.7724471092224121,-0.09977554529905319,-0.28893136978149416,0.016002275049686433,-0.14458076655864716,-0.04598235711455345,-0.15526306629180909,-1.4668936729431153]}