{"neurons":4,"activationFunction":0,"weightsFlat":[1.3449931144714356,1.4351229667663575,-1.2857977151870728,0.31958064436912539,2.2652480602264406,1.0950682163238526,-0.7891811728477478,-1.5755807161331177,-0.9927231073379517,-0.05705464631319046,-1.057145357131958,-0.4310877025127411,-0.9341639280319214,1.216719150543213,0.7268164753913879,-0.3867277503013611,-0.9489732980728149,1.3875325918197632,1.720141053199768,1.1288866996765137,0.3542175889015198,-1.245421051979065,0.40555691719055178,0.8504183292388916,-1.193527102470398,1.6540586948394776,1.502736210823059,1.1886155605316163,-1.3173600435256959,-0.5428818464279175,0.5460333824157715,1.0703155994415284,-1.7075656652450562,1.826761245727539,-0.9820327758789063,1.3880046606063843,1.9219471216201783,-0.06496857106685639,-0.4024176597595215,1.3657020330429078,-1.3680628538131714,-1.6941921710968018,1.797041893005371,1.1726505756378174,0.7292388081550598,-1.225040078163147,2.1494247913360597,-0.8449460864067078,-0.5712711811065674,0.3918135166168213,1.0292474031448365,-2.0813281536102297,-0.8730241060256958,1.252366304397583,0.8635865449905396,-0.27172306180000307,-1.4108715057373047,0.8526705503463745,-0.0778823271393776,0.9687311053276062,-1.6638250350952149,-0.6179060935974121,-0.010983169078826905,-1.4598736763000489],"biases":[-0.3775707185268402,1.364032506942749,0.7224994897842407,0.31130149960517886]}