{"neurons":4,"activationFunction":0,"weightsFlat":[0.5676769614219666,-0.3945225179195404,-0.48015761375427248,1.662814974784851,0.1870812028646469,-0.672188937664032,0.9064009189605713,-1.2772793769836426,0.9178797602653503,0.4104447662830353,0.07035432010889054,-0.1769179105758667,-0.2304655909538269,0.5329951047897339,-1.1130129098892213,0.34829339385032656,-0.40744784474372866,0.1549828052520752,0.16278940439224244,0.39224281907081606,1.3436380624771119,-0.3607277572154999,-0.8158544301986694,1.8965238332748414,-0.5483048558235169,-0.967260479927063,0.26080769300460818,-1.5141487121582032,-0.932536780834198,-1.2917808294296265,1.2202259302139283,0.8491172194480896,0.2993839383125305,0.6581500768661499,-0.4658750295639038,-1.7482435703277588,2.009786367416382,0.6089301705360413,0.5210466980934143,-1.7062170505523682,2.565030574798584,-0.7951681017875671,1.9760496616363526,1.824326753616333,-1.250461220741272,0.0448274090886116,-0.2019721269607544,-1.0056052207946778,1.3342376947402955,1.3334189653396607,-1.6030727624893189,-0.36519816517829897,0.6782238483428955,-0.9588029384613037,-0.525389552116394,0.5689796805381775,0.6051416993141174,1.3485664129257203,-2.0365657806396486,-2.0034284591674806,-1.8641396760940552,0.5726777911186218,-1.2694551944732667,0.8885791301727295],"biases":[-0.7809227108955383,1.162980079650879,-0.07878687977790833,1.422760248184204]}