{"neurons":6,"activationFunction":0,"weightsFlat":[-1.7845467329025269,-0.3373289704322815,-0.7781137228012085,2.758805990219116,-1.084524154663086,-0.015307269990444184,1.9446697235107422,-0.5460954904556274,-1.0922988653182984,0.025206372141838075,0.6798438429832459,0.6980633735656738,0.5137404203414917,1.3974368572235108,-0.678154468536377,-0.41078612208366396,-1.1517302989959717,1.9023720026016236,1.5240918397903443,-0.48920607566833498,1.3319058418273926,0.6181739568710327,-0.8018975257873535,1.0297279357910157,0.18046796321868897,1.401381254196167,0.12564462423324586,0.5332257747650147,-0.279939740896225,0.19474737346172334,2.3126046657562258,-0.41017067432403567,1.2339524030685425,-1.7953859567642213,-1.1366002559661866,1.7660249471664429,-1.8315595388412476,-0.10965927690267563,0.7952873110771179,-2.4541819095611574,-0.9609989523887634,1.4288661479949952,0.5023242831230164,-0.14633648097515107,-0.49908432364463808,0.22231151163578034,2.216782331466675,0.23976929485797883,0.01596151292324066,-1.0049731731414796,0.911582887172699,1.292445421218872,-1.334872841835022,-0.7789151668548584,-1.3296754360198975,-1.0781095027923585,-0.8388964533805847,-0.8640123605728149,-0.26597732305526736,0.7929129600524902,-0.27861645817756655,1.6075193881988526,1.7047712802886963,0.04100252315402031,0.6126037836074829,-1.2235138416290284,-1.2051037549972535,-0.1967581808567047,0.4922369718551636,0.9009567499160767,-1.662361979484558,-1.3553831577301026,1.880474328994751,0.42281097173690798,-1.2618480920791627,-0.25804880261421206,0.37645965814590456,-0.5815944671630859,0.0034560784697532655,-1.3528491258621216,1.1015042066574097,1.2933603525161744,-0.7081059217453003,1.6444758176803589,-0.45999640226364138,0.3059501647949219,-1.3139578104019166,0.12773749232292176,0.1676965355873108,1.2517752647399903,0.5349092483520508,0.8815087080001831,0.9186149835586548,-1.7201123237609864,1.4914686679840088,0.7138971090316773],"biases":[-0.8717432618141174,-0.729820728302002,-0.6313654780387878,-0.5181347727775574,-0.024194300174713136,-0.14366960525512696]}