{"neurons":160,"activationFunction":4,"weightsFlat":[],"biases":[-0.7995746731758118,-0.5650316476821899,-0.6535399556159973,0.0033993199467658998,-0.09568529576063156,-0.3010532557964325,0.7697579860687256,-0.5512649416923523,-0.3432703912258148,0.1407822072505951,0.2647086977958679,0.08655843883752823,-0.648176372051239,0.09903837740421295,0.7532522678375244,0.4278242290019989,0.5799931883811951,0.41501906514167788,0.6366069316864014,-0.49977993965148928,1.3496496677398682,0.9360891580581665,-0.30775004625320437,0.3687198758125305,0.3128491938114166,0.265863299369812,1.3006075620651246,-0.5012533664703369,-0.6840983033180237,0.15033581852912904,-0.42166659235954287,0.9524650573730469,0.34424540400505068,0.7386320233345032,0.08575638383626938,-0.6393466591835022,-0.8144201040267944,0.25180527567863467,-0.2686094045639038,-0.8020016551017761,0.19488942623138429,1.1481958627700806,0.764197051525116,-0.2407941371202469,-0.5582643747329712,0.6446675658226013,0.6459693908691406,0.5265377163887024,-0.026061125099658967,-0.006860688328742981,-0.10960916429758072,0.8410302400588989,-1.09496009349823,-0.3650534749031067,-1.0785335302352906,-0.28963354229927065,-0.47488999366760256,0.4372735619544983,0.2429971992969513,-0.08935785293579102,-0.5885820984840393,-0.14078393578529359,-0.7385739088058472,0.7981318831443787,-0.24174290895462037,0.6714703440666199,-0.6831452250480652,-1.6461811065673829,-0.4016261398792267,0.5535468459129334,-0.6981537342071533,-0.8333835601806641,-0.2121475487947464,-0.6023995876312256,-0.4185725450515747,0.02059859037399292,-0.9480599761009216,-0.961116373538971,0.9308313131332398,0.41778963804244997,0.7047156691551209,-0.26047036051750185,-0.0012850835919380189,0.6132767796516419,-0.6359865665435791,0.6355701684951782,1.1698033809661866,-0.5043550729751587,-0.31498733162879946,-0.296786367893219,-0.13458335399627686,-1.0318313837051392,-0.8992244005203247,0.3561241030693054,0.37330397963523867,0.7653324604034424,-0.7011563777923584,0.42248082160949709,0.38249748945236208,-0.751737654209137,0.2816673517227173,-0.4263591170310974,0.052772462368011478,-0.8931857943534851,-0.5730748176574707,0.5056021213531494,-0.8464794158935547,-0.7011236548423767,0.8468000888824463,0.7548987865447998,0.025384031236171724,0.9496998190879822,-0.42279207706451418,-0.6023259162902832,1.1908669471740723,-0.3518436551094055,-0.9340282082557678,0.8111535906791687,0.5786256194114685,-0.23920434713363648,1.1725544929504395,0.09392403066158295,0.5870339870452881,0.06119174510240555,0.4431793987751007,0.021860577166080476,-0.03874018043279648,-0.18523207306861878,0.19439697265625,-0.5778545141220093,0.4887123703956604,0.7312369346618652,-0.20775285363197328,0.4446371793746948,0.7102389335632324,0.03494101017713547,0.9582997560501099,-0.10070963203907013,0.7831023931503296,-0.1197509691119194,0.9156866669654846,0.704512894153595,0.5754474401473999,-0.1530778408050537,0.7214888334274292,0.48702993988990786,0.9474767446517944,-0.763908326625824,0.5430172085762024,-0.3651123344898224,0.9475089311599731,-0.2738604247570038,0.2776280343532562,-0.2678002417087555,0.2603053152561188,-0.5534295439720154,0.30727100372314455,-0.9671099185943604,-0.347666472196579,0.07265843451023102]}