{"neurons":16,"activationFunction":0,"weightsFlat":[0.42152950167655947,-0.2498718500137329,0.0,0.4386272132396698,-0.6617236137390137,-0.38560283184051516,-0.162267804145813,0.31509801745414736,0.3298947513103485,-0.44792497158050539,0.7661583423614502,0.5446624755859375,-0.7690243721008301,0.6707205772399902,-0.44820892810821535,0.39790818095207217,0.33795639872550967,0.7992417812347412,0.5702962875366211,0.8346240520477295,0.5353817939758301,0.16571742296218873,-0.2664231061935425,0.2459934502840042,-0.8713201880455017,0.535459041595459,0.357220858335495,-0.9321109056472778,0.5917403697967529,-0.9150643348693848,0.0,0.37561270594596865,-0.13429033756256104,-0.16703665256500245,-0.5573873519897461,0.4194481074810028,0.78529953956604,0.47698113322257998,0.3615073561668396,0.6435760855674744,-0.7455899715423584,-0.7494714260101318,0.22557055950164796,-0.08827531337738037,0.8410904407501221,-0.9237494468688965,-0.6526532173156738,0.7411210536956787,0.6564779281616211,0.35982248187065127,-0.46821916103363039,0.5439214706420898,0.0,-0.5913980603218079,0.04693877696990967,0.005231376737356186,-0.9562780857086182,0.8643860816955566,-0.12112115323543549,0.06390109658241272,0.0,-0.6159365177154541,-0.6113564968109131,-0.4783385992050171,0.0,-0.08700597286224365,-0.15528380870819093,0.6563425064086914,0.6470456123352051,0.7825148105621338,0.02673637866973877,0.25557681918144228,0.9748532772064209,-0.29415762424468996,-0.30245673656463625,0.7991325855255127,0.2558147609233856,0.24791395664215089,0.5233047008514404,-0.31831061840057375,0.8104164600372315,-0.9019522666931152,0.8836023807525635,0.32752034068107607,-0.2434781789779663,0.6518893241882324,-0.34930694103240969,-0.2935434579849243,0.0,-0.6814093589782715,0.43531033396720889,0.0,0.26715752482414248,0.5203061103820801,0.4641675651073456,0.05453598499298096,0.0,0.35105273127555849,0.0306929349899292,-0.017198681831359865,0.5673966407775879,-0.4838552474975586,0.791985273361206,0.9659246802330017,0.0,0.4439403712749481,0.11103928089141846,0.5949499607086182,-0.6360092163085938,-0.0886760950088501,1.0490201711654664,0.6352827548980713,0.6985230445861816,0.4946713149547577,0.0,0.0,-0.3243354558944702,0.9266612529754639,0.6410090923309326,0.6271040439605713,-0.6600034236907959,0.0,-0.550987720489502,-0.3438507318496704,-0.13897788524627686,0.9825432300567627,-0.22091519832611085,-0.8508548736572266,-0.3687189817428589,0.56138014793396,-0.8291232585906982,0.04878222942352295,0.8620781898498535,0.0,-0.9013721942901611,0.738349199295044,-0.9079052805900574,-0.6976283192634583,0.44834864139556887,-0.7120628356933594,0.06628811359405518,0.14206206798553468,-0.6727199554443359,0.8033287525177002,0.0,0.0,0.0,0.0,0.0,0.0,0.0,0.0,0.0,0.0,0.0,0.0,0.0,0.0,0.0,0.0,0.616809606552124,0.7791845798492432,0.3777742087841034,-0.09256541728973389,0.730431318283081,-0.07940304279327393,0.31606361269950869,0.9323532581329346,-0.1026521772146225,0.9913365840911865,0.29115769267082217,-0.6706295609474182,-0.9349980354309082,-0.4513782262802124,0.15499579906463624,-0.09710824489593506,0.7411708831787109,-0.2016991376876831,0.47844836115837099,0.0,0.39242932200431826,-0.01352226734161377,-0.7529714107513428,-0.44123733043670657,0.7778792381286621,0.5852766036987305,-0.38769352436065676,-0.9601700305938721,-0.46791374683380129,0.5364792346954346,0.9813508987426758,0.0,-0.19902724027633668,-0.3815133273601532,-0.9167082905769348,0.36346903443336489,-0.9873273372650147,0.2684495151042938,0.5470578670501709,-0.8492269515991211,-0.968231201171875,-0.04338109493255615,-0.012464642524719239,-0.7234456539154053,-0.23788820207118989,0.5030832290649414,0.7985858917236328,0.9381015300750732,0.970177412033081,0.8329305648803711,0.13227760791778565,0.614424467086792,-0.4178682565689087,-0.586920976638794,0.0,-0.5846798419952393,0.0,-0.0680779218673706,0.0,-0.09424173831939697,0.9237244129180908,0.8979952335357666,-0.4443296194076538,0.37536928057670596,0.0,0.0,0.0,0.0,0.0,0.0,0.0,0.0,0.0,0.0,0.0,0.0,0.0,0.0,0.0,0.0,0.8727395534515381,0.583301305770874,0.11121118068695069,0.09123861789703369,-0.10587656497955322,0.02607905864715576,0.46758267283439639,-0.168207049369812,0.0,0.012693285942077637,-0.6528286933898926,-0.3733421564102173,0.11189806461334229,-0.1960364580154419,-0.7193918228149414,-0.8041226863861084],"biases":[-0.8210797309875488,0.1890273094177246,-1.4335923194885255,-0.8902540802955627,0.6261518001556397,-0.7468273639678955,0.7241452932357788,0.2653903663158417,-0.31597042083740237,0.0,0.4140850901603699,-0.2443305253982544,-1.3498377799987794,0.5509078502655029,0.0,0.7783682346343994],"activeNeurons":[false,false,false,false,false,false,false,false,false,false,false,false,false,false,false,false]}