{"neurons":16,"activationFunction":0,"weightsFlat":[0.7399268746376038,-1.0446343421936036,1.1264472007751465,-1.1745452880859376,-0.52091383934021,0.07965223491191864,-0.012373987585306168,-0.009749054908752442,1.284002661705017,-0.4180755317211151,-1.2809834480285645,1.115540862083435,1.291756510734558,0.6294572353363037,-0.6368594169616699,1.4480679035186768,0.8820280432701111,0.5130792856216431,-1.3080699443817139,-0.4209531843662262,-1.2806835174560547,1.041077733039856,-0.7488528490066528,-0.05939659848809242,0.39505118131637576,1.2845662832260132,0.6956141591072083,0.07282145321369171,0.6260857582092285,0.06594197452068329,0.3187645375728607,1.2967485189437867,-0.31993144750595095,1.3476152420043946,0.5905524492263794,-0.5271682739257813,1.3003166913986207,1.0104155540466309,0.763593316078186,0.13701429963111878,0.9884073138237,-0.4913116693496704,-0.27362528443336489,0.8804881572723389,0.7716404795646668,1.407065987586975,1.0357472896575928,1.336838960647583,1.13707435131073,1.3056663274765015,0.8892439007759094,0.4602178633213043,-1.1814110279083253,-1.1041183471679688,1.4381787776947022,-1.1531269550323487,-1.085017442703247,-1.377380609512329,-0.1663479506969452,0.1383858472108841,0.8039669394493103,0.23226237297058106,-0.6377963423728943,-0.6907086968421936,-0.10685685276985169,0.7731871008872986,0.617405891418457,-0.6245189905166626,-1.185915231704712,-0.837943971157074,0.2572639584541321,0.6983640193939209,0.19789031147956849,-0.6609939932823181,0.8669891953468323,-0.6634489297866821,-0.07856747508049011,1.1803417205810547,-0.41588443517684939,0.32207608222961428,0.7986282110214233,-0.16072990000247956,0.5602831840515137,-1.4432671070098878,-0.8329901695251465,-1.1798268556594849,-0.37290218472480776,-0.22933197021484376,-1.1289316415786744,-1.227158546447754,-0.5609502792358398,-0.211673766374588,1.5209780931472779,0.7333202362060547,-1.1269757747650147,-0.6634529829025269,-0.8573694825172424,0.6350260972976685,0.5927156805992127,0.6223730444908142,0.08247461915016175,-0.7223302125930786,-1.2855340242385865,0.6568496823310852,0.7729966640472412,1.1599431037902833,-0.247979074716568,0.8651570677757263,-1.094596266746521,0.9983512163162231,-1.0814427137374879,0.835923433303833,0.928523600101471,0.7071306705474854,-1.0692577362060547,0.4254910945892334,-1.4600186347961426,0.24042855203151704,-0.9691200256347656,-0.9901033639907837,0.18058624863624574,1.891000747680664,-0.8713203072547913,0.35207828879356387,0.8701598644256592,0.2781987190246582,0.006485074758529663,-0.9420686364173889,0.23125070333480836,-0.21646752953529359,1.2927457094192505,0.14617213606834413,-1.2341079711914063,-1.1450514793395997,-0.8147662281990051,1.0723153352737427,1.1417924165725709,1.1483738422393799,0.06713959574699402,-0.9802167415618897,-1.378271460533142,0.8611208200454712,-1.218719720840454,1.116445541381836,-1.1930004358291627,0.021889150142669679,-0.5544070601463318,1.1865668296813965,-0.5625179409980774,0.629770040512085,0.005201652646064758,-0.3346482813358307,0.6850379705429077,-0.24668700993061067,-0.608931303024292,-0.8359429836273193,-1.1650240421295167,-1.4069430828094483,-1.4184606075286866,0.0765012577176094,1.4711153507232667,0.2398173213005066,1.414717674255371,0.025264699012041093,-1.2430378198623658,0.27358853816986086,-0.8302676677703857,0.6807731986045837,-0.6251261830329895,-0.23263505101203919,-0.8123699426651001,1.3713200092315674,1.3787137269973755,0.5192888379096985,-1.1548765897750855,1.2230019569396973,-0.6811171174049377,-1.38993501663208,-0.48943445086479189,-1.3882310390472413,1.2393745183944703,0.07980173826217652,1.2372967004776,-0.9794647097587586,0.2938569486141205,-0.866904616355896,0.7979637980461121,0.5138224363327026,-0.47508662939071658,-1.3657341003417969,-1.4627151489257813,1.1030291318893433,0.05893900990486145,-0.4667929410934448,-0.9116794466972351,0.8801696300506592,-0.5473318696022034,-0.08997854590415955,-0.7029352188110352,0.49264460802078249,-0.8069134950637817,-0.42250996828079226,-0.7044923305511475,-0.14067786931991578,-0.2664779722690582,-1.2560863494873047,0.10535217821598053,-0.13359872996807099,1.3907911777496338,-0.8493416905403137,0.3307432532310486,1.4979811906814576,-0.5759392976760864,0.08006447553634644,1.250145435333252,0.24884574115276338,-0.1135263741016388,-0.5580230355262756,1.0277756452560425,-1.3990238904953004,-1.2932204008102418,-0.6785563230514526,0.995469331741333,-0.36308252811431887,-0.06514811515808106,0.9541839361190796,0.9983148574829102,0.8741673827171326,-0.6467073559761047,1.2803484201431275,0.9310488700866699,-0.13788512349128724,-0.7151964902877808,-0.01217425987124443,-0.807015597820282,-0.07217720150947571,-1.0123271942138672,-0.19053244590759278,1.8142200708389283,-0.16370132565498353,1.8684521913528443,1.252508521080017,-1.26338791847229,0.7543981075286865,0.12975668907165528,0.2925797700881958,0.15488125383853913,0.5864031314849854,1.3043241500854493,-1.1215472221374512,-1.0501022338867188,-0.7550418376922607,-0.9857938289642334,-0.38762593269348147,-1.086430311203003,0.8194034099578857],"biases":[-0.6572394967079163,-0.8792074918746948,0.8905432820320129,0.25805792212486269,1.4179887771606446,0.08592478930950165,0.24225158989429475,-0.1117609292268753,1.1694285869598389,-0.8279329538345337,-1.3482065200805665,-1.463851809501648,-0.9086788892745972,-0.9254768490791321,-1.442689299583435,-1.4100360870361329]}