{"neurons":4,"activationFunction":0,"weightsFlat":[1.6018251180648804,-0.7936774492263794,-0.7273193001747131,0.3504542410373688,-0.40813228487968447,-1.304471492767334,-1.2847464084625245,-2.69413685798645,0.057665158063173297,-1.3792226314544678,1.0654855966567994,1.3490105867385865,-0.9161919951438904,-0.5826491713523865,-0.21087521314620973,-0.16777586936950684,-0.002088986337184906,-2.0266361236572267,0.14186590909957887,1.4071969985961915,1.5955623388290406,1.0252280235290528,-0.45666787028312685,0.9790575504302979,0.004165619611740112,1.9157094955444337,0.23915646970272065,-2.097792387008667,-0.716776967048645,-0.9793347716331482,0.025443479418754579,0.5178821682929993,0.004309501498937607,0.9340440034866333,0.6371025443077087,-0.5769736170768738,0.37898775935173037,0.12673911452293397,-0.5973134636878967,-0.1165703535079956,0.15513485670089723,0.1741824895143509,-0.009950898587703705,0.6544806957244873,-1.5376379489898682,-0.5878372192382813,0.2120046317577362,-0.3252791166305542,0.7817705869674683,0.6135527491569519,-0.5934371948242188,0.2652219533920288,-0.8481404781341553,0.6036508679389954,-1.245678186416626,1.0590347051620484,0.7634003162384033,-1.3507132530212403,-0.5816470384597778,-1.1458274126052857,0.8582949042320252,3.3114399909973146,-0.8612900376319885,1.1841199398040772],"biases":[1.9364434480667115,-0.06405776739120484,1.8573150634765626,1.5716981887817383]}