{"neurons":4,"activationFunction":0,"weightsFlat":[0.7576959133148193,-0.9324772357940674,0.0,0.6947784423828125,0.0,0.0855785608291626,0.50469970703125,0.0,0.0,-0.369270920753479,-0.5307495594024658,0.0,0.0,-0.2887226343154907,-0.15150988101959229,0.5073328018188477,-0.01801145076751709,0.501577615737915,0.10567748546600342,0.0,-0.32875096797943118,0.8787353038787842,0.30382630228996279,0.6208968162536621,-0.7128984928131104,-0.7506616115570068,-0.02229464054107666,0.2641596496105194,-0.4681037664413452,0.9373815059661865,-0.35009849071502688,0.5468695163726807,-0.18625175952911378,0.7425394058227539,0.8821108341217041,0.4235553443431854,0.41006729006767275,-0.9843111038208008,0.23249661922454835,0.9566042423248291,0.0,-0.8930144309997559,-0.8720154762268066,-0.973771333694458,0.8674647808074951,0.7289049625396729,0.7998142242431641,-0.03508102893829346,-0.9335691928863525,-0.9283692836761475,0.0,0.0,-0.8392100930213928,0.6820984482765198,0.0,0.2709113359451294,0.04895884543657303,0.061097025871276858,-0.7014532089233398,0.16889727115631104,0.9311773777008057,-0.7310566902160645,0.6740400791168213,-0.3938499093055725],"biases":[-0.12418782711029053,-0.1792067289352417,-0.6424462795257568,-0.8556668758392334],"activeNeurons":[false,false,false,false]}