{"neurons":4,"activationFunction":0,"weightsFlat":[0.10461921989917755,0.8975845575332642,-0.8652018308639526,0.05885643884539604,0.33122318983078005,0.8064479827880859,0.8405712842941284,0.1433325558900833,-0.4963367283344269,0.7651532888412476,-0.13441650569438935,0.5583404898643494,-0.2339610904455185,-0.08791594207286835,0.37073037028312685,-0.6347498893737793,0.5808205008506775,-0.714259922504425,0.6655808091163635,-0.5011995434761047,-0.3899400234222412,-0.09599760174751282,-0.47470995783805849,0.28855985403060915,0.4350748062133789,-0.5397034287452698,-0.42787501215934756,-0.5921288132667542,-0.0675915777683258,0.6858800649642944,0.6863951683044434,0.8040499687194824,-0.07948623597621918,0.9271253943443298,0.5430735945701599,-0.11088041961193085,-0.4615156352519989,-0.6249815225601196,-0.6123740673065186,0.7623470425605774,-0.6564554572105408,-0.5971900224685669,0.938290536403656,0.9167400002479553,0.31550610065460207,0.923210084438324,-0.6487938761711121,0.6780001521110535,1.0195552110671998,-0.4035804867744446,0.4055522084236145,-0.09212885797023773,0.19989728927612306,-0.23542653024196626,0.3519335687160492,-0.9929739832878113,-0.7223562598228455,-0.4975278079509735,0.9309706687927246,0.8558336496353149,0.750726044178009,-0.780354380607605,-0.2942821979522705,0.531261146068573],"biases":[-0.660308837890625,0.7426875233650208,0.6969979405403137,-0.321695476770401]}