{"neurons":16,"activationFunction":1,"weightsFlat":[1.898324966430664,-0.591732919216156,-1.6554088592529297,-0.6005060076713562,1.3449177742004395,0.17449095845222474,1.1744869947433472,-1.1177603006362916,-1.1743807792663575,-0.5868420004844666,-0.4223829507827759,0.4271497428417206,-1.6768994331359864,-0.7797656655311585,1.3850715160369874,-1.4537776708602906,1.2804512977600098,1.8893975019454957,-0.1812516450881958,-0.29570597410202029,2.287551164627075,-0.7886347770690918,0.5865800976753235,0.5579220056533814,-0.5447682738304138,-1.4591397047042847,-1.0417909622192383,1.5617130994796754,0.35666072368621828,-0.6233277320861816,-0.666739284992218,-0.6004678010940552,0.1652102917432785,2.015444040298462,0.9221148490905762,0.5575103163719177,-0.15273678302764893,-1.0546224117279053,0.5667207837104797,-1.0092095136642457,0.7184768915176392,0.9609586000442505,0.727352499961853,-1.8787662982940674,2.038031816482544,0.18755432963371278,0.9688578844070435,-0.5851221084594727,1.713148832321167,-0.23028859496116639,0.7509864568710327,0.02375931292772293,-1.3681399822235108,-0.14390219748020173,-2.012267589569092,0.6823388934135437,0.1160016655921936,0.4934133291244507,-0.9368208050727844,0.11020863056182862,-0.7240537405014038,-0.021715566515922548,0.43453213572502139,1.4041112661361695,-0.8568354845046997,-0.9724915623664856,-1.0105268955230713,-1.8618123531341553,-0.04009650647640228,-1.0494968891143799,-1.1347746849060059,-1.477310061454773,-0.8846904039382935,1.2123247385025025,1.0733401775360108,0.2586648166179657,-1.891013503074646,-0.5088081955909729,1.071507215499878,-2.023595094680786,-0.32210928201675417,1.6584045886993409,-2.182995319366455,-0.5746411085128784,0.5085921287536621,0.13103654980659486,-1.207821249961853,-0.7973677515983582,-0.4904823899269104,0.8066330552101135,0.03899998217821121,-2.1385180950164797,-1.698088526725769,-0.12524056434631349,0.661300003528595,0.11789879947900772,0.0944649800658226,-0.21895191073417664,1.7781696319580079,1.1027683019638062,-0.9342407584190369,0.2321752905845642,2.2341110706329347,0.7797234654426575,-1.7820605039596558,0.9323467016220093,2.177297830581665,-0.17232955992221833,-1.4386916160583497,-2.335019111633301,0.3875490725040436,-0.3652295768260956,-0.12353367358446121,0.9479117393493652,-0.7370229363441467,0.6133183240890503,2.1348822116851808,-0.4685283899307251,-1.3006891012191773,1.7342017889022828,0.006437093019485474,-0.4066486060619354,1.3358484506607056,-1.8388142585754395,0.7651249766349793,0.5264152884483337,-1.670028805732727,0.5143535733222961,-1.7548253536224366,2.661715269088745,1.0619840621948243,0.45718881487846377,-0.19061017036437989,-0.3824363350868225,-0.7448609471321106,1.1676199436187745,-0.08806812763214112,-1.3771487474441529,1.2238160371780396,-1.043395757675171,-1.1794986724853516,-0.4682742953300476,-0.012652114033699036,-0.356904536485672,-0.14114736020565034,1.1509274244308472,-1.682189702987671,1.1060103178024293,-0.18506938219070435,-0.020929813385009767,-0.22636644542217256,-0.048571400344371799,0.07859105616807938,1.4092704057693482,0.2412005215883255,0.8665963411331177,0.07442182302474976,-0.8467802405357361,-0.09534034132957459,-1.0511398315429688,-1.7897756099700928,-1.2963141202926636,1.3780244588851929,-1.2051184177398682,-0.9696677923202515,-0.3506275415420532,1.054315209388733,-0.9146938323974609,-1.8046643733978272,-1.3130531311035157,-1.994140625,0.1887885332107544,-0.6824342012405396,0.8815743923187256,0.7872439026832581,1.6704118251800538,-1.0994406938552857,0.17637570202350617,0.33939704298973086,-0.8260539174079895,-0.1347704827785492,-1.3218321800231934,1.6356374025344849,-1.8322941064834595,1.35847806930542,-1.01004159450531,-1.150193452835083,0.7749261856079102,0.6499919295310974,1.0698561668395997,1.965803861618042,-1.0455551147460938,0.7490284442901611,0.23277762532234193,-1.400991678237915,-0.56222003698349,-0.8740355372428894,1.6000288724899293,-0.7273797988891602,-0.09422825276851654,1.479796290397644,0.8270875811576843,1.4648922681808472,-0.12293098866939545,-0.32079416513442995,-0.9424250721931458,0.34134161472320559,-0.7390520572662354,-2.3357298374176027,1.3712493181228638,1.7742774486541749,-0.2989901602268219,1.1989963054656983,0.03188300132751465,-0.6923523545265198,-1.269195795059204,-0.6851155161857605,-0.5010672807693481,-2.055540084838867,0.6415880918502808,-1.0258816480636597,0.7516578435897827,-0.19211098551750184,-0.7244002223014832,0.05102263763546944,0.804106593132019,1.2655625343322755,-0.3003559112548828,0.5165262818336487,-0.07504826784133911,-0.12110085785388947,-0.4516083896160126,0.8369715213775635,1.9227172136306763,0.6883078813552856,-0.3917859196662903,0.6961328387260437,0.5949977040290833,-1.9642504453659058,0.11923957616090775,0.5063592195510864,-1.1572915315628052,2.029252290725708,-2.526061534881592,-0.8250031471252441,-0.12911400198936463,-0.2998596131801605,-0.8562718033790588,-1.3745566606521607,-0.19243797659873963,-0.36735841631889346,-1.799941897392273,0.8821877837181091,-1.2852022647857667,-0.5565053224563599,-1.2275832891464234],"biases":[1.3623542785644532,0.5560433864593506,0.5219600200653076,1.7855936288833619,-0.7918581962585449,-1.0736387968063355,-0.7088582515716553,-0.8913896679878235,1.4198075532913209,-0.4421907365322113,-0.2992281913757324,0.7190624475479126,0.18004000186920167,0.3132828176021576,1.5863503217697144,0.8619054555892944]}