{"neurons":4,"activationFunction":0,"weightsFlat":[-1.1955735683441163,0.3437952995300293,-0.9371699690818787,1.4902963638305665,0.45141106843948367,0.7524093389511108,-0.7533338069915772,0.46243816614151,-0.06344485282897949,-0.819298267364502,1.2021524906158448,0.3390538692474365,0.14412212371826173,-0.5866436958312988,0.7603232264518738,0.27187180519104006,0.7920834422111511,-1.4587807655334473,-0.6965005397796631,-0.5053162574768066,-0.14357304573059083,-0.36675047874450686,-1.168346643447876,1.001413106918335,-1.205674648284912,1.4417924880981446,0.057473182678222659,-0.3973512649536133,-1.3559324741363526,0.5059275031089783,0.6346907019615173,0.41569405794143679,-1.432999610900879,-0.2263650894165039,-0.7327728271484375,-0.877443253993988,0.05824732780456543,0.6512717604637146,0.15301275253295899,0.1661829948425293,-0.10451865196228028,1.1516979932785035,-0.5328667163848877,1.2733049392700196,-1.4691767692565919,-0.6407380104064941,-1.151947021484375,0.447714626789093,-0.36560702323913576,0.8234857320785523,-0.8086574077606201,-0.021636962890625,1.4707589149475098,1.0199384689331055,0.4736430048942566,-0.2851691246032715,-0.9861269593238831,-0.7665202617645264,0.8733267784118652,-0.8318474292755127,0.8004101514816284,1.39451265335083,0.33965301513671877,0.43366163969039919],"biases":[-0.3767496347427368,0.44826290011405947,-0.5836141109466553,0.04650771617889404]}