{"neurons":32,"activationFunction":1,"weightsFlat":[-1.9632456302642823,-0.697526216506958,-1.22380793094635,-1.2674829959869385,-1.510027289390564,-0.008095771074295044,1.9651389122009278,-1.1909327507019044,-0.2537872791290283,1.1199687719345093,-2.3277180194854738,-0.5645388960838318,1.1052294969558716,1.6005500555038453,0.20531365275382996,-0.08758407831192017,2.122299909591675,1.5176656246185303,-0.0016401708126068116,0.08782567828893662,0.2821767032146454,1.925269603729248,1.779951810836792,-0.49291589856147768,-0.07309555262327194,-1.0885608196258546,-1.9373819828033448,0.35269272327423098,-1.5402220487594605,1.746031403541565,0.0008750036358833313,0.8799856901168823,0.24164338409900666,1.0655739307403565,0.670446515083313,2.098665237426758,-0.3006323575973511,0.6278929710388184,1.535394310951233,0.14294613897800446,-0.19131043553352357,-0.23719573020935059,0.7736619710922241,1.3295353651046754,1.0096997022628785,1.5311681032180787,-1.624567985534668,0.8897504210472107,1.1122876405715943,2.4622864723205568,-1.576494574546814,-1.027214765548706,-1.7022985219955445,0.8398706316947937,-0.8950436115264893,-0.28638866543769839,0.7848380208015442,-0.7486016750335693,0.7589114904403687,1.7737066745758057,-0.5025359988212586,0.5920789837837219,-0.4250282049179077,1.1053935289382935,1.932248592376709,1.2486499547958375,0.23897984623908997,-2.0388851165771486,0.44337213039398196,-0.16657184064388276,1.585170865058899,1.0288759469985963,-0.5394133925437927,-0.20537137985229493,1.1594327688217164,1.515727162361145,0.3289089500904083,0.4437934458255768,-0.883855402469635,-0.26418155431747439,1.7948764562606812,-0.5855908989906311,-0.41409367322921755,0.5791235566139221,0.8905203938484192,-0.549449622631073,-1.933042287826538,-0.1881943941116333,-0.7652134299278259,-0.8841495513916016,-1.321738362312317,-0.23152729868888856,0.8456959128379822,1.9112476110458375,1.6673274040222169,-1.7457085847854615,-1.4490848779678345,-1.5327978134155274,0.22087819874286652,1.4645075798034669,0.2632485032081604,1.5236270427703858,-1.152024745941162,-0.5787814855575562,1.5623775720596314,-0.21670354902744294,1.600285530090332,-0.4459875524044037,0.06534185260534287,-0.35269519686698916,1.1817508935928345,-1.18025803565979,1.104403018951416,-0.27852368354797366,-0.9262529611587524,0.21140217781066895,-1.0411702394485474,-0.5138975977897644,0.648219883441925,1.759612798690796,1.176642894744873,1.220664620399475,-0.43032899498939516,1.2536895275115967,0.9123246073722839,-2.0996551513671877,1.2398744821548463,-0.7478801608085632,0.0657748207449913,-1.3800619840621949,-1.0523537397384644,0.17523038387298585,0.10924653708934784,0.9793502688407898,-0.5491867065429688,1.971824288368225,-0.17557156085968018,0.20428693294525147,-0.8376872539520264,-0.7550866603851318,0.8467677235603333,-0.8560773730278015,0.5915907025337219,-0.24527457356452943,1.1095596551895142,1.0237621068954468,1.4254230260849,0.24627354741096497,-0.6519229412078857,-0.8707212209701538,0.440285325050354,1.0934665203094483,-0.19193562865257264,1.0213135480880738,0.17435979843139649,-0.43693313002586367,0.4405093789100647,2.2870521545410158,-0.3400183916091919,2.4747202396392824,-1.2121833562850953,-1.2622065544128419,-0.23686590790748597,0.4076850116252899,0.6377921104431152,-1.379409909248352,-1.2642884254455567,-1.6167500019073487,0.04726173356175423,0.9800884127616882,-0.5687134861946106,0.10797131061553955,0.37183916568756106,-0.046242374926805499,-1.1944115161895753,-1.1141465902328492,1.2319962978363038,-0.7148194909095764,1.1415882110595704,-1.9677022695541382,-0.05142132192850113,-0.09338974952697754,0.0658484473824501,-1.5857549905776978,-1.7848418951034547,0.7220090627670288,1.2080916166305543,-0.8158121109008789,0.5852391719818115,1.697441816329956,1.4229904413223267,-1.5181483030319214,1.0554393529891968,-1.2122353315353394,0.29077887535095217,-1.464062213897705,-1.6384098529815674,0.6264036297798157,0.5642847418785095,0.12170705199241638,0.8784388899803162,1.4327406883239747,1.057842493057251,-0.6482451558113098,-0.07582826167345047,1.2861528396606446,-0.32116609811782839,-0.15286663174629212,-1.4574726819992066,-1.6749893426895142,1.1921095848083497,1.1827409267425538,0.8377617001533508,-0.6244707107543945,0.7209614515304565,-0.9363731145858765,0.6559396982192993,0.6582720875740051,1.784013271331787,0.7974374294281006,-0.6259526610374451,-0.5473265647888184,0.9154582023620606,1.0133459568023682,0.3226543962955475,0.22340607643127442,0.9874901175498962,1.1349958181381226,-1.1356472969055176,-0.7512091994285584,-0.6640898585319519,0.13976100087165833,-1.1719019412994385,0.5427225828170776,0.8266074061393738,1.0123530626296998,-1.751102089881897,1.0570120811462403,-1.348872423171997,0.15505200624465943,-0.9456955194473267,0.8854012489318848,1.1682167053222657,-1.4059821367263795,-0.6405701041221619,-1.0942376852035523,0.028328776359558107,-0.9424889087677002,1.4901386499404908,0.640714704990387,-0.7882853746414185,-1.4029430150985718,-1.0337198972702027,-1.6425269842147828,1.991353988647461,-1.0543758869171143,-0.292132169008255,0.26188787817955019,1.3628895282745362,-0.3306320905685425,-1.3650236129760743,-0.27522513270378115,-0.6974281072616577,-0.8405295610427856,-0.14176231622695924,1.3093067407608033,-0.09115101397037506,-1.6131993532180787,-0.3992787301540375,-1.624091386795044,1.0569312572479249,-0.559568464756012,0.24468368291854859,0.8420605659484863,1.3537954092025757,0.32719388604164126,-1.8365405797958375,0.3852488398551941,-1.5788853168487549,1.2532169818878174,0.6070173978805542,-0.8116278052330017,2.1084787845611574,-1.1726930141448975,-1.208603024482727,1.3097116947174073,-0.14982688426971436,1.377175211906433,2.150658130645752,-1.3203630447387696,0.3777419328689575,0.502281665802002,0.5590852499008179,0.3949580490589142,-0.9952405691146851,-1.5397154092788697,-1.1766680479049683,-0.307233601808548,1.133949875831604,-1.4385840892791749,-0.6128682494163513,-1.1835042238235474,-0.7271437644958496,0.02273590862751007,0.5784583687782288,2.0519230365753176,-0.1526343822479248,0.5612207651138306,-0.7141070365905762,-0.9199795126914978,-0.19411030411720277,1.8474764823913575,-1.4332963228225709,0.3860888183116913,0.7766305804252625,1.1539113521575928,0.4354487657546997,-0.1581851691007614,0.8246915340423584,-1.1359561681747437,1.092217206954956,-1.1886122226715088,1.2218493223190308,-1.6946420669555665,1.2718099355697632,0.8761445879936218,0.32687628269195559,-1.7604209184646607,-2.1556193828582765,-1.2488945722579957,2.0537400245666506,0.7343258261680603,-0.9679951667785645,1.2960654497146607,0.3572695553302765,0.6748197078704834,0.27942219376564028,-0.8301978707313538,1.4595599174499512,1.9017066955566407,2.206529378890991,-0.6039219498634338,-1.7500464916229249,-0.1547122299671173,2.578373908996582,1.8670613765716553,-0.30739930272102358,-0.7311919331550598,0.18975111842155457,-0.19419877231121064,0.48888880014419558,-1.232209324836731,1.2122951745986939,-0.5839630365371704,-0.08311188220977783,0.5240870714187622,-1.1212109327316285,-1.3591464757919312,0.09870962798595429,-1.2052643299102784,-1.790814995765686,0.11205296218395233,-1.8010890483856202,0.1383756399154663,-0.0030885078012943269,1.7784544229507447,0.256698340177536,0.1660882532596588,-0.8903533220291138,-1.9427733421325684,0.0015514418482780457,0.04630868136882782,-0.20744508504867555,-1.117255687713623,0.7716064453125,1.310065507888794,-0.26810336112976076,1.9359514713287354,-1.064589262008667,-0.14693404734134675,-0.6636642217636108,1.2641489505767823,1.0053646564483643,-1.1266210079193116,-1.0543491840362549,0.4390789270401001,1.5898888111114503,-0.07998891919851303,-1.3520034551620484,0.19963842630386353,2.0349042415618898,-0.30096036195755007,-1.4992992877960206,0.8993567824363709,1.0296651124954224,-0.20617985725402833,-2.3103907108306886,1.2781298160552979,0.11307357996702194,-1.2815449237823487,1.5797220468521119,0.6197010278701782,1.1154080629348755,0.9173135161399841,-1.3699133396148682,-0.47345125675201418,0.5040618777275086,-0.09497290849685669,1.72219979763031,0.08294087648391724,-0.8791744112968445,-1.964570164680481,0.31760838627815249,-1.3578171730041505,1.0208998918533326,1.19497549533844,1.3079339265823365,-0.7642278075218201,-0.04723745211958885,1.4600268602371216,-0.19781355559825898,-0.6582653522491455,-0.9735111594200134,2.0602211952209474,0.8969913721084595,1.1483182907104493,-0.6457914710044861,-0.346317857503891,-1.6177630424499512,-0.23856477439403535,1.3672455549240113,1.8943547010421754,2.247925281524658,-0.8027417063713074,-1.8581942319869996,0.03899940103292465,0.8811086416244507,-0.2168799340724945,-0.6739414930343628,0.8058990836143494,-0.5515844821929932,1.4621782302856446,-0.44320300221443179,-0.5812990665435791,1.3632938861846924,-1.5930874347686768,-1.042164921760559,0.4749835133552551,-0.26767539978027346,0.13685737550258637,0.6917034983634949,-0.9375224113464356,-0.7267879843711853,0.7898820638656616,1.1945080757141114,1.76164710521698,-0.60884690284729,0.9908770322799683,0.7214124798774719,0.15638458728790284,0.7266061305999756,-0.4983873963356018,-0.7644273042678833,0.5895373225212097,1.7336294651031495,-1.3875479698181153,1.1517239809036255,-1.2336729764938355,2.2717535495758058,-0.2283860594034195,0.05762972682714462,-1.0869427919387818,-0.22453594207763673,-1.128114104270935,-0.26261869072914126,-1.9334636926651,-1.406348466873169,-0.22264018654823304,0.35828477144241335,-0.563463032245636,-1.3646082878112794,-1.6066430807113648,1.5173168182373047,0.20482274889945985,0.32654252648353579,0.5265673995018005,1.249952793121338,0.5865577459335327,0.5735781788825989,-0.4691443145275116,1.4130586385726929,-1.564899206161499,-1.5181635618209839,-1.6621782779693604,-1.3491743803024293,-1.9789074659347535,-0.49023064970970156,0.16298869252204896,1.9626121520996094,-0.3676503896713257,-1.8024191856384278,1.4746249914169312,1.263506293296814,0.37208321690559389,-1.9249649047851563,0.9760910868644714,1.7796968221664429,-1.124863862991333,-1.4015716314315797,-0.08348514884710312,1.1332863569259644,1.6634546518325806,0.8268455266952515,1.044562816619873,1.2054985761642457,-1.3940017223358155,-0.29908207058906557,1.3257068395614625,0.2506384551525116,-0.5814154744148254,-0.48985108733177187,-0.29888761043548586,2.215701103210449,-1.117319941520691,1.1534901857376099,-1.398280143737793,-0.574260413646698,-0.623535692691803,-1.0133090019226075,-1.086373209953308,-1.3826082944869996,-1.2855831384658814,0.24281544983386994,0.3602481782436371,0.05607209354639053,1.7311893701553345,1.1369303464889527,0.3750508725643158,0.1879114806652069,-1.8591641187667847,1.6815871000289918,0.23178689181804658,0.3840530812740326,0.4232754111289978,-0.4249618947505951,-1.1506677865982056,-0.6984502673149109,-1.058148741722107,-1.395879864692688,-0.23178794980049134,-1.1928200721740723,1.9351296424865723,0.8064851760864258,-0.7740468978881836,-1.1262736320495606,-0.29340800642967226,-0.13735362887382508,0.20141512155532838,1.294881820678711,1.7491239309310914,-0.8330312967300415,2.0055809020996095,0.760459303855896,0.013464264571666718,0.07483016699552536,-0.31018370389938357,-2.0702600479125978,-0.34007900953292849,-0.62076735496521,-0.12640070915222169,-1.4448506832122803,0.9396101832389832,-0.3162153959274292,0.4728141725063324,-0.8336488604545593,-0.5166694521903992,-1.1762460470199586,1.905238389968872,1.6967750787734986,-1.569016933441162,-0.7522725462913513,-0.902826189994812,0.016766883432865144,2.672063112258911,-0.27875223755836489,-0.2747664749622345,-2.088334321975708,-1.514939785003662,-0.6847243905067444,1.6764416694641114,-1.6166496276855469,1.3308438062667847,-0.798667311668396,0.19945979118347169,0.40745970606803896,-1.5197430849075318,-1.618520736694336,-1.5422827005386353,0.5962663292884827,1.2981815338134766,0.04597364738583565,-1.068779706954956,0.7150264978408814,-0.21912029385566712,-1.9225611686706544,-1.6219552755355836,-1.1641533374786378,1.600479245185852,-0.4654078483581543,0.1256096363067627,0.07092512398958206,-0.822626531124115,1.6247496604919434,-0.8593457937240601,1.834479570388794,1.1172277927398682,0.8442083597183228,-0.008488260209560395,-0.9976885318756104,-0.44925588369369509,-1.771938681602478,1.6214779615402222,0.16108641028404237,0.5120002627372742,0.9631866812705994,-0.3425999879837036,0.44614243507385256,-1.1945509910583497,-1.8616222143173218,-0.9619184732437134,-1.0261585712432862,-1.1001025438308716,1.273039698600769,-2.9093291759490969,0.602533221244812,-0.6632229089736939,-1.0567516088485718,-0.3737315535545349,-0.7460390329360962,0.6219024062156677,-1.5442678928375245,-0.04208928346633911,-0.935816764831543,-0.8101053237915039,-0.4268121123313904,1.2381782531738282,-0.008573673665523529,-0.833256185054779,0.1610935479402542,1.8956800699234009,-1.3359917402267457,1.9103331565856934,2.1237382888793947,-0.9373106360435486,-0.7058041095733643,-1.8449623584747315,-0.9001843333244324,-0.9167585372924805,-1.4366557598114014,-1.0549519062042237,0.7207996845245361,-1.8316494226455689,0.5827818512916565,0.32397717237472536,-1.3478350639343262,1.2869421243667603,1.570410966873169,0.13947570323944093,-0.7675984501838684,0.19693905115127564,-0.17382581532001496,1.3278319835662842,-1.3628393411636353,-1.4302986860275269,-2.1999242305755617,1.4303560256958008,-1.620977520942688,-1.408351182937622,0.25346171855926516,1.147377371788025,-0.9290377497673035,0.0882018655538559,0.631198525428772,-0.7396202087402344,-0.31680017709732058,-0.34328630566596987,-0.5588287711143494,-0.8183841705322266,0.11397038400173187,-0.33097004890441897,1.1916372776031495,0.9353634119033814,-0.5661740303039551,-0.3273196220397949,-0.3181018531322479,-1.0245481729507447,0.41442257165908816,2.4614129066467287,-0.31045961380004885,-0.11823450773954392,0.664721667766571,0.5780338048934937,0.5559922456741333,1.281056523323059,1.218603253364563,-1.2319296598434449,1.376101016998291,1.5070655345916749,1.3358824253082276,0.4594463109970093,1.0403157472610474,-0.10988543182611466,-0.24014317989349366,1.3614143133163453,-0.6492525935173035,-0.8362314701080322,0.39783644676208498,-0.7618762850761414,-1.5754783153533936,-0.013124741613864899,-1.435402274131775,-0.28330180048942568,-1.797929286956787,-0.8453472256660461,0.13083858788013459,0.9816950559616089,0.27033039927482607,0.22591760754585267,0.4704926609992981,0.6625537276268005,-0.4577058255672455,-1.692354440689087,-0.3500228822231293,0.9249729514122009,-0.4033581018447876,0.9468330144882202,-0.3234848082065582,0.5269978642463684,0.9539936184883118,-0.3074555993080139,0.033423297107219699,0.5228864550590515,1.1657874584197999,1.319623351097107,2.342452049255371,-1.6756641864776612,-1.3513332605361939,1.2961468696594239,-0.37527012825012209,0.4606916308403015,-0.11466681957244873,-0.7709807753562927,-2.159864902496338,2.4594998359680177,-0.026159323751926423,-1.468188762664795,1.0743191242218018,-0.9636538624763489,1.9868108034133912,-1.2310632467269898,-0.8145060539245606,-2.1869428157806398,-0.11465487629175186,1.5881050825119019,0.6117373108863831,-1.6979637145996094,-0.06433642655611038,-0.3832606077194214],"biases":[-1.3706226348876954,0.3842320144176483,1.6866611242294312,-0.505799412727356,1.5311851501464844,-1.3417853116989136,1.3522212505340577,0.13296450674533845,-0.881354570388794,-1.8508015871047974,0.23063161969184876,1.119812250137329,0.7295236587524414,-1.0324569940567017,0.34372711181640627,0.6281445622444153,-0.11120003461837769,-0.6558284163475037,-0.14858843386173249,1.0067046880722047,-0.5829046964645386,0.4628099799156189,-1.6426150798797608,1.8602508306503297,1.845126986503601,0.24597454071044923,1.0221697092056275,0.04994897544384003,0.12668386101722718,0.42176446318626406,0.2992931008338928,0.4474228322505951]}