{"neurons":16,"activationFunction":1,"weightsFlat":[-0.8734586238861084,0.7531177401542664,0.24746564030647279,-0.6519731879234314,0.6870913505554199,0.505831778049469,0.34416860342025759,0.8641434907913208,0.21795114874839784,-0.6327946782112122,-1.1006852388381959,0.9765354990959168,0.5739129781723023,-0.26872602105140688,0.4988386929035187,0.6243430972099304,0.9544499516487122,0.4178241491317749,-0.33817124366760256,-0.8403893113136292,-0.05707060918211937,0.550297200679779,-0.7658811211585999,-0.4430447816848755,-0.404807448387146,0.21146750450134278,-0.19086727499961854,-0.7726988196372986,-1.2464523315429688,0.5589057803153992,-0.05445719510316849,0.32623961567878725,-0.7259023785591126,-0.030335567891597749,0.8261727690696716,-0.6026282906532288,-0.9545636177062988,0.41117388010025027,-0.36672666668891909,-0.38982120156288149,-0.9720121622085571,0.1320582628250122,0.040401943027973178,-0.9079767465591431,0.0343017540872097,-0.26392635703086855,-0.5094995498657227,-0.07279561460018158,-0.5941990613937378,-0.689970076084137,0.6631857752799988,0.4023771584033966,-0.44809502363204958,-0.17821410298347474,-0.5652430653572083,-0.3706069588661194,0.6069716215133667,-0.5942999124526978,1.0572328567504883,0.5618607401847839,0.17241787910461427,-0.9674800038337708,1.012176752090454,-0.5863706469535828,0.7519791126251221,0.22163128852844239,0.7304855585098267,0.3212895095348358,-0.14726927876472474,1.0079123973846436,-0.40643593668937685,0.08437784761190415,-0.5972164869308472,0.3546845018863678,-0.7411231994628906,-0.7440568804740906,-0.5167520046234131,0.5368599891662598,0.16032828390598298,0.10116976499557495,-0.09498541057109833,-0.3717114329338074,-0.5684972405433655,-0.5522271394729614,0.5844259262084961,0.6964565515518189,0.6596540212631226,-0.362332284450531,0.6298958659172058,-0.037780195474624637,-0.5785390138626099,0.5859298706054688,0.07814761251211167,0.7440497875213623,-0.23749971389770509,-0.6023587584495544,0.14997459948062898,-1.0743255615234376,-1.0958200693130494,0.7425904870033264,-0.8518873453140259,-0.11862730234861374,0.2327164113521576,0.10042576491832733,-0.7270739674568176,0.12581127882003785,-0.023478914052248,-0.691435694694519,0.6839497685432434,0.27382779121398928,-0.3078356087207794,0.5711110830307007,-0.2674284279346466,1.065352439880371,0.672120213508606,-0.8873258233070374,0.9289805889129639,-0.4344213604927063,-0.2321416735649109,0.769920289516449,0.28990817070007326,0.8424233198165894,0.9672074913978577,0.3410407304763794,-0.5611753463745117,0.471619188785553,0.7740969061851502,0.7176239490509033,-0.6514589786529541,-0.8876639604568481,0.5257911682128906,-0.13230443000793458,0.5747879147529602,-0.8655617237091065,1.111426591873169,0.06014107167720795,-0.2628607749938965,-0.30718159675598147,0.007580995559692383,0.16167911887168885,-0.06814024597406388,-0.01855669915676117,0.34911441802978518,0.15094885230064393,-0.38307929039001467,0.5093874335289002,-0.6804231405258179,0.26519453525543215,0.05836935713887215,0.05389965698122978,-0.8603557348251343,-0.6370763182640076,-0.770147979259491,-0.47129014134407046,-0.6726564764976502,-0.07765547931194306,0.7024012804031372,0.10432213544845581,-0.7456667423248291,0.5698924660682678,1.053443431854248,-0.7602709531784058,-0.6232190132141113,-0.24825522303581239,0.8125738501548767,-0.3919273316860199,0.11494185775518418,0.3562498092651367,0.07695508748292923,-0.05906752496957779,-0.543538510799408,0.6365720629692078,-0.3654818832874298,-0.49825647473335268,1.0177825689315797,-0.27439752221107485,-0.9667840600013733,-0.10187791287899018,-0.8521004319190979,0.720414400100708,0.3602999150753021,1.1346864700317383,0.7234329581260681,0.7246693968772888,-0.905423641204834,-0.013589724898338318,0.27388322353363039,0.5149498581886292,-0.14018036425113679,-0.35751911997795107,0.19332373142242433,0.37130382657051089,-0.2752825915813446,0.18598681688308717,-0.6526793241500855,-0.6301679015159607,0.5802229642868042,-0.12607313692569734,0.22707796096801759,0.7941465377807617,-0.2869434058666229,-0.876457154750824,0.6145923137664795,-0.24280959367752076,0.3504732549190521,0.33258098363876345,0.16760128736495973,-0.4190656542778015,0.2924700081348419,0.5426202416419983,0.8851035833358765,0.47597894072532656,-0.26784655451774599,-0.36114078760147097,-0.3968810439109802,0.3229686915874481,-0.7179937362670898,0.7361876964569092,-0.7477702498435974,-0.9189318418502808,0.2533102035522461,-0.3056583106517792,-0.9316614270210266,0.5438320636749268,-0.04202890396118164,-0.5250051021575928,-0.005919694900512695,0.5125716328620911,0.07331148535013199,0.09919923543930054,-0.2449963092803955,-0.8766216039657593,0.8176001906394959,1.026590347290039,0.9154250621795654,0.8827106356620789,0.08707713335752487,0.5034621357917786,0.7945943474769592,0.16313979029655457,0.1724625825881958,0.7858688831329346,0.31755053997039797,-0.8113100528717041,0.8744493722915649,-0.25683465600013735,0.6287370324134827,0.6533420085906982,0.04928711801767349,-0.04184551164507866,-0.0238349512219429,0.5652897953987122,0.21938806772232057,-0.2805168628692627,0.7280553579330444,0.9417767524719238],"biases":[0.8515458106994629,-0.0034684836864471437,-0.6523652076721191,-0.30226054787635805,-0.5775707960128784,0.01847042143344879,0.39430463314056399,-0.13755284249782563,-0.2359401285648346,0.1647118330001831,-0.14299368858337403,-0.5118342041969299,0.6358639597892761,-0.2502255439758301,0.10563236474990845,-0.2654251158237457]}