{"neurons":7,"activationFunction":3,"weightsFlat":[-1.467490553855896,2.653794050216675,-0.44544053077697756,-1.1445894241333008,-0.3189936876296997,1.0628695487976075,-1.9162652492523194,0.7446475625038147,0.726841151714325,1.9376072883605958,-0.9486080408096314,0.7883270978927612,0.8423527479171753,-0.8844027519226074,-1.14275324344635,0.10464252531528473,0.48476046323776247,1.5627260208129883,0.3414495587348938,1.5727736949920655,0.39319002628326418,-0.6340386867523193,-0.14828413724899293,2.3337044715881349,-0.6810757517814636,-0.5370701551437378,2.794023036956787,2.7787911891937258,0.17440365254878999,1.3669925928115845,-1.397360920906067,0.7532075643539429,2.2478435039520265,-0.6501489281654358,-1.1141250133514405,0.9206741452217102,-1.747920274734497,-0.2911819815635681,-0.29192036390304568,0.41716355085372927,-0.187533900141716,-0.011714383959770203,1.0084052085876465,0.6162828207015991,-1.3348480463027955,1.0999979972839356,-0.9591205716133118,2.0309910774230959,1.561389684677124,1.359116554260254,-0.6784656643867493,1.6245869398117066,-0.26127785444259646,-0.2607124447822571,-0.655674397945404,0.5910917520523071,0.37345555424690249,-0.9284862279891968,-0.17784863710403443,-0.12121759355068207,0.23369713127613069,1.5772757530212403,2.3204939365386965,1.0932613611221314,-0.3505988121032715,1.6472216844558716,1.5703140497207642,1.9066272974014283,1.2877358198165894,0.09888649731874466,-1.2948012351989747,0.547648549079895,-1.4092172384262086,-2.712800979614258,-0.06464590132236481,1.4545570611953736,0.7049117684364319,0.26555997133255007,-0.38664957880973818,0.7333279252052307,-1.78853178024292,-0.6037458777427673,1.2177891731262208,-0.6142410635948181,1.8666797876358033,0.17565876245498658,-1.0631910562515259,0.028899386525154115,0.45860743522644045,2.1090848445892336,0.27539384365081789,-0.9016859531402588,-0.6133187413215637,1.1534696817398072,-0.392212837934494,0.6850672364234924,0.3853364884853363,0.898030698299408,0.5478900074958801,2.0474536418914797,0.6043244004249573,0.34481799602508547,0.3059244453907013,1.7465205192565919,-1.2170488834381104,-4.0397491455078129,0.6969531774520874,-1.9036301374435425,-1.8040788173675538,0.24756084382534028,-2.07230806350708,-1.3744615316390992],"biases":[0.7226845622062683,-0.23291723430156709,1.1781320571899415,0.9610816836357117,-0.5182648301124573,0.2754824459552765,-0.5132625699043274]}