{"neurons":16,"activationFunction":0,"weightsFlat":[-0.47956913709640505,-0.538975179195404,0.49749162793159487,0.2450873851776123,-0.5996786952018738,-0.5159304738044739,-0.7880939841270447,0.5718143582344055,0.9997912049293518,0.6500309705734253,0.3474105894565582,-0.8360167145729065,0.39527446031570437,0.971653163433075,0.13342911005020142,0.1846599578857422,-0.33656325936317446,-0.5439233779907227,-0.5511320233345032,0.4101193845272064,0.3096242845058441,-0.7671390771865845,-0.3975043296813965,0.205778568983078,-0.3602670431137085,-0.3088908791542053,0.23497852683067323,-0.01060384139418602,0.39145296812057497,0.9802075624465942,0.2601890563964844,-0.6855849623680115,-0.5665324926376343,-0.884975790977478,1.0291481018066407,0.032554592937231067,0.8988157510757446,-0.12077037990093231,0.9395712018013,0.38486137986183169,0.017223749309778215,-0.7404620051383972,0.49940210580825808,-0.8195757269859314,-0.21060791611671449,0.663252592086792,0.7171258330345154,-0.378753662109375,-0.37505045533180239,-0.6167560815811157,-0.9364432692527771,0.2611622214317322,0.6570306420326233,0.4407806992530823,-0.34868568181991579,0.5900475978851318,-0.6457624435424805,-0.5213035345077515,0.7584661245346069,-0.39970800280570986,-0.7215743064880371,0.3847716152667999,-0.6732380986213684,0.5619614124298096,0.5428044199943543,0.6877124905586243,-0.3408418595790863,0.8442344665527344,-0.9737539291381836,-0.5330586433410645,-0.2443869262933731,0.9112896919250488,-0.7171447277069092,-0.7028576731681824,-0.9769220948219299,-0.2294859141111374,0.5537616014480591,-0.9736768007278442,-0.8607643842697144,-0.9535723328590393,0.04373956471681595,0.3383531868457794,0.07413865625858307,-0.7486477494239807,-0.6403546929359436,0.16198106110095979,-0.6101852655410767,0.1460718810558319,-0.9305809736251831,0.18319641053676606,-0.8814813494682312,0.6097042560577393,-0.4407738745212555,0.9593174457550049,-0.9031724333763123,0.23148199915885926,-0.31685569882392886,0.40089595317840578,0.9799445867538452,-0.35929542779922488,-0.2641363739967346,0.15081989765167237,0.4701835513114929,0.9128004908561707,0.6042894124984741,0.03759504482150078,-0.008283305913209916,-0.16436927020549775,0.051019635051488879,-0.9084162712097168,-0.5056240558624268,-0.12186378240585327,-0.8274623155593872,-0.191872239112854,0.7499847412109375,0.853264570236206,-0.8806018233299255,0.513006865978241,0.13180573284626008,-0.3815934360027313,-0.2497517317533493,-0.27892985939979555,-0.3419339060783386,0.8890414237976074,-0.54632169008255,-0.11094921827316284,-0.9377702474594116,0.38432350754737856,-0.4427443742752075,0.5072102546691895,-0.8132557272911072,-0.48387885093688967,-0.7804809808731079,-0.7405349612236023,-0.18247324228286744,0.6375864148139954,-0.8294888734817505,-0.43513697385787966,-0.3400983214378357,0.6859554052352905,0.19231171905994416,0.5679445862770081,0.2661599814891815,-0.37691569328308108,-0.8705555200576782,-0.9291043877601624,0.7727203369140625,0.23225697875022889,0.5170085430145264,-0.17192700505256654,0.53657466173172,0.3369832932949066,0.8088434338569641,0.3193369209766388,-0.4971512258052826,-0.21724233031272889,0.23214660584926606,-0.8202439546585083,0.24173834919929505,0.7183541059494019,-0.6743319630622864,0.034012433141469958,0.03766261786222458,-0.8634670972824097,0.2857772707939148,-0.5202938318252564,-0.38610008358955386,-0.5141133666038513,0.37846237421035769,0.22053568065166474,0.3852345943450928,-0.18687665462493897,0.6774414777755737,0.13302110135555268,0.7991124987602234,-0.7043403387069702,-0.049679990857839587,0.3979259431362152,-0.2531891167163849,0.6774678230285645,-0.10700113326311112,-0.2610495388507843,-0.0005653388798236847,-0.38144251704216006,-0.5731181502342224,0.15100717544555665,0.39289307594299319,0.22147387266159059,-0.9565358757972717,0.08097411692142487,-0.38320091366767886,-0.46831607818603518,0.31895947456359866,0.5933901071548462,0.45252522826194765,0.5606504082679749,-0.7351815104484558,0.9389103055000305,-0.026699010282754899,-0.7169715166091919,-0.6344099044799805,-0.8669785857200623,0.023784954100847245,0.9090912342071533,-0.5908781886100769,0.8046642541885376,0.046492088586091998,-0.992450475692749,-0.5037477016448975,-0.8067761063575745,-0.1162814050912857,0.7855015397071838,-0.7530024647712708,0.3687261939048767,0.06897686421871185,0.5199459195137024,0.1454153060913086,0.8337900638580322,1.0251635313034058,0.8681514263153076,-0.005067821592092514,-0.6174321174621582,-0.28682902455329897,-0.1297934502363205,-0.49938976764678957,-0.6778497099876404,0.8375240564346314,-0.0041463952511549,-0.2098325788974762,-0.5714024901390076,-0.5090657472610474,0.8512619733810425,-0.3568214178085327,-0.5208186507225037,-0.5695364475250244,0.09395632147789002,-0.12358717620372772,0.19033004343509675,0.0602998323738575,-0.0711371898651123,0.872829794883728,-0.5584646463394165,0.6072109937667847,-0.30380189418792727,-0.0198868028819561,0.5401308536529541,-0.36610323190689089,-0.11551884561777115,-0.10302810370922089,-0.6313539743423462,0.47869259119033816,0.7181749939918518,-0.8205881118774414,0.6583113670349121,1.0306050777435303,-0.5620623826980591],"biases":[-0.5056326389312744,0.9752892255783081,-0.8706507682800293,-0.3319679796695709,-0.14029519259929658,-0.5161414742469788,1.0007647275924683,-0.2962858974933624,-0.16723482310771943,-0.8664656281471252,0.6666295528411865,-0.6023539304733276,0.381670743227005,-0.6708023548126221,-0.2684803605079651,0.16318368911743165]}