{"neurons":16,"activationFunction":0,"weightsFlat":[2.656802177429199,0.6852179765701294,-0.9110392332077026,-0.9134948253631592,-1.6229175329208375,0.9757331609725952,-1.6248795986175538,-0.1405264437198639,0.6780515313148499,0.9811736345291138,0.3012620210647583,-0.7355167269706726,-0.1341775357723236,-0.23092736303806306,0.07441619783639908,1.1392745971679688,-0.4525161385536194,-0.5419082045555115,1.3276549577713013,0.22388337552547456,-0.35845163464546206,1.1250619888305665,-0.9441242814064026,-0.4311157763004303,1.1575465202331544,-1.1845788955688477,-1.216455340385437,0.2751282751560211,1.843319296836853,0.5986567735671997,0.5546914935112,1.9111828804016114,2.5575814247131349,-0.1160307452082634,-0.6646509170532227,-2.062763214111328,-0.3342381715774536,-0.8659030199050903,3.0365588665008547,-1.0059789419174195,-0.9147660136222839,-1.4558371305465699,1.9778326749801636,0.7423150539398193,0.4286944270133972,-1.3668562173843384,0.12070523947477341,-0.24224212765693665,-2.0679585933685304,0.5547671914100647,-2.1716179847717287,1.015105128288269,0.4904412627220154,0.4413779079914093,-0.1877731829881668,-0.044721394777297977,-1.9277451038360596,-0.6803646087646484,-1.2058027982711793,1.349395513534546,1.5219448804855347,-0.2455025017261505,-2.0836474895477297,0.195607990026474,0.410614013671875,0.297358900308609,-0.8898839950561523,-2.0678200721740724,0.5125362277030945,1.9285029172897339,0.8464767336845398,-0.8441213965415955,1.6280200481414796,1.3400230407714844,0.20148804783821107,1.174932837486267,-0.4030835032463074,1.5437089204788209,1.064024806022644,-0.4805285632610321,-0.847332775592804,-0.7162823677062988,0.3031803369522095,0.9883107542991638,-0.022571317851543428,0.7915931344032288,1.2510570287704468,-0.49707135558128359,-2.192396640777588,-1.116981863975525,-0.3866453468799591,-0.6696901917457581,-0.4933112859725952,1.0069116353988648,-0.7647599577903748,-0.0969272255897522,-1.299401044845581,0.1663094013929367,-0.6638843417167664,2.175666093826294,0.4347144365310669,-1.6552855968475342,-0.7290021181106567,0.13104020059108735,-1.9904063940048218,-0.48923856019973757,0.687212347984314,-1.4025089740753174,0.35076040029525759,0.7550012469291687,-0.44380271434783938,0.9277857542037964,-0.9720841646194458,-0.36230888962745669,-0.5422093272209168,-0.20227256417274476,-0.4922443926334381,-1.6422988176345826,-0.7922831177711487,-0.9255006909370422,0.16839520633220673,0.7972949147224426,1.7801380157470704,-2.3579509258270265,-0.24049454927444459,0.5798847079277039,-0.536196768283844,0.2512151002883911,-0.4576347768306732,-2.3132357597351076,-0.5604905486106873,0.5370810627937317,-1.4305509328842164,0.09793758392333985,0.8082438707351685,0.5392624735832214,0.5291956067085266,0.5444807410240173,-0.19354009628295899,-1.4310630559921265,-0.5799885392189026,1.5168187618255616,0.842072606086731,-0.7110635042190552,-0.6036527156829834,1.9143582582473755,0.5409033298492432,-0.6708998084068298,1.1059671640396119,0.6663411259651184,0.3745756149291992,-1.0686813592910767,1.5112313032150269,2.0943801403045656,0.30092841386795046,-0.2335016429424286,-1.1809431314468384,0.28116515278816225,-0.8838909864425659,-0.7779276371002197,1.3940485715866089,0.8801235556602478,-0.08555177599191666,0.7985994219779968,0.5046898722648621,0.3240213394165039,2.6621177196502687,0.9308062195777893,-2.059147357940674,0.17443685233592988,0.22850941121578217,2.271172523498535,2.7901077270507814,-0.9836868643760681,-0.4224845767021179,-1.6462552547454835,1.3965660333633423,0.3779873549938202,-0.6956775188446045,1.1356449127197266,-0.6279563903808594,0.47959253191947939,-1.4916929006576539,-0.4660630226135254,1.4318876266479493,0.7508968710899353,-1.6276969909667969,-0.6282705068588257,-0.21974152326583863,-0.2987496852874756,0.470953106880188,-1.880319356918335,-0.43922537565231326,-1.2578171491622925,-1.271295428276062,0.12450064718723297,-0.06649279594421387,0.029275737702846528,0.060244444757699969,-1.7428014278411866,-1.236438512802124,1.2454100847244263,-1.470975399017334,-1.0337563753128052,1.4329068660736085,0.7461212277412415,2.1426637172698976,-1.494354248046875,0.39322924613952639,0.6797824501991272,-0.11208180338144303,1.2977240085601807,0.31904011964797976,-2.1424400806427,-0.999335527420044,-1.0628149509429932,0.49460965394973757,-0.035543277859687808,1.2234312295913697,2.119018316268921,0.6904499530792236,-0.07305893301963806,0.8108940720558167,0.1641051471233368,1.7449275255203248,0.3929389417171478,2.9293253421783449,0.6988076567649841,-0.19606448709964753,-0.7113595604896545,-1.6007096767425538,0.037593238055706027,-0.9465404152870178,-0.451283723115921,0.2695024013519287,0.6418154239654541,-0.8137497305870056,-0.8567537665367127,1.2366862297058106,0.18993374705314637,0.47962573170661929,-0.3873918950557709,1.858672022819519,1.1990076303482056,-0.6625932455062866,-1.243802785873413,-0.640424907207489,0.12057510018348694,0.1320681869983673,-0.32056230306625368,-2.720245361328125,0.6480787396430969,-0.60354083776474,1.2595583200454713,-1.3639864921569825,-1.0110676288604737],"biases":[-1.1591954231262208,0.9071840047836304,-0.47600021958351138,-0.7328323125839233,0.5187651515007019,-0.17797812819480897,-0.7003248333930969,-0.48268797993659975,-0.7720898985862732,-0.28802838921546938,-0.5093736052513123,-1.7198389768600464,0.5147371292114258,0.698562502861023,-0.5305017828941345,1.862348198890686]}