{"neurons":299,"activationFunction":4,"weightsFlat":[],"biases":[-0.38832980394363406,-0.6298384070396423,-0.491970032453537,-0.15181872248649598,0.11721322685480118,0.7912282943725586,-0.6024890542030335,-0.5280362963676453,-0.4849570095539093,-0.6991586089134216,-0.24128898978233338,-0.6614888906478882,0.6515785455703735,0.7394967079162598,-0.07590263336896897,0.3074221611022949,0.4562349319458008,-0.3115443289279938,0.21113237738609315,-0.5402251482009888,-0.6006267070770264,-0.5029886364936829,0.7650418281555176,1.165774941444397,-0.03572332113981247,-0.41431736946105959,0.32510295510292055,0.7525548338890076,-0.47223836183547976,0.06252918392419815,0.8041818737983704,-0.11022847890853882,-0.3444750905036926,0.19778908789157868,-0.24261417984962464,-0.4912804663181305,0.09135589003562927,-0.28864532709121706,0.11391255259513855,0.5918237566947937,-0.4675597846508026,0.8612655997276306,-0.37977394461631777,0.21715280413627625,-0.46173396706581118,-0.154857337474823,0.4458068311214447,0.6223536729812622,-0.6159276962280273,-0.24312761425971986,0.4630082845687866,0.02574101835489273,-1.0121949911117554,-0.5926167368888855,-0.012660391628742218,0.1639365553855896,-0.9755857586860657,0.5993965864181519,1.0651601552963257,0.18812605738639832,-0.08852580189704895,0.10050469636917114,-0.5544912219047546,-0.5354359745979309,0.03514891117811203,0.3363930881023407,0.4851968586444855,0.5460994839668274,-0.9487157464027405,-0.5513337850570679,-0.13731971383094788,0.5106006264686585,0.7820526361465454,-0.06203318387269974,0.34128624200820925,0.35770732164382937,-0.2220008373260498,1.362223744392395,-0.4388793706893921,0.0936679095029831,-0.3746786415576935,-1.1124885082244874,-0.1488979458808899,0.7850509285926819,0.5763279795646668,1.0418760776519776,-0.16952858865261079,-0.9894287586212158,-0.8692518472671509,-0.6705167889595032,0.8859334588050842,-0.020818963646888734,-0.6513028144836426,-0.5523683428764343,0.6729362607002258,0.2139076292514801,0.8995110988616943,-0.4736761450767517,-0.873215913772583,-0.7698366045951843,-0.17785197496414185,0.3873574733734131,0.6436637043952942,0.9887138605117798,0.4948900640010834,0.2125355303287506,-0.277719110250473,0.3685629963874817,0.25020328164100649,-0.1913881003856659,1.1763598918914796,-0.2746694087982178,0.9248502850532532,-0.3615034222602844,1.0649622678756714,-0.20173302292823792,-0.8275902271270752,-0.399836927652359,0.21063286066055299,-0.4857019782066345,-0.40184247493743899,0.5675576329231262,0.8394289016723633,-0.48107272386550906,-0.4473068118095398,-0.7307670712471008,0.10287489742040634,0.7929704189300537,-0.8680272698402405,0.8991662859916687,0.6177431344985962,-0.47799888253211977,0.009241260588169098,0.18513791263103486,0.02366819977760315,0.3612082600593567,0.3267527222633362,0.8146028518676758,0.864488959312439,-0.20977094769477845,-0.7802589535713196,0.3968137204647064,0.20938974618911744,-0.2758212983608246,0.4511760473251343,0.8180820941925049,-0.5149339437484741,-0.37303611636161806,-0.8818248510360718,0.5563036203384399,0.7728101015090942,0.023258857429027559,0.4529365301132202,0.1122395396232605,-0.40677252411842348,0.06750067323446274,-0.09989561885595322,0.5813819169998169,-0.441984087228775,-0.5939502120018005,-0.8857206702232361,-0.1892547607421875,-0.8210761547088623,0.4767306447029114,0.04331737011671066,0.7049853801727295,0.8736730813980103,0.605487048625946,0.15735971927642823,-0.010469861328601838,0.6410447955131531,-0.03268664702773094,-0.8828105330467224,0.6322711110115051,0.41763097047805788,-0.15713226795196534,0.7299057841300964,0.06680165231227875,-0.18949761986732484,0.036177076399326327,-0.08577718585729599,-0.4573686420917511,0.1546955704689026,0.4460790455341339,-0.15957921743392945,0.9604750871658325,-0.976029098033905,1.0960975885391236,-0.12747853994369508,-0.9857887625694275,-0.6149930953979492,0.25393909215927126,0.2852223813533783,0.07585034519433975,-0.573306143283844,-1.061774492263794,0.7667144536972046,-0.021565541625022889,0.6602053046226502,-0.7351372838020325,-0.31285926699638369,-0.004778064787387848,-0.7856777906417847,0.09437012672424317,-0.03095816820859909,-0.8611780405044556,-0.5091890096664429,0.4891360104084015,0.5669594407081604,-0.5565893650054932,0.13294097781181336,0.2405349761247635,0.4134301543235779,-0.242295503616333,0.6236082315444946,0.13722917437553407,-0.7143628597259522,0.8361657857894898,0.9450689554214478,0.19422167539596559,-0.3789941668510437,-0.9361619353294373,0.10966458171606064,0.40462344884872439,-0.06258463859558106,0.42195063829421999,-0.12285540997982025,0.8456929326057434,-0.5476306080818176,0.5000790357589722,0.6309715509414673,-0.14940129220485688,0.07465030997991562,0.7570686936378479,0.8786150217056274,-0.5592540502548218,0.525283932685852,-0.239244282245636,-0.05557218939065933,-0.33320191502571108,-0.42019906640052798,0.3174808621406555,-0.3881579637527466,-0.9211452603340149,0.6910399198532105,0.32327479124069216,0.25791725516319277,0.4322301745414734,-0.017949402332305909,-0.4976460337638855,-0.2142779380083084,1.0933619737625123,0.21428367495536805,0.026243798434734346,0.1381247490644455,-0.7340757846832275,1.1098028421401978,0.8526917099952698,0.7190355062484741,-0.28060591220855715,-0.2682010531425476,-0.10101103037595749,-0.02832157164812088,-0.7181202173233032,-0.21172216534614564,1.0182714462280274,-0.4297599792480469,1.0069047212600709,0.46512216329574587,-0.09899616986513138,-0.956229567527771,0.26480722427368166,0.4066547453403473,-0.21353378891944886,-0.5429124236106873,-0.16803397238254548,0.8257845044136047,-0.9989464282989502,-0.5995344519615173,-0.14550022780895234,1.0698493719100953,-0.2062574177980423,0.5142461657524109,-0.7055684328079224,-0.4031030535697937,0.8442431092262268,-0.24317103624343873,0.5153458118438721,-0.560925304889679,0.14172768592834474,-0.5241760015487671,0.9678660035133362,-0.7807345390319824,-0.3300168216228485,-0.6109201312065125,-0.45781463384628298,1.0303173065185547,-0.8788072466850281,0.23865783214569093]}