{"neurons":16,"activationFunction":1,"weightsFlat":[-0.6513056755065918,-0.693492591381073,-0.806479275226593,-0.9624218344688416,0.31268471479415896,0.22665604948997498,0.7072867751121521,-0.3199947774410248,-0.35559043288230898,-0.7273349165916443,-0.9040329456329346,0.9565568566322327,-0.14740735292434693,-0.8475627303123474,0.1653171330690384,-0.776086688041687,-0.3955634832382202,0.4858165979385376,0.13762108981609345,-0.48453065752983096,-0.6797086596488953,0.6640548706054688,-0.209123894572258,-0.2791341543197632,0.9805175065994263,-0.3907831609249115,0.17204923927783967,0.8215992450714111,-0.9086571931838989,0.01734510436654091,-0.40734848380088808,-0.3993738293647766,-0.18066765367984773,0.7052218914031982,0.6261127591133118,0.535028874874115,-0.30722537636756899,0.0960720106959343,-0.6171091198921204,0.3021335303783417,0.653228223323822,-0.6207522749900818,-0.7168896794319153,0.763759195804596,0.614035964012146,-0.9755822420120239,-0.009525742381811142,0.8101681470870972,-0.7255468368530273,-0.9175801873207092,0.7437723278999329,0.6151090264320374,0.6613897681236267,0.11945966631174088,0.7275604009628296,-0.8795741200447083,0.09079241752624512,-0.0658351480960846,0.6843973398208618,0.6151012182235718,-0.5639073252677918,-0.4897703230381012,0.19834864139556886,-0.754411518573761,-0.8499070405960083,0.14223693311214448,0.6871275901794434,0.019724328070878984,-0.9188265800476074,0.5692322850227356,-0.7899956703186035,-0.05718230456113815,-0.5468484163284302,0.7340858578681946,0.9364120960235596,-0.6567456722259522,0.16470396518707276,-0.6620969176292419,0.3738716244697571,0.3702940046787262,0.9197384715080261,-0.08558593690395355,-0.17656634747982026,0.6253423094749451,0.9541181325912476,0.9845903515815735,-0.8101314306259155,-0.32603394985198977,-0.8268080949783325,0.5563316941261292,-0.7709742188453674,0.6159636974334717,0.3975446820259094,-0.18664506077766419,0.5234229564666748,-0.7031076550483704,-0.9604830741882324,0.2736418545246124,-0.5303023457527161,0.6301007270812988,-0.4933377504348755,-0.2781018912792206,0.6921723484992981,-0.7405399680137634,-1.2025859355926514,0.3081687390804291,0.9064690470695496,0.6247685551643372,-0.1446901112794876,-0.3777071535587311,-0.33387789130210879,-0.10622595250606537,0.6367162466049194,-0.19268950819969178,0.582583487033844,-0.6103697419166565,-0.26707300543785097,0.8277312517166138,-0.8518965244293213,0.5678709149360657,-0.8029796481132507,-0.6511026620864868,-0.6766314506530762,0.9423591494560242,-0.8607264757156372,0.005493808537721634,0.09382767975330353,-0.4602805972099304,-0.6065539121627808,0.30911409854888918,0.2994014024734497,-0.4720529019832611,-0.060089241713285449,0.6903801560401917,0.7806413769721985,-0.05011072754859924,-0.22168365120887757,0.7021294236183167,0.3972645103931427,-0.08718782663345337,-0.4651103615760803,0.5331076979637146,-0.45317238569259646,0.5067804455757141,0.20037530362606049,-0.16576145589351655,0.2891095280647278,0.9941068887710571,0.29099613428115847,0.24604523181915284,0.24640661478042603,-0.3541746139526367,-0.6201032996177673,0.4335780143737793,-0.7439977526664734,0.9421203136444092,-0.7372720837593079,-0.12287458777427674,-0.9625914096832275,-0.5179764628410339,0.1442819982767105,0.24117998778820039,0.7534018754959106,0.8604817986488342,-0.6771319508552551,0.7908274531364441,0.35797375440597536,-0.5052775740623474,0.2878248989582062,0.9575484991073608,0.579959511756897,-0.6924669742584229,-0.06068800762295723,-0.943135142326355,0.4096323251724243,-0.6881778240203857,-0.9115249514579773,0.7859545946121216,0.6515536904335022,-0.7355684041976929,-0.8953205347061157,-0.8364441394805908,-0.8756017684936523,0.7180222272872925,-0.06385111808776856,-0.5725966095924377,-0.03865101933479309,0.7809016704559326,0.5692068338394165,0.764814555644989,-0.6548497676849365,0.7862909436225891,0.2780756652355194,-0.22836630046367646,-0.34983253479003909,0.37684541940689089,-0.2914101183414459,-0.2883269488811493,-0.8888058662414551,0.028182905167341234,-0.9639942049980164,0.3084025979042053,0.7270154356956482,0.7316862940788269,0.08638694882392883,-0.5337430238723755,0.05757075175642967,0.09527012705802918,-1.0445759296417237,0.6687530279159546,-0.2694834768772125,-0.10396310687065125,-0.53262859582901,-0.8026586174964905,-0.645139753818512,0.7412605285644531,0.8776811957359314,0.489327996969223,-0.5094415545463562,0.9521278738975525,0.3173142671585083,0.8550078272819519,0.8850935697555542,0.390231192111969,0.7182726263999939,-0.27654749155044558,0.8077847361564636,0.32193195819854739,0.409239262342453,1.0129854679107667,-0.1469624787569046,0.5048028230667114,-0.5158942341804504,-0.8041622042655945,-0.2740139961242676,0.2415873259305954,-0.9277622103691101,0.3162025809288025,1.024226427078247,0.7506863474845886,-0.4208153486251831,0.8037096261978149,-0.9386404752731323,-0.7022089958190918,-0.8592863082885742,-0.26798081398010256,-0.24234545230865479,0.851959764957428,-0.9093620181083679,-0.08678404986858368,-0.09437783807516098,-0.577153205871582,0.5976417660713196,0.2616368234157562,-0.6421431303024292,0.819873571395874],"biases":[0.8279474377632141,0.7585320472717285,-0.533606231212616,0.261846125125885,0.8837904334068298,0.6691086292266846,0.12375272810459137,0.15575438737869264,0.7232189178466797,-0.6980844140052795,-0.15707673132419587,-0.6737374663352966,0.3118211328983307,0.19923046231269837,0.8298643231391907,0.23496563732624055]}