{"neurons":16,"activationFunction":0,"weightsFlat":[0.18712559342384339,-2.044349431991577,0.10538563877344132,1.096095323562622,0.8019517064094544,-1.2146753072738648,1.28423011302948,0.44702816009521487,-1.4596102237701417,-1.8920741081237794,-0.4370015859603882,0.11684824526309967,1.106333613395691,-2.077162504196167,0.6861074566841126,1.1233235597610474,0.09574354439973831,-0.669396698474884,-0.5168182253837586,2.215512752532959,0.8258334994316101,-0.39956194162368777,-0.047057829797267917,1.058153510093689,1.6899099349975587,-1.8809633255004883,0.6925104856491089,1.0138152837753297,-1.081566572189331,1.022871732711792,-1.3708873987197877,0.10724663734436035,-1.599998950958252,3.0552103519439699,-1.5606582164764405,1.136401653289795,1.1754956245422364,1.2245519161224366,1.517207384109497,1.9560518264770508,0.3629964292049408,-0.20795994997024537,-0.8535394072532654,1.4410271644592286,1.7896968126296998,0.38657689094543459,0.8485819101333618,-1.6037113666534424,-0.5612468719482422,-0.4581177830696106,0.7161820530891419,1.0936882495880128,-0.48848193883895876,-0.17762881517410279,1.3497962951660157,-1.0384528636932374,-2.0696840286254885,-2.0085322856903078,0.22173680365085603,1.8880913257598878,-1.0267305374145508,1.1018469333648682,-1.4392399787902833,-1.663244366645813,0.6393473148345947,-2.1630849838256838,-0.10575015097856522,-1.1937792301177979,0.5835772156715393,0.7079535126686096,0.3708696961402893,-0.8393981456756592,-0.5600476264953613,0.346627801656723,-1.6570179462432862,-1.4500203132629395,-0.6116656064987183,0.962062418460846,-0.7240369319915772,-1.0417832136154175,-0.7482743263244629,-0.9607173800468445,1.9727270603179932,-1.114977240562439,-0.4226991534233093,-0.1886497139930725,0.25060534477233889,-1.3363897800445557,-0.7667616009712219,-0.19631041586399079,0.3656374216079712,1.0114529132843018,-1.6163480281829835,0.4164871275424957,-1.3116660118103028,-1.6762804985046387,1.454032063484192,0.581108570098877,0.0329563170671463,-1.2702879905700684,-0.7417392134666443,-1.3132622241973878,0.6366177797317505,-1.479479432106018,-1.9982010126113892,-0.9556916952133179,0.18878263235092164,0.4664784073829651,-0.7294451594352722,-0.21651707589626313,-0.964789628982544,0.7285470366477966,0.247776061296463,-0.24552404880523683,-0.5218092203140259,-1.3387213945388795,-1.5164285898208619,-0.8141859173774719,0.17229661345481873,-1.145059585571289,-0.1855025291442871,-1.533787488937378,-0.34702885150909426,1.3520280122756959,-0.889619767665863,-1.587255835533142,-1.1685583591461182,-1.179162859916687,-0.012025028467178345,-0.10792487859725952,-1.4733922481536866,-0.34047731757164,1.02644944190979,2.0605669021606447,-1.4828435182571412,-0.49919798970222475,1.1732479333877564,-1.4490443468093873,-0.2427414357662201,0.08097517490386963,-0.12044405192136765,-1.28288733959198,0.7834010124206543,-0.30192631483078005,1.661435604095459,1.1773149967193604,-0.9116692543029785,-2.0263967514038088,-1.3835359811782838,0.9065824747085571,-1.6268151998519898,-0.31206291913986208,-0.2289363145828247,-0.05840557813644409,0.4600769281387329,0.355265349149704,-1.2466984987258912,0.18607676029205323,-0.8907119631767273,-1.3249489068984986,0.8183698654174805,-0.8335464596748352,0.036850325763225558,1.6131415367126465,-0.6861022710800171,0.5383287668228149,-0.18225879967212678,-1.4511759281158448,0.21644368767738343,0.510876476764679,-0.5390130877494812,-1.4661967754364014,0.75581294298172,-0.7586636543273926,-1.728661060333252,-1.1701745986938477,-0.5046989321708679,1.664150357246399,0.40778303146362307,0.2722337245941162,0.7591098546981812,0.789248526096344,-1.2906261682510377,-0.030644703656435014,1.3541494607925416,-0.060387786477804187,1.5410526990890504,-0.6015704274177551,-0.6491051912307739,0.4204050600528717,0.4615366756916046,-1.4708750247955323,-0.019805587828159334,-0.46679970622062685,0.34050655364990237,1.0922335386276246,0.38574299216270449,2.691885471343994,0.8497222065925598,-0.3216472864151001,-0.973229706287384,1.0346652269363404,1.7174487113952637,-0.8908563852310181,-1.4170541763305665,-1.3465843200683594,-1.0265328884124756,0.8249026536941528,0.9994312524795532,-0.04604043811559677,0.7073355317115784,-1.5396982431411744,0.4531307816505432,-0.7597611546516419,1.899787187576294,-0.42791518568992617,-0.9976588487625122,2.5514538288116457,-0.7096350193023682,1.4834421873092652,-0.6186585426330566,1.3432958126068116,0.2583169937133789,0.3862116038799286,1.4329270124435425,0.27295243740081789,-0.029605381190776826,0.6590520739555359,-0.6087396740913391,-0.4051193296909332,-1.7547699213027955,0.03647459298372269,-1.040370225906372,0.16043704748153687,-1.8486043214797974,0.6841310858726502,-1.60623300075531,1.1227381229400635,-1.3085055351257325,-1.7404494285583497,0.8584797382354736,-2.0439038276672365,0.642535924911499,-1.6925166845321656,-0.13390053808689118,0.2755964994430542,1.3450641632080079,-1.5199295282363892,-0.38737866282463076,0.35994306206703188,-0.8304500579833984,0.2504069209098816,-0.17090189456939698,-0.28900641202926638,1.347113847732544,1.4949584007263184],"biases":[-0.7222465872764587,-1.4773472547531129,1.4757148027420045,0.7854125499725342,-0.1745571494102478,-1.0507009029388428,-0.25411760807037356,1.4382846355438233,-0.734550416469574,-1.6168476343154908,-1.191197156906128,-0.49590522050857546,-0.29149720072746279,-0.9567134976387024,0.023846060037612916,0.977261483669281]}