{"neurons":16,"activationFunction":0,"weightsFlat":[0.21953904628753663,-0.08204495906829834,0.7340772151947022,-0.340096116065979,-0.031313300132751468,0.7057418823242188,0.31311818957328799,0.8145265579223633,0.6671798229217529,-0.6353747844696045,-0.7052016258239746,-0.08412420749664307,-0.03400313854217529,0.10225284099578858,0.178766131401062,0.9311013221740723,0.17416465282440186,-0.14598023891448975,-0.41144049167633059,-0.8820230960845947,-0.20612561702728272,0.14068543910980225,0.9591763019561768,-0.40644657611846926,-0.4798210859298706,0.9829356670379639,0.7232527732849121,-0.4097527265548706,-0.046819329261779788,-0.9764530658721924,0.2698194682598114,0.5689620971679688,-0.1750119924545288,0.4491138160228729,0.6184325218200684,-0.27620160579681399,-0.7639575004577637,-0.7621562480926514,-0.28329217433929446,-0.7564935684204102,-0.1126624345779419,-0.05381619930267334,0.40318748354911806,0.20362651348114015,0.1829930543899536,-0.9082760810852051,-0.4260047674179077,-0.2640336751937866,0.3320333659648895,-0.4903489351272583,-0.14882171154022218,0.2727756202220917,0.19129621982574464,0.14155709743499757,-0.10738980770111084,0.9077904224395752,0.4697897136211395,-0.8741517066955566,0.4172532260417938,-0.4233819246292114,-0.9003627300262451,0.01100766658782959,0.5587360858917236,-0.6043589115142822,0.6494884490966797,0.1805332899093628,-0.4896010160446167,0.008558154106140137,0.2940232455730438,0.09643304347991944,-0.0245283842086792,0.8822221755981445,-0.3780258893966675,-0.2525993585586548,-0.11771261692047119,0.9665243625640869,0.4478118121623993,0.9476382732391357,-0.01600825786590576,0.9419012069702148,-0.761589765548706,-0.6545500755310059,-0.15372741222381593,-0.6243648529052734,-0.37959015369415285,0.7456536293029785,-0.7684292793273926,-0.5410399436950684,-0.5983216762542725,0.8356449604034424,-0.1118084192276001,0.22973358631134034,0.17142832279205323,0.7518806457519531,-0.481176495552063,0.9443826675415039,-0.18626439571380616,0.21128571033477784,-0.3344990015029907,0.5842950344085693,0.7345714569091797,-0.38655173778533938,-0.05699503421783447,-0.4168504476547241,0.17223680019378663,-0.8185546398162842,0.02565586566925049,0.2071741819381714,0.8886208534240723,-0.21430766582489015,-0.9869487285614014,0.294948548078537,0.31275174021720889,-0.057103514671325687,-0.13143599033355714,-0.8580801486968994,0.5471999645233154,-0.8998157978057861,-0.5773890018463135,0.8600010871887207,-0.057323575019836429,0.04165780544281006,0.9864239692687988,-0.24936425685882569,-0.6212482452392578,0.8856687545776367,0.37387749552726748,0.9261682033538818,0.8158817291259766,-0.3791159391403198,-0.3108283281326294,-0.926105260848999,-0.985680103302002,0.9460501670837402,-0.32185423374176028,-0.5380868911743164,0.12153923511505127,-0.8442072868347168,0.41339680552482607,-0.406457781791687,-0.5994987487792969,-0.14677464962005616,0.8627448081970215,0.5761206150054932,-0.8757514953613281,-0.5440337657928467,-0.5980076789855957,0.8043744564056397,0.7830212116241455,-0.9658417701721191,0.7209181785583496,0.5081815719604492,0.018465399742126466,-0.5337564945220947,-0.8728129863739014,0.5193688869476318,0.4361426532268524,-0.08721554279327393,-0.2581974267959595,0.3584577739238739,0.6001417636871338,0.06071937084197998,0.672044038772583,0.22468888759613038,0.374024361371994,0.3009471595287323,0.02505028247833252,0.5682315826416016,-0.42352497577667239,-0.9718797206878662,-0.8478794097900391,0.3726761043071747,-0.6938605308532715,0.9129683971405029,0.08410227298736572,-0.26153838634490969,0.16106855869293214,0.8907022476196289,-0.5654189586639404,-0.13195455074310304,-0.08698952198028565,-0.5858476161956787,-0.5129108428955078,-0.06872642040252686,0.1818450689315796,-0.21112263202667237,-0.681220531463623,0.9440124034881592,-0.7996311187744141,0.48178812861442568,-0.7486255168914795,-0.8692035675048828,0.8688478469848633,0.1649402379989624,0.49925848841667178,-0.900907039642334,-0.313728928565979,0.5120337009429932,-0.7167661190032959,0.2746681869029999,-0.19696557521820069,0.10428774356842041,0.1338731050491333,0.06628310680389404,-0.31135308742523196,0.5262191295623779,-0.4080294370651245,-0.7401378154754639,-0.4220081567764282,-0.7127208709716797,-0.0013996362686157227,0.3645016849040985,-0.7812750339508057,-0.36177170276641848,-0.43974459171295168,-0.7552435398101807,0.4859738051891327,-0.5719399452209473,0.6891806125640869,-0.09760487079620362,-0.6037969589233398,-0.8097450733184815,-0.27730023860931399,-0.3826228380203247,-0.7582032680511475,-0.14636385440826417,0.5520498752593994,0.49851343035697939,-0.02284228801727295,0.8955881595611572,-0.8892049789428711,-0.11410129070281983,-0.05756533145904541,0.928213357925415,-0.0713721513748169,0.17069661617279054,0.9810750484466553,-0.12125933170318604,-0.8660173416137695,-0.8700220584869385,0.49114295840263369,-0.975208044052124,0.5581285953521729,-0.5302047729492188,0.45735761523246767,-0.024113774299621583,-0.07947838306427002,-0.8360247611999512,-0.32655107975006106,-0.27128303050994875,0.09632790088653565,-0.8883593082427979,-0.9916305541992188,0.6246511936187744,0.9331793785095215,0.6301307678222656],"biases":[0.8959102630615234,0.27375170588493349,-0.8654179573059082,-0.6238617897033691,0.920656681060791,0.6308741569519043,-0.44680869579315188,-0.1745692491531372,-0.9547038078308106,0.6257970333099365,-0.6686413288116455,-0.8860349655151367,-0.8550090789794922,0.8940944671630859,-0.10514485836029053,0.039847493171691897]}