{"neurons":7,"activationFunction":3,"weightsFlat":[0.9457478523254395,-0.30264341831207278,-0.40841758251190188,0.8362922668457031,-0.0038470029830932619,0.8223068714141846,0.3179335296154022,-0.508786678314209,0.6605126857757568,0.530285120010376,0.6029396057128906,-0.326107382774353,0.39958950877189639,-0.37361443042755129,0.17461025714874268,0.6063618659973145,-0.35269033908843996,-0.547929048538208,0.8473265171051025,0.5765106678009033,-0.11016285419464112,0.9478747844696045,0.44441625475883486,0.01835763454437256,0.21665728092193604,0.46145913004875185,-0.30926740169525149,-0.7016551494598389,0.505488395690918,-0.8267223834991455,0.37509533762931826,-0.2128204107284546,-0.8493685722351074,0.087837815284729,-0.8061842918395996,0.02995741367340088,0.31034013628959658,-0.7033548355102539,0.591813325881958,-0.47501957416534426,0.25074121356010439,-0.7282083034515381,-0.04963099956512451,0.7110097408294678,-0.3045395612716675,0.43786880373954775,-0.6216020584106445,-0.45759403705596926,-0.057260870933532718,-0.043823838233947757,-0.8802518844604492,0.4229082763195038,0.4682929217815399,0.3221690356731415,0.466135710477829,0.5607423782348633,-0.06857240200042725,-0.28980863094329836,0.5470380783081055,-0.2409418821334839,0.07457149028778076,0.40933939814567568,0.12573635578155518,-0.8385424613952637,0.8250222206115723,-0.31309974193573,-0.00763857364654541,0.2225726842880249,0.1444329023361206,0.11291301250457764,0.7160558700561523,-0.4331306219100952,0.23122036457061768,0.7856848239898682,0.518272876739502,-0.3777400255203247,0.27635690569877627,0.6889634132385254,-0.381320595741272,-0.9889788627624512,-0.5689535140991211,0.0774616003036499,0.9202864170074463,0.04944264888763428,0.22201836109161378,0.11241114139556885,-0.5570611953735352,0.34186074137687685,-0.4802132844924927,0.2792634665966034,0.6663656234741211,0.24777686595916749,-0.923698902130127,0.42211100459098818,0.4635791480541229,0.4512929618358612,-0.8851463794708252,0.9807360172271729,0.17529547214508058,-0.005643725395202637,0.12067663669586182,-0.6071431636810303,0.38010212779045107,0.36809179186820986,-0.9315381050109863,-0.689234733581543,-0.050125718116760257,-0.429789662361145,0.351253479719162,-0.17740881443023683,-0.4619075059890747,0.863379955291748],"biases":[-0.9309694766998291,0.7155756950378418,-0.07103097438812256,-0.11970937252044678,0.477523535490036,0.13182342052459718,-0.5193345546722412]}