{"neurons":32,"activationFunction":1,"weightsFlat":[-0.8154394626617432,-0.6106283664703369,-0.5293118953704834,-0.2296503782272339,-0.8382432460784912,-0.980088472366333,-0.14521539211273194,-0.8527531623840332,-0.4810401201248169,0.7903494834899902,0.6474807262420654,-0.402457594871521,-0.4395042657852173,0.05916416645050049,-0.2936030626296997,-0.08146917819976807,0.2593488395214081,0.5314197540283203,0.6163623332977295,0.7409911155700684,0.7446112632751465,-0.28263795375823977,0.7248895168304443,-0.9818978309631348,0.9951274394989014,-0.5103638172149658,0.6767630577087402,0.36832472681999209,-0.04608762264251709,0.6639432907104492,0.6074745655059815,0.4488060176372528,-0.026296019554138185,0.11831843852996826,-0.9800193309783936,0.17008626461029054,-0.15854156017303468,0.3623029887676239,-0.11416447162628174,-0.7106714248657227,0.9847965240478516,0.9198133945465088,0.1870952844619751,0.4096510112285614,-0.5812630653381348,0.2935957610607147,0.3025912940502167,-0.3616980314254761,-0.17516887187957765,0.4876706302165985,0.5155031681060791,-0.8466410636901856,0.5263612270355225,-0.3577522039413452,0.974806547164917,-0.4424933195114136,0.6952705383300781,0.08861076831817627,-0.5552170276641846,-0.48394548892974856,-0.6792025566101074,-0.2996748685836792,0.18128931522369386,-0.6363587379455566,0.858896017074585,0.5097460746765137,0.5268831253051758,0.5360696315765381,0.3073291480541229,0.031138062477111818,0.5842263698577881,0.4614081084728241,0.40671488642692568,0.39075610041618349,-0.20762336254119874,-0.3521329164505005,-0.8994276523590088,-0.9566023349761963,-0.6637399196624756,0.36298295855522158,0.37173911929130556,-0.03072941303253174,0.5619821548461914,-0.4734727144241333,0.5617191791534424,0.08848774433135987,0.17202270030975343,0.7644236087799072,0.7449119091033936,-0.48904573917388918,0.8175218105316162,-0.2881077527999878,0.8307325839996338,0.8117647171020508,0.14704477787017823,-0.28886139392852785,-0.27569687366485598,0.6618008613586426,0.16121208667755128,-0.10542166233062744,-0.9658913612365723,0.5760681629180908,0.0461498498916626,0.9707520008087158,0.32480165362358096,-0.7894508838653565,-0.4512559175491333,0.7850725650787354,0.1573554277420044,-0.36363208293914797,0.37799426913261416,0.4775497615337372,0.23843634128570558,-0.10509836673736572,-0.393795371055603,0.4912991225719452,0.12100732326507569,-0.516157865524292,-0.07654106616973877,0.6198797225952148,0.3916597068309784,0.07891786098480225,0.8202433586120606,0.5653800964355469,0.26743194460868838,-0.720848560333252,0.20041286945343018,0.031758904457092288,-0.8752522468566895,0.596174955368042,-0.5432658195495606,0.2984602153301239,0.05397617816925049,0.9850423336029053,-0.425695538520813,-0.29136741161346438,-0.5848383903503418,0.9975287914276123,-0.9355688095092773,-0.04900991916656494,-0.5883090496063232,-0.7067670822143555,-0.34359490871429446,-0.1713036298751831,0.27087733149528506,-0.05888545513153076,0.7606420516967773,-0.06015980243682861,-0.6112241744995117,-0.9854080677032471,-0.21845018863677979,0.4237026870250702,0.16187870502471925,-0.8150057792663574,-0.911262035369873,-0.725757360458374,-0.3755453824996948,-0.9445135593414307,-0.0027543306350708009,-0.7628376483917236,0.5282351970672607,-0.7174179553985596,-0.6327965259552002,-0.6559810638427734,0.5937790870666504,0.2363642454147339,0.8556265830993652,0.913917064666748,-0.49943268299102785,0.18430888652801515,0.16154253482818604,-0.1896895170211792,-0.6492092609405518,-0.22588860988616944,-0.7493908405303955,-0.015170454978942871,0.31259962916374209,0.12607347965240479,-0.842522382736206,-0.6110978126525879,0.26790115237236025,-0.4020804166793823,0.641655683517456,0.40399500727653506,0.1697460412979126,-0.2719334363937378,-0.001013636589050293,0.6930582523345947,0.9063012599945068,-0.13207495212554933,-0.35691702365875246,0.9027855396270752,-0.27981889247894289,-0.12518274784088136,0.2513899505138397,0.9902849197387695,-0.7422566413879395,-0.18215572834014893,-0.006387114524841309,-0.8768744468688965,-0.8152167797088623,-0.1419435739517212,0.9556984901428223,-0.45231378078460696,-0.9184610843658447,-0.9214212894439697,0.4503602683544159,0.04318821430206299,-0.371465802192688,0.5779800415039063,-0.7166292667388916,0.4191848933696747,0.45018407702445986,-0.3929656744003296,0.21102535724639893,-0.8057210445404053,0.3609754741191864,0.6191394329071045,0.19167721271514893,0.473070353269577,-0.5114119052886963,0.39018818736076357,0.719083309173584,0.1188884973526001,0.9028387069702148,0.9237072467803955,0.18639099597930909,0.5563278198242188,-0.739238977432251,0.42282888293266299,0.2025083303451538,-0.11909449100494385,-0.7368435859680176,0.756260871887207,-0.6425414085388184,0.44850704073905947,0.24435508251190186,-0.2107619047164917,0.07302367687225342,0.8880975246429443,0.22108995914459229,0.4778697192668915,-0.680657148361206,0.9226095676422119,-0.2866173982620239,0.6414663791656494,-0.3663235902786255,-0.768756628036499,0.13983356952667237,-0.051848530769348147,0.2466055154800415,-0.9699876308441162,0.7275748252868652,-0.5747189521789551,0.19928371906280518,0.6423044204711914,-0.031424880027770999,0.17359435558319093,0.6338207721710205,0.42499515414237978,-0.06158125400543213,0.021652817726135255,-0.9741418361663818,0.8317651748657227,0.41765376925468447,0.21803200244903565,0.46724769473075869,-0.8289880752563477,0.9756677150726318,0.922860860824585,0.19664275646209718,0.71278977394104,0.5020232200622559,-0.47760188579559328,-0.6599509716033936,0.8748235702514648,0.9863102436065674,0.4567210376262665,-0.7829203605651856,-0.08178460597991944,-0.8443295955657959,-0.7793142795562744,0.4577579200267792,-0.28503286838531496,0.281938761472702,0.2703375518321991,-0.9857492446899414,0.18333637714385987,0.41307613253593447,-0.09429013729095459,-0.12223732471466065,0.973766565322876,-0.2713581323623657,0.5215041637420654,-0.12332165241241455,-0.059830307960510257,-0.5898537635803223,0.40880247950553896,-0.623969316482544,0.8655126094818115,-0.2970980405807495,0.8023173809051514,-0.6674976348876953,0.243554949760437,-0.39920103549957278,-0.7917563915252686,0.967606782913208,-0.9030025005340576,0.5033149719238281,-0.790062665939331,-0.9716064929962158,0.06890714168548584,0.20942485332489015,0.868748664855957,0.7935259342193604,-0.8050498962402344,-0.6514744758605957,0.4994301497936249,-0.23290717601776124,-0.15741956233978272,-0.9574127197265625,-0.8021194934844971,0.3720557391643524,0.559598445892334,-0.2542821168899536,0.9499027729034424,-0.33398401737213137,0.792651891708374,0.13084828853607179,-0.4668463468551636,0.3264105021953583,-0.6712257862091065,-0.43208467960357668,0.44951507449150088,-0.216560959815979,-0.25033247470855715,0.8063905239105225,0.34196898341178896,0.860945463180542,-0.2277153730392456,0.9834177494049072,-0.5198323726654053,0.4440166652202606,-0.4306124448776245,-0.5480806827545166,0.07916867733001709,0.4664556682109833,-0.35438621044158938,-0.2004457712173462,0.15043365955352784,-0.4337671995162964,-0.7228264808654785],"biases":[-0.7017378807067871,0.011312603950500489,0.4758777320384979,0.31735941767692568,0.7842371463775635,-0.3289254903793335,-0.31219494342803957,0.36456653475761416,0.22920668125152589,0.532649040222168,0.6623320579528809,-0.6986808776855469,-0.04326808452606201,-0.9991605281829834,-0.10729682445526123,-0.3008226156234741,0.7780215740203857,-0.5857150554656982,-0.45329535007476809,-0.5620293617248535,-0.09919583797454834,-0.6042459011077881,0.13975775241851808,-0.8123207092285156,0.7662503719329834,0.04204094409942627,0.2538568675518036,0.3140575587749481,-0.2465764284133911,-0.8196501731872559,-0.22854149341583253,0.37926623225212099]}